i,-2.1831324,0.6693887,0.49756894,0.09482726,-0.37906513,1.7279035,3.9370353,0.39876786,0.64911115,-1.2127138,0.9360208,1.5374979,0.5834524,-0.8950699,-0.17641433,1.0220096,0.2446899,-0.30466864,-0.008342425,1.1897225,0.058689713,0.24308068,-0.444091,-0.16136406,0.73405933,-1.3636557,-0.14803533,1.6285543,1.58748,-0.32474396,1.6740395,0.62679166,2.3841724,-1.0611564,1.8345321,0.4640557,0.3037168,1.067396,2.2373059,1.8995277,0.44411668,-1.5200815,-2.9469764,-1.3905958,-1.5710459,0.9602532,1.9726009,0.7340396,1.0520991,-0.02121059,0.5528393,0.16446915,1.325557,-0.08101525,-1.7026582,-1.1613406,-0.7600468,0.44288293,1.8341498,-0.009340446,-0.47331738,0.049869735,0.050958395,-0.21246184,-0.44787893,-1.9021322,1.5777754,1.293266,0.07107854,0.8973343,-2.30097,2.06244,-0.05963416,-0.4727924,1.8632908,0.9471987,0.45277366,1.359252,1.8114786,-0.2760066,0.4057227,-1.3048114,1.9554195,-1.6447992,-1.7788273,-1.1417793,0.87529427,-0.56623256,-0.9578336,-0.5065406,0.02339972,0.13793518,0.7841725,1.6160952,-0.13686585,-1.1479222,0.5457731,1.1325048,1.4865007,1.4927431
you,-0.7073984,-0.9351544,1.0662719,0.85878223,0.5295178,1.0531168,1.6102842,-0.5808365,-0.44736266,-1.6164775,-0.1293246,2.088189,-0.7590542,-2.315958,-0.8907555,1.4664785,-0.005716284,0.19356234,1.4420792,1.6966519,-1.6030923,0.9453654,-0.5758162,-3.0290015,2.9552696,1.0501568,0.16195746,-0.004411777,0.9248938,-1.2503768,2.3369558,2.7035544,-4.177774,1.4191345,3.6980412,-0.86320233,-1.9306589,1.1538688,2.2245784,0.21647048,-0.7564021,0.84092975,-1.0766966,-4.1939545,0.18474048,-0.46041307,3.898201,-1.421122,0.4855598,0.024729734,0.5084615,-1.018819,-0.05209605,0.8945351,-0.031531174,-2.543378,0.20358884,1.0827119,4.1720223,0.33135054,1.9647884,2.3219714,-0.2725529,-0.35969672,-1.6831764,-2.523801,-0.71441966,0.4632926,3.192631,0.6822651,1.9908504,2.1292546,-0.7691743,1.4763627,2.5074365,4.3301144,-0.8399846,-0.7326339,0.4633559,1.2586129,1.7665615,-0.8347218,-0.20037906,-0.14136934,-1.0510834,1.0712792,0.73006576,-1.0560156,0.5442522,0.6222281,-1.3394192,1.6533442,1.7618448,3.8846695,0.17468078,1.9309545,-4.0851593,2.482562,0.050925333,1.6228317
we,-0.72281504,0.86773366,2.1965733,-1.0568813,-1.0698578,-0.111196905,-2.0145423,-1.7166523,-0.8343613,0.4982508,1.9674183,-0.029801032,1.2509944,0.10859724,-0.143528,-0.17888086,-0.9899885,0.963783,0.78072196,-1.7847446,1.4307593,-0.32480147,1.1928995,-1.6252671,-1.525822,0.8067935,0.44731864,2.4424615,0.78161955,-0.53766584,2.9641206,1.6410812,3.3056133,-0.4499366,1.4588785,0.772229,1.0645298,2.561506,-1.6629032,3.0765598,-2.488176,0.37430325,0.11137096,-0.36476532,-1.3460202,-1.6148583,1.3715719,-2.244979,-1.247339,-0.13275534,-0.96729356,-0.069820724,-1.9299666,-0.042753894,1.4103569,1.7779635,-1.7440585,0.10623193,-1.4014568,-2.3904555,-0.20719512,0.79631716,-1.4554068,-0.054754335,3.3570092,1.5929826,0.24912183,-4.1011147,1.163026,1.3446304,-1.7450722,-0.48720303,-2.0474102,1.2170423,-0.607235,2.6172945,-1.5623401,-0.77044225,-2.0216246,-1.6823164,4.6644206,-4.43854,-1.1717588,1.1256598,-1.4811443,0.9338787,1.3156868,-0.08052453,-0.5270167,0.21163183,1.3456892,-0.10914866,0.4085991,1.5363413,-1.4654573,0.41269135,0.9477723,3.3936331,0.486058,-1.3213383
this,-0.59304804,-0.45543408,-1.6526252,0.6292101,0.15822911,0.38090718,-0.25465545,-1.102786,-1.3067964,-2.3796415,2.8585598,-0.084607996,0.38467082,0.7092684,-1.6028061,-1.8944511,0.1021291,-0.53828245,0.6118145,-1.6782585,1.6677351,-1.8260736,2.4551094,-2.3243012,-1.3124342,0.46967053,0.21089761,0.033514142,-1.1386143,-0.6903576,2.211487,0.74662524,-0.097909294,-1.3945879,-0.91814345,0.08594147,-1.2538759,-1.6161469,-1.1936383,0.024183115,-0.21292381,-0.15223841,-0.819985,-0.6657292,-0.008665164,-1.0159465,1.0095487,-1.1134144,-1.3995333,-0.13777368,0.30938682,0.8695402,-1.0232264,0.6637904,0.1341099,-2.2296638,-3.2720835,1.2101291,-0.7197016,-0.24290483,-3.5487986,-0.17518795,2.1544669,-0.7120305,0.5212364,0.6445809,-0.37850976,1.8359519,-0.5559663,-0.49276316,1.034898,-0.62577564,-2.0079296,-0.26764646,2.3920367,-2.034879,1.0722667,3.0327394,0.1947972,2.0169637,1.7760658,0.85365415,-0.41625407,-1.8520623,-3.2702417,-1.5510601,0.09088055,-0.3422792,-0.8000687,-1.1704808,-0.6569834,1.8497883,1.9835061,1.2870864,-1.8295527,-1.7537197,2.8987973,-0.5249245,-0.55346054,2.5603175
that,0.055502426,-1.7404045,1.5914217,0.09341613,1.6989303,-0.05718724,0.3358673,-0.32373032,0.71846336,0.59800047,-3.7946405,0.485404,-0.30781552,-0.4512507,2.0238972,2.3639612,-0.53757596,0.15513194,-0.2067257,0.3915752,-3.0453138,-0.997375,3.6102707,-1.6263441,0.8142991,-2.006604,1.7133461,-0.43034038,1.4160833,-0.9125733,1.4147787,0.79495245,0.24950385,0.6363351,1.3180763,-2.8927267,0.5293899,-0.09954572,0.47229573,-0.13439977,-2.1824548,0.54607874,-0.9024299,-1.8237852,2.715702,2.1326568,4.5559106,-0.60575366,-1.1560537,2.8134215,-1.5133128,0.86368775,-2.895134,-1.8395252,-2.3885462,0.39318597,-0.99345154,0.892101,1.6726278,3.634558,0.98141646,1.7446772,-0.5652192,0.7922513,-0.45729017,0.647202,1.4443678,1.6150727,0.1532201,2.2006338,0.11698886,-1.0477167,-0.37779984,0.53994113,-1.5030499,1.3511552,1.0868069,0.12409624,-2.5225317,1.6270247,1.3638247,-0.40489915,-1.8523082,-0.11577853,0.12116154,1.8977586,-0.08361057,-1.2223834,1.1962602,1.0371224,-0.53990227,1.4916525,-0.88988286,3.0945692,-2.1024477,-0.20464711,0.8739483,0.36269078,1.8683492,1.613197
who,0.009389897,-0.4551004,-0.6964569,-2.5587256,0.41686773,0.53235584,0.95206934,-0.70993525,1.6486262,0.8844854,0.1604054,2.1052215,-0.118326284,0.94127434,0.07783258,0.83383256,-0.23840678,0.2349865,-0.3169892,0.1411155,1.2698363,0.3022779,1.5401083,1.1463538,0.38723132,-0.8945518,0.05764566,-0.31383833,0.4588405,-1.7100576,-0.122292936,0.99031353,-0.09984714,-1.0082911,1.32594,-1.8233747,-1.546433,-0.4470514,0.5299371,0.27045333,-1.1217942,2.0447996,0.8165936,-0.5575955,-0.45905948,-0.82263947,0.44175753,-0.6033876,-0.6481646,1.10875,-0.13121052,1.3262564,0.24935721,0.006940921,0.4421145,-1.7693168,0.20756276,-1.0422359,0.00331449,1.3260143,-0.3952174,-1.3745772,2.175459,-0.5196058,-0.51643914,-0.48289058,-0.0563519,-0.9470648,0.5454333,2.6712482,-0.22744302,-0.8168568,-0.8027925,0.117390715,0.24583967,-1.315135,0.30369774,-1.3804208,-1.949922,0.16947035,0.7109139,-0.11745795,0.6011949,-1.4301982,-1.5779285,0.50386566,0.6886995,-1.8032204,-0.86345667,0.58599645,-1.5243254,0.38042057,-0.087332964,-0.6724543,-0.36452293,0.4578772,-0.7373877,-0.16962254,-0.5525801,1.6242094
what,1.4529129,0.011275053,0.009994824,-1.8255388,0.5298533,-2.1986883,0.515479,-0.6960127,0.43055367,-0.90627146,-0.8285382,2.361223,-0.5440611,2.189827,-1.1517863,1.3113465,0.33464053,-1.0102247,-0.38430193,-0.12686054,2.057361,0.50025254,2.374386,0.23531581,0.12875386,0.48120522,0.6509447,-0.83807784,0.6658253,0.26818898,0.8560992,1.8100628,1.0243373,-1.4794167,1.6034368,-0.2388056,0.18109472,0.7159125,-0.040463526,0.79537654,0.34888342,1.3149587,0.70241517,0.027145803,-0.3601037,-1.623374,-0.31864086,-1.9723128,-0.2605256,1.5586451,0.67642087,1.5598845,0.1917573,-1.7338619,-0.9073276,-2.0518785,0.17565091,-0.64279157,1.1598164,-0.6091059,-0.6328121,0.8628282,0.6731375,-2.029814,0.62766385,-1.5058435,0.7803704,-0.4464887,-1.4927827,0.33024994,-1.687571,-0.96297926,0.19104399,-0.289014,0.9893679,-1.0314304,0.04884095,-0.57496333,-1.5454189,0.59382135,3.1455867,-0.7812722,-0.71626645,-0.25742927,-0.099495254,-0.6699929,-0.19292557,-2.3104382,-0.000515421,0.44959736,-1.0343527,0.10165441,0.7086795,1.0394489,-2.7213871,-1.294748,-1.030171,0.37865734,-1.2207606,1.5206805
not,-0.91596943,-0.97367936,0.8907509,1.4292859,0.48946843,0.94695455,0.088645875,-0.8261563,1.5061127,-0.15040474,1.5995865,1.0439442,2.4496374,0.31218553,-0.5156064,0.22604309,1.7379366,2.8803399,-0.6834201,0.6829152,1.9280621,2.2669966,1.8877481,-0.8720498,1.2764847,0.6726384,1.0513908,-0.6820131,1.8734356,0.8919595,1.1247618,0.90408254,1.9794551,1.1174136,1.0749576,0.5212972,1.2356881,1.4996595,-0.19022433,-0.028549671,0.24325828,1.3000523,-1.1853701,-2.146184,-1.5871487,-0.31539345,1.8424053,1.6418701,-0.7707334,0.53303176,0.31148556,-0.20560403,-0.10496367,0.82041186,0.71537995,-0.28251508,-0.32672063,-1.4689106,0.89885813,1.3262659,-1.2512884,-0.30623809,1.1938988,-1.4040394,0.02201891,0.30779734,0.3546513,-0.20862627,0.31329003,-0.56281036,0.018318126,-0.34294832,-0.28723267,0.4781156,-0.99462414,-1.487568,-1.925727,-2.4096713,-0.38080564,-1.0845343,1.1819415,0.36173126,-0.23615463,-0.9384332,-0.026129523,-0.9981561,-1.2203048,-3.2860615,-0.17307043,-0.16907507,-1.001274,2.323293,1.481762,1.3909949,0.35045877,-1.4622393,0.37935722,-0.6066199,1.0263691,1.1743861
all,-1.208229,-0.100390114,0.34081137,-3.026788,-0.57865334,1.5936289,1.1581832,1.794052,0.72972935,1.9015623,-0.35838494,0.57133,-1.4821421,1.0947148,-2.5821688,-3.198272,-0.5461764,0.69034666,1.5657039,-1.2878377,0.8294762,1.3207246,1.949213,2.8595295,0.6089666,0.36812416,0.9374811,-1.6844081,-0.399184,2.253313,-2.4871855,0.7357686,-2.4522312,1.7501961,-0.24075381,-1.0600363,0.7781184,-0.39477888,-0.8883116,1.3221006,-1.7805611,-0.17275308,0.02994428,-0.31252852,-0.2075758,2.045684,-1.1861728,3.2891693,0.0548958,0.90513796,-0.19776003,-0.35956517,1.3432479,-0.4004022,0.15171796,0.3021468,-0.12260429,-1.1256877,0.7437875,0.4820138,-0.5159657,-1.7933673,-2.6105707,-0.66777414,0.8652999,-0.08549926,-0.22123957,1.213534,0.17592506,0.6422365,-1.4136196,2.7729776,-1.9165789,2.292825,-1.5386367,-1.7487116,0.24556796,1.9797901,-0.71097916,-0.95827836,2.4257848,-0.1738279,1.430191,0.49813047,0.22410925,0.02688694,0.5742155,-0.43152177,0.65148914,-1.0389456,-0.5700667,-0.44610837,-1.9116532,0.48485327,-0.93548745,1.8937807,0.80915564,-0.35197708,2.1898596,-0.6984981
many,-0.50231296,-1.25409,0.7527599,0.7302537,-0.10482303,-0.4189575,0.8088581,1.0594658,-0.2882067,-1.987933,1.3968897,-1.9865669,0.96829623,0.13348812,1.5038242,-0.12926151,0.08287269,0.08992765,-0.012016009,0.04133484,-1.0369333,0.1635968,-0.23277552,-0.11845124,-1.0272373,-0.89635617,-0.8496156,-0.8440134,0.71571517,0.45577994,-1.465747,-0.59536165,-0.024706522,-0.77641916,-0.8190605,0.74288064,-0.03551944,0.2969172,-0.76877755,0.63371134,1.1304754,1.2275132,0.39084807,-1.1365553,2.2317092,1.6561846,1.4477564,-0.63764375,-0.4718262,2.018881,-1.084321,0.11349972,0.06883007,1.1609057,-0.0737381,-0.8567745,0.69916767,-1.2616798,1.0168636,0.86636907,-0.5283667,-0.2380917,0.49056673,-0.40811065,2.097962,0.07321914,1.9228176,0.30722502,1.4586056,0.11434928,-0.2861967,2.259427,-0.6294279,0.22152495,-0.76944846,-0.6273699,1.367962,-1.7024798,1.7655758,-0.841497,0.31359234,0.9571433,0.091904484,-0.99496484,-1.8389627,0.77272636,-0.49048078,-1.0395049,0.79348356,-0.74442387,0.29908413,0.3659208,-0.22864191,-0.2854528,0.14360805,0.1010592,-0.8331621,-0.2155015,-1.4212373,0.38411665
one,-0.7914414,-0.50142246,1.734526,0.032835405,-0.33260491,0.99575347,0.35665166,-0.032269437,2.9142475,0.9046517,1.0107099,-0.31881973,0.8519636,0.7858358,-2.1212356,0.80581117,-0.3665557,0.7465692,0.5302399,0.99209803,0.99668854,-0.4575987,1.3847232,-1.9635915,-0.3224404,0.35692796,0.69116384,0.73481196,1.1288595,-1.2034835,-2.438244,-0.73111826,-0.63983417,-1.2344223,0.27139932,0.51102215,-0.67029405,0.09810916,1.5704837,1.7008909,-1.1886024,-0.11921203,-1.2199842,-1.5854203,-1.2424335,-1.364457,-1.7750925,-0.667092,-0.4424932,1.5885401,-1.5037575,1.6456861,-0.4972568,0.8212602,0.043920588,-1.5957174,1.5264331,-1.218932,-1.4279951,-1.1351153,0.27889803,0.4631771,0.52437377,-1.8962706,-1.6527578,1.2261864,0.9225216,1.1386497,1.2114023,0.38789973,-0.6301039,1.0820576,-0.5597859,1.0083424,-3.2091997,0.37882206,0.6163481,-0.39026794,0.031810362,-0.000591397,-0.3899703,0.6839399,-0.14730525,-0.5625376,-0.50085205,0.6811823,1.0584161,-1.7347056,2.4705312,0.81004864,-0.2812483,0.70248765,0.81118274,0.25718316,-1.7158116,0.9281547,-1.1820087,-0.670374,-0.8800052,1.2852672
two,0.08398422,1.2966856,0.6873324,-0.30953988,0.20272665,-1.2459677,0.7292743,-0.08429861,-0.20033832,-1.1702918,-0.097685814,-0.6102197,-1.5330563,0.28054324,-0.064081706,-2.368766,-1.0753223,0.72251225,1.0447887,-0.32751846,1.0582508,0.029285988,-1.5329442,-1.0419673,-0.72429895,0.006411026,0.9157103,0.47073627,0.91199285,1.2979735,-1.3700191,0.6288657,-1.3474826,-0.024078429,-1.2101748,0.7322138,-0.29079393,1.0695415,0.15372682,1.1345245,-0.7482509,0.31521812,0.33542576,-1.923489,0.77921534,-0.58731383,0.31778777,-0.45499483,-0.9033499,0.98927546,-1.7022151,-0.4909011,0.52596575,0.23340093,1.0920625,-0.49345088,1.7449182,-0.60083175,-1.1937858,0.88909084,-0.03442057,2.2486687,0.13124482,-0.496639,1.2157792,0.8761124,1.4338962,0.011593461,-0.13896056,0.024187425,0.86351013,1.4798965,0.6688843,0.49803916,1.4217863,-0.44688496,0.25908387,0.976635,1.0372381,-1.2322612,-0.9316537,0.6681115,-0.118418,0.5802503,-1.110428,0.77230215,-0.123582125,-1.5420269,0.7441308,-1.3089631,-0.9487495,1.1489748,0.37153554,0.05866601,-1.9140635,-0.24365704,0.21479173,0.20591038,-0.95234656,-0.10920384
big,1.0063237,-0.21098173,0.51260257,-0.003761053,0.7926919,0.64682853,-1.2078028,-0.44734585,-0.91463965,1.2931567,2.664798,0.88066554,1.344936,-0.7583088,0.88284826,0.90514994,-0.34717295,-0.50348514,0.031403366,-0.53004116,1.2422612,-2.148851,0.021374544,0.70228416,-2.0763905,-0.20551033,-0.25580633,-1.7329617,0.31237867,-0.7475268,-0.59623814,-1.0040526,-0.75711626,0.020428339,0.7688195,0.8253673,-0.7536425,-0.38460025,-0.7322965,-0.055965245,-2.625421,0.07126681,0.38222182,0.78985596,-1.1449925,-0.34915137,0.10971085,0.9519009,-1.785019,0.4256223,0.44798526,0.69765633,0.16059645,0.69703245,-0.5797698,-1.8379346,0.9168921,0.02699115,-0.56571037,0.12038151,-0.825644,-0.9765234,-0.13700795,-0.27706352,-0.7213333,0.6239479,1.6162696,0.123378046,0.98079365,1.8400879,-0.20711851,1.099095,-0.14487441,-1.2201883,-0.550838,-0.27404556,0.68019384,1.7177258,-0.94737715,1.0881733,0.55911726,-1.0618976,-0.024295291,-1.3406245,-1.7426621,-2.3206704,-0.47756684,1.741135,1.2437536,-0.10613754,0.67093205,-0.087303795,-0.6519873,-1.0189689,-0.5443756,-0.17394257,-0.53399444,-0.29126397,1.0700762,-0.60187393
long,-0.3436269,-0.66179544,-1.029089,1.3468719,-1.3781756,0.72020775,1.2394753,0.5462763,-0.2274179,-0.042945426,0.031147301,0.7939451,0.38515034,-0.99298364,-1.2878618,-0.30210912,-0.9365527,0.79132086,0.9448536,0.76395136,0.5726097,-0.07433903,0.69569844,1.9258472,-0.46609274,-0.5301742,-1.5544454,-0.9302681,-1.9339057,-0.3432722,-0.18903436,-0.2842312,-0.99588984,-1.2296273,-1.1640048,-0.19930609,-1.0143727,0.083835654,1.4173876,-0.7060385,-0.9793759,-0.76486963,-0.27293864,0.6701967,0.17929505,-0.61438006,-0.5965279,-1.6049414,-0.29380888,0.70911914,-0.5384814,-1.4014655,1.1445946,1.0328345,-1.6228486,-0.75314385,-1.3487706,-1.5660721,-1.0989562,0.12403295,0.13127387,0.65732974,1.2498481,-0.28231668,-1.452651,-1.596282,1.7670671,1.4559675,0.49454305,-0.048175633,0.19793205,0.26273274,0.92461157,0.5444719,-0.84664273,1.334987,-0.38654545,0.98786753,-0.09501284,-1.3167685,1.0480477,-0.41925183,-0.6191739,-0.3451836,-1.3602446,-0.9078047,0.107453205,-0.37006852,-0.68404835,0.18601377,0.29876348,-0.6824787,-0.62744015,-0.6030323,-1.2560629,0.3240501,-0.7731793,0.29035836,0.69122726,0.1629821
small,-4.086496,1.937583,-2.0410583,-1.0941281,0.12895398,-2.1300323,0.090955734,-0.041006286,2.3997872,1.3140334,0.35898492,0.1665055,0.6746414,-0.112486206,-0.3422123,1.157466,-1.3218888,1.0290576,0.7630856,-0.5484565,-0.91258603,-1.8081976,-0.79736215,1.5027744,-1.0396477,-0.6376458,-1.4552377,-0.9805185,0.5642104,-2.4364195,-0.51265323,1.9385916,1.0281254,-0.81103945,1.6853653,-1.7117049,-0.8879626,-2.2716963,-0.6670804,1.3666939,-1.0414802,-1.0761582,-4.516229,1.044011,-0.80784035,-0.63106894,-0.3085663,2.190523,0.6937234,-2.0501518,1.2158356,0.07433521,0.4581826,1.71733,1.1932553,-0.08311558,-0.14244457,-1.923988,0.70359546,-2.1054103,-0.10822471,-0.30901244,0.11485929,-0.21977592,-0.033543844,0.88559467,-0.14417636,1.6026497,0.4873102,0.52251345,2.6454453,-0.55788153,-0.9472871,1.6492782,-2.0407755,1.8703775,0.24290685,-2.0889091,-2.6274643,1.5745788,-0.054451544,0.91571397,3.3689928,0.4022392,1.4883438,1.0502471,0.4716468,-0.764421,-0.1527865,0.19427519,1.5175457,0.9707081,-3.194849,0.775549,1.214213,0.5748535,-1.4234377,0.4697709,-1.2014958,0.8071107
woman,1.3987613,-0.86121637,-1.5315113,0.31540918,1.8325043,-0.2909285,-0.03900669,2.28852,0.5064668,0.74913055,-1.4588095,-0.5339151,-1.422088,-2.9847634,-0.08102115,-0.70119697,1.7439603,-0.9715983,-0.76580715,-0.020063847,-0.48230577,-0.8326948,1.1741251,-1.1579776,0.5106799,-0.21228766,1.0158116,-0.013084938,-0.5841113,-0.4721917,-0.40973076,0.4434818,2.3150904,-1.428059,1.6834468,-2.6949284,-0.30292034,-0.17895229,1.6336261,0.71677786,-1.1862787,0.179294,1.7409805,-0.51794213,0.22634833,-0.485852,0.7073803,-0.39763698,-0.17836809,0.37869492,-1.3465997,-0.2291164,0.4550598,1.0085057,-1.1376227,1.0652634,-2.0114021,-1.1701297,0.090121955,0.12546699,1.3477007,-0.8762629,0.026829243,2.2277946,0.021650473,-1.1869116,1.5219908,0.72841287,-0.26583135,-1.1196059,2.1253874,3.0835006,0.052303832,0.19291551,-0.90624434,0.52298707,-0.1286554,-0.7709932,2.189453,-1.294658,-1.2724057,0.22890912,1.8190285,-0.73441535,-0.9888031,-2.4511569,0.9719382,0.3389945,-0.20750372,0.8421388,-0.28409123,-3.3209639,-0.44218457,-0.2858049,-0.12359031,1.4984688,-1.0730001,-1.1192217,-2.1427677,-0.3594683
man,0.14392953,0.3992175,1.1537125,0.17083049,0.47726426,1.5565065,0.35087827,-0.706947,0.79974866,0.76036,-0.70547223,-0.76408285,-0.12258983,-0.28081682,-0.5139758,-0.37461552,2.0896435,-1.1983582,-1.4242529,0.31263083,0.1949027,1.6695986,1.4939122,-1.2369456,-2.0853906,0.17015783,0.6635236,0.12924075,-1.3803283,-0.8145089,-0.6616154,-1.1902122,0.14122401,-0.27384186,0.32618138,0.9018046,0.99419385,2.0045009,0.10424622,2.1889527,-0.13080047,-1.9039311,-0.06939149,-2.0487475,0.30210653,0.5251654,0.8866291,-1.0314351,0.59031457,0.90300804,-1.4932877,1.4468207,2.4556847,0.7154748,-0.24384825,-0.33327356,0.60255545,-1.5691395,1.0859777,-0.13584699,2.6606667,-1.8700958,0.61549973,-1.1389378,-1.0119265,-1.3005356,-0.01840351,0.9765837,0.4233973,1.3489367,-0.76637936,-1.8770962,-0.05056548,1.0197426,-0.7412918,0.9576095,0.6132527,0.3587205,1.4595017,-0.11546796,0.49719855,0.3482127,0.9105858,-2.90604,-0.6866198,-1.0376718,-0.364117,0.24187672,0.5092733,2.0193844,-1.6020411,-0.52633876,-0.3280109,0.25968835,-1.6747484,2.096995,0.23572753,-0.4430431,1.4666497,-1.121027
person,2.3367574,0.59295404,-1.3634315,-2.243653,0.24921118,0.30112448,-0.32100967,-1.8425192,0.07678827,0.9057445,-0.7990138,0.30562398,1.1665611,-0.023170391,-0.2811651,0.52851003,2.0141413,0.275823,-0.2735044,-0.13630162,-0.42512885,1.985454,0.29074618,-2.4977443,-0.6878113,0.28797737,-0.21631217,-1.0918837,1.7627201,-0.13575514,-0.23937505,-0.06205046,0.73804975,-1.7246948,3.1324282,0.9407055,-0.04437645,1.1496371,1.473414,-0.1617381,-2.5149672,-1.2902863,0.43705034,-0.96033525,-0.22930132,-0.18795764,1.3411723,-1.403649,-0.7232418,1.7746625,0.073369205,0.02524986,1.4486765,-0.7315704,0.09316213,0.59421045,-0.34857598,-1.211531,-0.6820653,1.3008163,-1.2488853,1.8232731,0.3410059,-1.7160474,-1.0153844,-0.4703807,0.9416664,-1.217234,-0.32901064,-1.0984389,-0.13536726,-0.5460233,-0.21105702,1.6539173,0.55519146,-1.4337748,0.70516974,-1.3800554,1.3374104,1.5651631,0.49044403,2.0260518,-0.3746765,-1.4351792,1.4059888,-0.70397925,-0.13540097,0.37856698,1.020644,0.40816298,-1.2450657,0.9046922,1.6074401,-0.2712073,-3.466421,1.8862153,-1.3724828,-0.70156246,1.9234419,0.8443902
fish,-0.5941484,-0.7924781,-0.54713506,0.34738457,1.1760737,0.003050198,1.1947168,0.14788836,-0.4212054,-0.14465807,-2.1107695,-0.37325358,0.2675635,1.5084683,0.20251517,0.101022504,1.3401972,-0.44765761,0.23245162,-0.60481966,-0.2994816,-0.4926026,-1.0907824,-0.86860245,-0.14255923,0.027219415,-0.8526616,0.6307712,-2.2810645,1.2825817,-0.83183855,-1.0603809,-0.07880326,0.47158194,-0.7402907,0.2006008,-0.3602241,0.65764004,-0.6589271,-2.4151447,0.11718643,-0.29255787,-0.18356748,-0.64281833,-0.4592012,-0.9475029,0.4422401,-0.45075884,-0.37235227,-1.0653764,-1.7634788,-0.27875772,-0.0315547,-1.0119089,-0.86657786,0.55686074,0.5498474,0.16311331,-2.5483863,0.5138672,3.010821,1.5159415,1.2688404,0.9860122,0.8381567,0.9518774,0.70114535,1.310809,-0.017686665,-0.21142887,0.16279304,0.04673214,0.70478773,0.35670352,-0.6616431,-0.049798567,-0.19783263,-0.1797328,-0.120781474,1.0638323,0.16810901,-1.0768949,-1.1586436,2.3632565,-0.27789727,-1.1731321,0.9234083,0.28972045,-0.25641695,2.075917,-1.1574556,-1.1113846,-0.9793951,-1.8815516,-0.49497762,-0.9150977,-1.7220259,-0.53690153,0.8375292,0.3103454
bird,-0.004148295,-0.75410324,0.002395521,0.24577129,0.005755445,1.1920546,-0.580395,-0.656074,-2.1648638,-0.048546642,-0.5945607,-0.13927887,0.6505868,-0.10282183,-0.020709744,-1.2885429,0.4439638,0.73543507,-1.1910452,-1.7573423,-0.10401005,0.6564595,-0.48907837,0.56564367,0.91943765,0.5235679,1.2407907,0.47473514,-1.9216245,2.3254359,-0.50393134,1.0516101,1.263838,0.8091349,-1.40175,0.7072899,-0.34066853,0.5235112,0.5225691,-1.5902939,0.14271529,1.0368208,-0.6391127,0.53278834,-0.4053627,0.44966245,-0.12649436,0.36882523,-1.4007925,-0.2303557,-0.37103906,-0.16966689,1.1275944,0.41083947,-1.543645,-0.56729466,-0.8140116,1.1124183,0.1445992,0.96931773,0.15747298,1.053583,0.14012982,-0.9702315,0.78986263,0.00830998,-1.7932396,-0.24671866,0.29432026,-1.9404796,1.6866779,-0.74749166,-0.2094686,0.9192548,-2.8586042,-0.3526319,1.2250756,-1.3630878,-0.444019,0.569781,0.5413466,0.099577256,0.8579586,-0.02431357,-0.85476094,-0.7192946,1.3063203,-1.5539211,1.7994839,2.372178,-0.05068861,0.47237602,1.3963556,-0.4912289,-1.3492833,1.1040417,-2.1587691,-2.9255326,-0.22320803,-1.611764
dog,-0.03232952,-1.939856,-0.3284743,1.7186075,0.79801935,-0.061958313,0.22527118,-1.1357144,-0.017239451,-0.16882564,-0.7625334,1.763011,-0.6756649,0.5284343,-1.4433612,2.4126282,0.34335694,0.6852625,-0.55127364,-1.6442308,-0.49430346,0.42657194,0.72362024,-1.191869,0.78571326,1.5261179,-1.1758347,1.3651491,-0.6233975,1.7695707,-1.4544247,0.41857255,-0.42722654,-2.0725598,-0.15985788,1.7684354,0.36869326,-0.2812021,0.9831597,-0.76416606,0.83675843,-1.7891458,0.61065286,-0.23601927,-1.6315694,-2.761183,-0.46706453,-0.8903639,-0.82333106,-1.5268275,-1.3822249,-0.9697532,0.8669534,0.28736836,-1.4213465,-0.54007834,-1.6505872,0.20177253,-1.7177019,0.71495694,0.5125652,1.0999922,0.47075614,1.4651078,1.6126143,0.19394004,1.5596691,1.4333024,1.0251298,-0.23785877,-0.07188964,0.9987286,0.7095464,0.14501631,0.27179596,1.5858282,0.55409735,-0.9000413,-0.74596244,0.06159075,0.7186963,2.1388795,0.6737726,1.5507174,-0.87100655,0.90277904,1.106828,-0.43470693,-0.9155385,-0.42276517,-0.07950473,-0.89476115,-0.23617935,-0.039239883,-0.21233909,1.6099453,-1.7719469,-0.4057295,0.29955113,0.5470532
tree,-0.34866413,1.420812,-0.1973315,-0.33631897,-0.032580674,1.4172655,-0.20898141,0.68509954,0.47736338,0.6693332,-0.24967694,-0.39363694,0.23348726,-0.2963144,0.036090493,0.89500475,1.6672091,-0.61691236,-0.43480933,0.4213564,1.1496786,-0.32337496,0.987833,-1.1407814,0.7600512,0.14088242,-0.85266286,-0.97638696,-0.20180066,0.8438595,0.43930963,1.0343952,0.27014723,-0.33922538,1.086231,0.19275105,0.4795117,0.1840425,-0.5506465,-0.20349576,-0.22189395,-0.45553598,-0.19882269,-0.73795104,-0.5463686,1.0227033,-0.12869173,0.04889976,-1.4008654,-0.9339954,0.00235941,-1.1574329,-0.42579186,1.5262667,0.3617083,-0.06398114,-1.3613433,-0.31034064,-0.6052144,-0.2168523,0.49105772,0.16540019,2.115908,-0.29944,-0.09274304,-0.33558178,0.4242266,0.13175704,0.9439853,-0.94814223,-0.5939722,0.9669152,-0.45967606,-0.24335237,0.7710173,-0.92115086,0.21790807,0.007949773,-0.5410098,-0.31799063,0.77414805,-0.39195922,0.5187893,-0.9338193,-0.08430308,0.42049822,0.7752163,-0.85553926,0.14366089,-0.9063392,1.7727953,0.14720136,-0.059541494,0.13361074,0.21176118,0.8272705,0.66024196,-0.3479319,0.29070276,1.3989805
seed,0.3191183,0.7323081,-0.55072135,1.8056697,-1.5302645,-0.38748574,0.12040391,-0.20287216,0.5292928,-1.2063314,-3.4447546,-0.53824556,0.35980025,1.4810673,0.55302775,-0.18652183,-0.06337226,1.5255357,-0.44063127,-1.2370229,-1.4858847,-1.9503645,-1.926438,-0.82440066,-0.81388205,0.274344,-2.0689073,-0.7053587,-0.44647744,0.50833017,-1.160905,0.30926347,1.2263122,0.37177253,-0.27997303,0.09697815,0.24586232,0.9169421,0.69633484,-0.67030305,-0.76536816,-0.1128304,0.24218798,0.36879435,-1.0560786,-0.8440678,-0.44955885,0.7906451,1.6663002,0.29423913,-1.1549895,-1.1259941,-0.4860417,1.2489837,1.0224892,0.8628428,0.46196878,-0.1629405,1.024656,-1.1353017,-0.12921362,-0.18594325,-0.7105388,-0.9614143,1.5502161,-1.2453722,-0.45919046,0.6614563,-0.38448,-1.2021772,0.89222103,-1.3166887,-0.024438998,0.33727208,0.4008646,2.1450872,1.2377825,-1.4472321,-1.729899,0.19423735,2.6067972,1.2840066,0.62827367,1.7726806,0.24654908,-0.39363134,1.0658883,1.0514286,2.0184186,2.2237635,-1.1237922,-1.0754349,0.3740498,0.10161591,-1.4730071,1.348019,1.6686653,-0.7786587,-0.79741675,1.7961999
leaf,-1.1432048,0.50839376,0.16509517,-0.4358578,1.1828704,-1.0793718,0.624364,-0.9462147,-2.327793,-0.0440104,-1.7289544,1.6464809,-1.050981,-0.2871941,-0.9817908,-1.5606856,0.4030868,-0.6300171,-0.43515384,-1.1822513,0.823057,-2.8215306,-1.7517766,-0.21613054,0.2527777,-0.7349847,-1.7195467,0.8284933,-0.6418547,-0.8242002,2.2347763,1.4220303,0.04229774,0.753921,0.48636714,-0.51141125,-0.11324147,1.68502,-1.0844659,-0.4333607,0.6629731,-0.62776095,-0.71021867,0.37414983,-0.14294161,1.2599665,-0.25786355,0.4465753,0.6385267,-0.14072347,-1.0439476,-0.7874152,-0.600852,0.99725217,0.12473992,-0.36545047,-1.3085921,1.0712609,-0.027534356,-0.8556049,1.4176302,-0.7195088,1.4035444,0.26928344,1.1379261,0.30271468,3.2759902,-0.87861556,0.044194818,-3.2343361,0.25813565,1.213332,-0.9061722,1.8552581,0.04766782,-0.85095435,0.90293455,1.9295958,-0.54021066,-0.7361293,1.2819749,-0.85254216,-0.021359881,-1.7577325,0.42805997,0.26620984,-0.3716257,1.245391,-0.10425091,-0.7545245,-0.7443073,0.75364596,0.37035668,-0.2506313,-1.902133,0.09116242,0.49784103,0.6266887,2.8086338,1.1206363
root,0.26741195,-1.3573838,-1.7805289,-0.086164944,-0.5746668,0.3349618,0.5944131,-0.02715368,-0.9692591,-1.5573148,-1.6510798,0.002582033,0.29560772,1.3386588,-1.4472264,-0.79004055,-0.6307103,0.15679413,-0.4798628,-0.45144805,-1.7767912,-0.6113309,-1.3669873,-0.20414543,0.9582251,-0.36167237,-1.1138626,0.41496685,-1.1362073,-2.3043456,0.5704023,0.177427,-0.34085193,0.2521276,0.11576303,-0.22302449,-1.0493815,0.78750724,0.80936,-1.247135,-0.3361989,-1.0639578,0.41965577,1.9036022,-0.78422254,0.14134112,0.7624684,-1.1533629,0.91020507,-0.7034326,-1.2801067,0.19779044,-1.2476269,-0.54914814,0.2044965,0.21396963,-1.1117784,-0.3523364,1.8713045,0.6677545,1.1822,0.31305745,-0.7553138,-0.2059151,1.8263623,-0.37424126,1.7910806,0.15051521,-0.5474734,-2.2870212,1.1361498,0.16373897,-0.59731513,-0.41083106,0.037048798,-0.028660187,-0.4922793,-0.8939263,-1.3657271,-1.004548,1.233464,0.29123488,1.624648,-0.27233428,0.5763144,-0.15178822,0.36825946,-0.042282324,2.2380905,1.0939082,-0.24834986,-1.166426,-0.29242566,-1.1510904,0.8915944,0.59083855,0.46537602,0.090330064,-0.41884258,1.3396178
skin,-0.19594854,-1.8480644,-0.544349,-0.87108445,0.21300201,-1.1276331,-1.0635377,0.2814751,-0.4769689,1.3007632,-1.9440466,-1.5962735,0.75048524,1.8830642,0.96388024,-0.6480209,0.4958019,0.06599269,1.0870763,-0.7587921,0.11985618,-1.7640563,-0.94072336,-1.5904058,-0.49607012,-1.3634948,0.73349124,0.038536374,-1.1676296,-0.9048918,1.6793276,0.6856391,-0.5036426,1.0963067,-1.8796568,0.37785745,-1.2106229,0.013680427,0.12480577,0.018944582,-1.1867088,0.35454723,-1.0439878,0.005204211,-0.8129235,1.4801673,0.1292953,-0.3553187,1.193963,-0.22237043,0.32445678,-0.7846141,-0.24621262,0.9275534,0.5205929,0.519713,-0.6035896,0.64798075,1.0046653,-0.6751466,1.484046,-0.27757946,-0.6560423,1.255002,0.5591297,1.1584688,-0.053798083,-0.22905004,-1.9066272,0.02526257,1.8405504,-2.7996836,-0.26647046,1.4749655,2.1105874,1.8339338,-1.3528706,-0.1752315,-0.5580017,-0.9253399,0.03598253,-0.036114436,-0.97546387,1.9841924,1.0972744,-0.90862876,0.49388456,-1.6257476,-1.2110885,-0.16214147,1.1896788,-0.79403853,-0.6083714,-1.0135084,-0.8923476,1.9685469,-1.1455153,0.034051176,-0.47798324,-0.47256112
flesh,0.33035585,0.60901684,-1.706171,-0.8785431,-0.056286614,-0.3775548,-1.4166498,0.23712401,0.46473014,1.3202562,-0.38939464,-0.29936397,0.8184576,1.3473886,0.24901807,-1.684807,-2.2353506,-0.6408673,-0.056170065,-2.191612,0.6117007,-0.5860279,0.34822643,-0.4172775,-1.3316926,-1.4013758,-0.75278467,0.15850846,0.5495715,-1.0464323,-0.350239,0.066992365,0.8176585,0.85302705,-0.9905501,-0.1472988,-1.1972333,-0.7235455,0.2130514,-0.0665648,0.04124546,1.1256863,0.25822696,1.6920189,-1.6373216,0.3406953,-0.54543823,0.019871792,0.7417984,1.139119,0.1924318,-1.3354079,1.4444038,-0.03992514,0.94346523,0.34390676,-0.80043584,0.75265914,-0.13181178,-2.6287951,0.8918049,1.3537226,-0.15631743,0.9225767,0.71379805,2.2404478,-0.33643183,-0.42427087,-2.3784044,-0.4344325,-0.041695993,0.7495782,-1.5941186,0.33753452,0.7861159,-0.11212715,-0.39080682,-0.6779459,-0.81713694,-0.32004496,-1.0393354,-0.8553774,0.79841185,1.3850406,2.3281248,0.12584801,0.7786915,-0.23216133,-0.18615372,-0.5473951,-0.021948582,-0.35560048,0.020568674,0.14233412,0.014689286,0.1678005,-1.1586342,0.5577755,0.57093436,0.56244254
blood,1.3653817,-3.0613325,-1.7952324,2.2252896,-1.719921,0.21585615,0.5707064,1.4040257,0.21037303,0.81083745,-0.76428384,-1.2353975,-0.5717997,0.18734558,1.1076633,-1.2051884,-1.0745217,1.5180087,0.036607426,-0.9688916,1.396109,-0.98066014,-1.9204235,-1.1750205,-0.18566765,0.22775286,-0.17091869,-1.9796252,-0.33807722,-1.095363,0.21947889,-0.38209966,-0.2626217,2.0518415,-0.21890855,0.15286054,1.7848825,0.9765835,-1.2841839,0.59706944,1.344159,-0.8850072,0.3300874,-1.0546508,-2.7291348,-0.639981,-2.3506787,0.6343233,0.86686724,0.83224416,-0.81110686,0.17408903,0.96479243,0.4563032,0.1712044,0.20573394,-0.64225847,-1.7059566,-0.5269881,-0.8141201,-0.6322625,0.8002777,0.4276625,0.15919597,0.15608422,1.8399782,1.7912458,0.73529035,0.58102864,-3.3155506,0.60524076,-1.5456651,0.35033086,0.6597877,0.032395303,0.48595187,-0.31306046,-2.2497733,-0.23602486,1.0574057,1.7503055,1.0347934,0.9531551,0.15387933,-0.5111043,-0.180167,-0.59232306,0.41764906,-1.2650743,-2.1220179,-0.12886913,0.32431522,0.2534623,0.65345615,1.5913653,0.9255743,-0.45028353,-1.1241902,-0.90588975,-1.0078248
bone,0.7212456,-0.7168553,0.7560933,1.2806472,-2.172098,-1.3741928,0.21849602,0.92100364,1.6505632,-0.57954377,0.1873521,-0.8989124,-0.64054006,1.3543164,0.42361125,-0.32011014,-1.0657154,-0.6172305,-0.057786215,0.8538478,0.016349852,-1.4369932,-2.3652318,-1.5014647,-0.56061924,0.9438155,-1.4164519,-1.288773,-0.48247078,0.19876416,1.481592,-0.5207148,-2.1393905,-0.41465566,-1.9926983,-1.2036401,-1.1683251,1.8201371,-2.598726,-0.69439816,-0.4889101,-1.6590643,0.026225368,1.5186715,-2.6902592,-1.2097926,0.8361816,1.1438221,0.67247945,-0.07017175,-2.5606909,-2.3141184,1.0779448,-1.3127452,0.8342302,-0.23252805,-0.28971305,-0.94137913,0.98961943,0.11283463,0.66135335,-0.09087392,0.9648227,0.5332961,-0.38944125,-0.31943634,1.286402,-1.3367324,-0.64977384,-0.93509513,3.0318172,-1.6397144,0.18576948,1.1595199,0.7632739,0.5238201,-0.12643649,-1.5924946,-1.5876285,0.072726175,2.1634934,-0.32320145,-0.24864793,1.307634,-0.6152373,-1.0094851,-2.660268,-0.5431049,-0.57145995,0.410345,0.96406263,-0.32559597,0.16927259,0.7832179,0.22505641,0.2633903,0.17661901,0.9776369,-0.7603965,-1.1209191
grease,0.14524479,-0.79504603,-0.27406386,-0.87028223,-0.84487104,0.281742,1.5473152,0.45181787,-0.4606264,-0.87898207,-1.6409694,-1.0833664,-0.8125372,-0.040890038,-0.82016855,-0.32750872,-1.4081635,1.5124865,-0.001780833,-0.89036876,-0.18287973,-1.5936443,-0.5389574,-1.7523388,-0.016737103,-0.09753338,-0.76627827,0.17758425,-0.48406163,-0.5388689,0.43064013,-0.4154204,-0.8722763,-0.3307812,-0.05964761,-0.88303447,-0.29937986,0.15176186,0.08175006,-1.1747359,0.89901906,-1.3784801,1.1370996,0.45405447,-0.67789865,0.28261456,0.12461861,0.08933344,0.7775553,-0.092947744,-0.45158863,-0.28102705,0.526395,0.53856087,-0.22349875,1.3104032,-0.93468046,0.2913719,-0.7257433,-0.13445276,-0.03576857,-0.18334807,0.1661819,1.2959388,-0.008009747,0.9736969,0.3210909,-0.23570168,-1.0674807,-0.3884431,0.4292154,-0.626311,-0.72063226,1.579902,0.7367389,1.6814967,0.475341,-1.0584233,-0.2905397,-1.6580449,-0.10450222,0.23781252,-1.6605802,0.1578895,2.0600393,0.08722979,1.3236716,0.5155274,-0.063970305,-0.30077258,0.98244554,-0.88912934,0.33559307,-0.5561938,-0.12774684,0.28920344,-0.52903444,1.2633684,-0.6861163,-0.12005427
egg,-0.22372462,0.11184397,0.12379727,1.7101016,-0.34950462,-0.04578035,0.13753344,-1.0330992,0.9591195,-0.82552224,-1.9856247,0.46124133,-0.36865914,1.9485952,1.1699318,-1.1300606,0.1494094,1.71793,-0.32130733,-1.3793874,-0.94621795,-0.06680607,1.9514828,-0.81313807,-0.8269691,1.7854391,-0.49281135,0.45034793,0.032352965,1.0395106,0.9009153,1.9893302,1.1832509,-0.32354486,0.33720243,0.06440259,0.88018066,-0.93969154,-0.5772955,-1.0185223,0.0648447,-1.5259875,-1.1190422,-1.6006131,1.1124749,-0.28405866,-0.5259585,0.7271564,-0.91636425,0.2902628,-0.79150295,-1.0481079,0.5271605,0.7046316,-0.86654645,-0.75097615,-0.44021425,-0.32403383,-0.9065175,0.09739844,-0.2587689,-0.61087,-0.33322355,-0.19851589,0.87388253,0.18640794,-1.5266409,-0.41326848,-0.59560746,-0.96240807,1.2665896,-1.0339805,-0.5035718,0.9156771,0.07583086,-0.028263977,0.6522244,-1.3354121,0.092245795,-0.92758006,0.24472232,-0.66478425,0.36539355,0.38463792,0.4469209,0.29581702,-0.16308776,1.3264874,-0.46491125,0.12138492,0.28684017,-2.4746778,-0.43740574,-1.8966513,-1.0210098,-2.1186113,0.3193489,0.016158363,-0.50307053,-0.64748615
horn,-0.8320907,-0.8514827,0.18322796,2.0583522,-1.8946298,-0.6973946,0.47367534,0.20035048,0.18154736,-0.7736123,-0.41854623,-1.037475,0.3891623,-1.6331468,-1.8143266,-0.55959064,-0.12942044,-0.09584495,0.76557595,0.4476929,0.36400247,-1.7693753,-0.11988131,-1.6090546,-0.66931456,0.6551084,-0.6315358,0.24090008,-0.4724722,0.2848935,0.80983996,-1.0464427,-0.94353753,0.05138151,-1.2212092,0.72267294,0.17182763,-0.91448575,-0.40461513,-1.4380888,-0.21264578,0.050767552,0.004590938,0.6043064,-2.002277,0.16265476,-0.30105793,1.3590336,-0.17963725,-1.1717124,-2.8091633,-1.6982094,-1.0209218,0.59910446,-0.6905391,-1.5667576,1.4934115,0.79124165,-0.26158115,0.47972903,0.8547826,0.07457336,-1.3213038,-0.6419965,-1.2723726,1.309959,2.1732767,-0.5052574,0.5309375,-0.6294984,0.75385135,0.11795717,0.78647345,1.800244,1.2043386,-1.2054567,0.34174713,-0.109998785,-0.32920125,0.512846,0.9156367,-0.12595558,0.17616291,1.5401417,1.0805993,0.31016397,-2.268492,-1.3320285,-0.7954412,0.8006018,-0.72857815,1.5705504,-0.9774783,-0.61627334,-1.0714394,-0.9389396,-0.36765626,0.67249966,-0.16217573,-0.37483945
tail,-0.76825637,-1.509428,0.18154866,-0.16681539,0.11252415,-1.2746136,0.36721388,0.16765718,-1.6877913,1.6800829,-0.24469851,-0.49825493,-0.58604103,0.5341315,0.48360765,-0.9075186,1.0323404,0.88030916,-0.4030839,-1.289775,-0.37040582,-1.3998052,-1.3713351,-1.4682426,0.27989244,0.6380159,-0.68336177,0.6160559,-0.5001667,0.1321116,0.006501918,-1.3212408,0.070666194,0.56894433,-0.5154616,1.1037995,-1.0275514,0.36776736,1.0772309,-0.10157899,0.5777355,-0.54416955,0.54884017,0.73051476,-2.1604412,-0.0971654,0.7325242,0.8823052,-0.8038588,-1.316111,-1.6573454,-1.0022882,1.0873734,0.3412387,1.0224484,0.059015412,0.5983181,-0.005721649,0.08306304,-0.8257546,0.88142365,0.70839244,1.3355223,1.2738787,-0.16702926,2.83614,-1.6970059,0.25204358,0.5463719,-1.6016585,1.4197367,-1.2624879,0.3542254,0.5291438,0.22721726,0.07183796,0.46553922,-0.7090778,0.6455541,1.0097966,-0.71863896,0.8100924,-0.9893425,0.61391956,0.891946,-1.1732521,-0.68820524,-0.36309433,-1.1188794,1.8916531,0.31019256,0.34371653,0.26410177,-1.4431776,1.9756299,2.2845778,-0.3572882,-0.2811854,0.63383806,-0.15768825
hair,0.36194476,0.58791226,0.3221288,-0.5259541,0.25988492,-0.33642507,0.20760989,0.7898903,-0.34051564,0.120224185,-0.54188555,-0.008925681,0.40703323,0.50884,0.10891235,0.545657,-0.15833856,0.7000539,0.206092,-0.047873776,0.16431402,-0.36013293,-0.33216017,-0.26132298,0.37675825,0.57264495,-0.16449988,-0.8265336,-0.3582542,-0.25743887,0.08360133,0.32469484,-1.2550918,-0.21254951,-0.8451242,-0.7769292,-0.06904882,-0.5433969,-0.13299547,-0.70823735,-0.009352426,-0.008449542,-0.63676137,0.21643235,-0.2863901,0.13415825,-0.3883458,1.0743234,0.22293024,-0.752023,0.02336592,0.24534385,0.6952433,0.16260572,0.001523217,-0.48500118,-0.35640407,-0.00236591,0.13663459,-0.7750535,0.3941251,1.0931448,0.7451985,0.46134987,-0.27478135,0.7294831,0.30332604,0.15382351,0.20868278,0.26610062,0.40125927,0.21754573,0.16223226,-0.29114005,-0.61567956,0.6196958,-0.5120371,0.122626506,-0.020062407,-0.31706354,0.16914396,0.15668683,-0.52958846,0.07249913,-1.1281182,-0.73159814,-0.20242226,-0.20294452,-1.2718142,0.061939258,0.4490669,-0.48120692,-0.32028717,0.020299962,0.7810314,-0.28066123,-0.62576383,0.2144735,0.3586845,-0.27493945
head,0.1155126,0.3161335,-0.095061325,-0.37795663,0.29015648,-1.1928239,-0.17148726,1.5706297,-0.15797456,0.8764444,0.63320476,-1.0931283,-0.28612477,0.72137517,1.186885,-0.884378,-0.66090775,-0.49494466,-1.2348386,-0.63988984,0.37100124,-2.824507,-0.22740062,-1.4317142,-0.44126984,0.07153598,0.7489036,1.1167387,-0.815726,-0.3871093,1.4050813,1.8675386,-0.21583712,-0.05821037,-1.3678957,-0.21667354,0.6473828,0.08546726,-0.000979026,0.7033461,-0.46893784,0.019460956,0.12819164,1.0255809,-1.1426367,1.1248351,0.50307256,0.31204075,-0.8735519,-1.1400889,-0.8142412,-0.94684726,0.7000235,1.0982198,0.53559095,-1.6769947,-0.24721296,-1.1421903,0.24906965,0.529148,0.6433769,1.9625163,-2.6631956,0.7470455,0.4195223,1.1700617,0.7816224,0.32885107,-0.08175143,-1.9667425,1.9153341,-1.112019,2.1757402,-0.3533608,0.083593786,-2.1418023,-1.0448171,-1.7722946,-0.04778101,-0.13525538,0.5650277,-0.28882042,0.5105455,0.6270825,1.3849009,-1.4726692,-0.27900398,0.11850122,0.8082085,-0.12803896,0.7580493,-0.05031383,2.4448748,-1.023663,0.0802283,2.3090003,-0.82672477,-0.3636701,0.3088453,-1.9096295
ear,1.178841,1.3111749,0.503717,-0.12502313,0.039944697,0.1781395,0.14661284,1.091571,1.2127895,-0.070833124,-1.5529537,0.54237384,0.6240492,0.3950788,0.57100934,-0.3409967,-0.92830783,-1.4960065,-0.48443845,-1.2073637,-0.061562,-1.0359088,0.21653272,-1.5393223,-0.6965595,1.5153068,0.55162907,-0.27949813,-0.104562245,0.24668966,0.77564913,-0.7608866,-0.9877205,-1.0470804,-1.133643,-0.3954536,-0.17525315,0.15428716,1.2251166,-0.88094854,0.2787287,-1.2536556,-0.5791065,0.4412324,-0.8719457,-0.09916186,-0.39112362,0.5435858,0.08211509,-1.2037417,-0.85413265,-1.2736886,1.4160877,0.10349812,-0.08856518,0.07484704,-1.3699651,-0.5904339,0.52579623,-0.1496026,0.88156337,1.6058927,-0.8097282,0.3028644,-1.7882389,0.18513446,0.56815517,0.96858865,0.01698482,0.45837986,1.6327019,0.90719986,0.1274179,-0.033121187,0.52803737,0.45963958,-0.6441798,0.107353605,0.22267215,1.0842099,1.1529201,1.3239836,-0.8331292,0.12868294,-0.27627462,-0.7286143,-1.148029,0.69987035,-0.055551212,-0.08306996,1.3263358,-0.14567252,0.38340652,-0.2573122,0.70901203,0.6224256,-0.41398033,0.26577905,0.9588842,-0.25520328
eye,0.87448,-0.79215527,-1.2809854,0.7336169,0.084645785,0.11723083,-1.107032,0.04736507,0.7196233,-0.041382056,0.15532239,0.95157313,-1.3262187,0.35679805,0.633794,-0.19176207,-0.011118849,0.6256753,-0.7111016,0.35992393,-0.1617838,-2.3831775,0.13654034,1.2184529,0.56341887,-0.17265487,-1.1492661,1.1709889,-0.9908611,0.02816239,0.46055567,0.821145,0.48930296,-0.7351448,-1.5893712,-0.12287391,-0.8909449,-0.16827023,-0.22953431,-0.42428696,-0.32156032,-0.8286424,-1.3694673,1.0442586,0.15322508,-0.14517789,-1.6293455,-0.40477136,0.28767803,-0.5659054,-0.597318,0.18613128,1.2457362,1.6167916,0.2265846,-0.8485635,-0.76414734,-2.2784245,0.85067964,-0.16711907,2.1169202,0.9236916,0.10733676,0.23567815,-0.33097002,1.7301039,0.72866106,0.9564149,0.3879676,-1.3155507,0.60634595,-0.35048997,-0.057088375,-0.007362684,-1.4720955,-0.33456674,0.13190334,-1.0568987,-0.19797824,0.06943954,0.32391962,0.37878957,1.1107165,-0.397987,-0.21614842,-0.165913,-0.90900666,0.6636614,0.35036683,0.64052564,1.1063418,-0.60736984,1.0102968,-1.6845022,0.7767932,-0.5204937,-0.72431976,0.15428413,-0.25792032,-1.9040289
mouth,0.9374015,-0.3909912,-0.26998022,1.0773853,0.60008913,-0.87593174,0.16466834,1.366707,0.285234,-0.9418025,-0.05944262,0.1407058,-0.21042119,0.5001694,0.85079414,-0.2137175,-0.066355325,0.3510416,-0.14634106,0.2649375,-0.07104673,-2.08588,-0.689676,-0.6955149,0.115212,1.3088218,-0.41690758,0.11101576,-0.36574247,-0.32659963,1.0567726,-0.58455145,-0.8997349,-0.6572004,-0.8922942,-0.82694125,-0.92896646,-0.20843579,-0.7282868,-0.79734904,-0.95579743,-1.3961105,-0.2286958,0.86289674,-2.234892,0.2672811,0.07380847,0.32863453,1.2918959,-0.6333606,-0.9006686,-1.2525314,1.3602057,-0.653085,0.20948209,0.15342122,-0.6821597,0.27525645,0.48712668,-0.38418946,1.5208802,0.43212938,0.78816396,-0.16882992,0.65956503,0.23303561,1.5430514,-1.7067666,-0.6657888,-0.17180447,1.4541742,-1.5423733,-0.46302298,0.4291273,1.1607686,-1.1195555,-0.08779428,-0.089571625,-0.7937522,-0.03916141,2.0214555,-0.17142685,1.0257652,0.525435,0.31254014,-1.4991988,-2.3946455,0.6074886,-0.85682493,-0.40843955,1.0740851,-0.102065325,-0.001436651,-0.5027042,-0.9037059,1.4716934,0.1856755,0.8279242,-0.6858928,-0.8719959
tongue,0.74870604,-1.9082283,0.1389925,-0.8190369,-0.46794376,0.39845273,0.49024773,0.60813946,0.068505645,0.14574552,-1.2646366,-0.62198883,-0.25772417,-0.5062309,0.266711,-0.4317502,-0.45664382,-1.4808403,-0.18551856,-2.070905,0.8712786,-1.1380979,-1.8815738,-1.2366856,-0.20283835,0.42962942,-1.9078401,-0.59080756,0.5246306,-0.52990824,-0.74022245,0.51198727,0.6087983,-0.20268314,0.18665606,-1.4870087,-2.668042,-0.809948,0.001816491,0.39122427,-1.1615182,-1.2066451,-0.66216606,0.513308,-1.5865206,0.55502397,1.6911145,-0.37041128,-0.5091634,-0.6700739,0.80309933,-1.4807712,1.2584704,-0.025796494,0.001143247,0.9882527,-0.004345457,0.22175463,0.5683121,-0.84954077,0.48792967,1.7718554,-1.931857,0.41484848,1.4894906,1.0719718,-0.9360989,-2.389465,-0.19194579,0.4601396,2.3095634,1.4406532,-0.4988146,-1.4051126,0.771313,0.24276203,-1.3092514,-0.2642813,-0.55025995,0.7823527,0.20079412,-0.7405703,-2.6534088,0.33784595,-0.8492768,-1.9627727,-2.0463588,-0.7635036,-0.18580806,1.7255903,2.1349394,-1.0976535,-0.11304867,0.23570967,-0.7328779,1.9856106,-0.77664477,0.20922469,0.98976046,1.5100569
claw,-0.17128938,0.972256,-0.8894833,0.039729375,-0.31024182,-0.60707414,-0.5174598,-0.53188366,0.556841,-0.3794501,-1.0912971,-0.025063634,-0.19372696,-0.06781812,0.09891993,-0.18932422,-0.0342774,0.32214916,0.035504784,-1.3433557,-0.2011692,-0.32699907,0.028210044,0.34860456,-0.019110307,0.3032793,-0.5614534,-0.66054577,-0.13419403,0.187111,0.94184154,-0.9598589,0.573613,-0.4645398,-0.18044911,-0.5316018,-0.74935055,-0.48381376,0.336126,-0.9318588,-0.153318,-0.4834002,0.43595994,0.20724134,-0.96760345,-0.20335217,-0.49836516,0.11652102,-0.047398586,-0.25370982,-0.47351775,-0.054052632,1.0799931,0.17424478,-0.9469838,-0.048733693,-0.6964491,-0.4604659,0.5678924,-0.6178013,0.68104506,0.44369388,0.9828277,1.0188916,-0.34276256,0.3017153,-0.3613917,0.31505412,-0.2531567,-0.20139688,0.61030084,-0.033943515,0.03466298,0.023223123,0.031171182,0.83950824,-0.8368928,-0.21565904,-0.10894541,0.48612776,0.2097779,0.5988279,-0.29439133,0.4743437,-0.031207716,0.15874346,-0.36269763,0.45925733,-0.07866164,1.0457855,-0.14198825,0.067646965,0.18280007,-0.061748564,0.8570989,0.64003724,-0.13266824,0.18176441,0.09472915,0.16026779
foot,-0.9467911,0.136146,-1.0260328,-0.70536536,-2.0682669,-1.153645,0.2694276,-0.13948067,-0.07233034,0.5603562,-1.9339538,2.2832725,-3.0621102,1.2050251,0.5485422,0.16641176,-1.0001127,-0.20171528,2.4294374,-0.70432585,0.46907282,0.7394673,-0.8419061,-0.6772196,0.8812062,-1.0966688,-0.62076396,-0.21067692,-0.06565552,0.8558453,0.06943693,-0.8759729,-0.779269,-1.8718681,-0.19755864,-0.021868309,-1.7235518,0.5185949,1.0805255,-0.332243,-0.32048714,-0.9563937,-1.9623156,-0.403105,-1.3277019,0.8065526,0.2156049,0.0896019,-0.5389726,-0.10663625,-1.9541874,1.2003425,-0.6370835,0.57565665,0.007469674,0.056176137,1.4566379,-4.3510923,-1.5698477,-0.7717144,1.0291978,0.9221713,0.75151366,-0.7636941,-1.4088341,0.6814988,0.34084257,-0.32400054,0.9720321,-0.22942273,1.8231373,-1.4084064,-1.101423,0.52570814,0.5045312,1.0451294,1.9893498,-0.27546224,0.7050453,0.43666354,-0.2834412,-0.7340107,-0.21282192,0.6870527,-0.063356906,-2.1363847,-0.2347433,-1.1784352,0.5854787,0.05027938,1.3687868,0.53097546,2.028077,-1.5574986,0.5621509,0.5732047,-0.057921726,0.6014307,2.0623407,0.22519286
knee,-0.5676616,-0.13974164,-0.4670073,0.13091345,0.83517,-0.27529624,-0.54009753,0.4353396,-1.6074752,1.0868708,-0.57791644,-1.549632,0.43895754,-0.17034799,-1.5311869,-0.16301814,-0.5509856,0.33734384,0.48742732,0.6278119,1.7236196,-0.87214214,-1.1143602,-0.56450826,0.34750763,1.1774687,0.8291578,-0.054918986,-0.88963467,0.501445,0.13331813,0.81649345,0.32190546,0.567689,0.14045857,-0.1563469,-1.4507967,0.09623819,-0.33411828,-0.75939685,-0.05919385,0.5186205,0.7929201,-0.5825556,0.019626519,0.6034289,1.0765017,0.45649922,-0.91416496,-1.5414397,-0.5315253,-1.7851063,1.1555163,0.45846507,-1.3565855,-0.28011388,-0.6520507,-0.5185651,-1.1344702,-0.97656775,-0.13080911,1.0747193,0.68540186,1.9274268,0.6030046,0.7078881,1.0751599,-0.11593875,-0.58720535,-1.0614258,0.9111971,1.6703777,0.521477,2.0567882,-0.0834124,0.06292507,-0.81495744,1.6028214,0.32713208,0.6832916,0.26397124,-0.60520107,-0.3904501,0.40649852,0.912504,-1.2482897,0.48000816,-0.5484454,-1.0636421,-1.0532628,0.92124367,-0.11372001,0.18611652,1.2002946,-0.29882827,1.4139007,-0.6931719,1.3159958,-0.23157977,0.1948825
hand,-0.89248705,-0.3985833,-0.06095432,-0.19409938,0.64753866,0.36424768,0.76967293,0.77409285,-0.5663951,0.58669966,1.733749,-0.93590933,-0.23870367,0.11669582,1.6790833,-0.4824523,0.25248307,0.69116926,0.15887184,0.24427514,-0.06952063,-1.8633784,-0.87805384,0.39914808,0.89890736,0.19591348,1.2432963,0.97465473,-0.41418537,0.13577956,0.29457262,-1.0383006,2.3340702,-1.1067716,-0.05464092,-0.58286434,0.37524235,-2.031483,0.08756477,0.42461142,-0.9440085,-0.3736634,0.16315481,0.23017092,-0.96454334,1.2567832,0.201954,-0.062867165,0.2960072,-1.5526481,-0.57822806,-0.74049026,0.06389135,0.7771823,-1.2762682,-0.17882068,0.37479028,0.15664758,-0.78478503,-0.54883033,1.4834269,1.7977929,-0.92995954,0.8004804,0.6798138,0.24045809,-0.9741452,0.020002434,-1.1067009,-1.6634299,0.36407995,-0.95787364,-0.21209578,-1.216328,0.6508573,-0.45086893,0.48289895,0.8697359,-0.28922734,1.0082133,0.874675,-0.08031272,-0.38079914,-1.2423577,-0.48743427,-1.0543122,-0.1811943,-1.9149836,0.16592038,-0.26429495,-0.47375903,-0.014154702,0.6186014,0.54138327,1.0934638,0.024949312,-1.6561007,0.9260668,0.6361922,-0.58630973
belly,-0.23434477,-0.038374104,-0.13790241,0.18230362,0.6202232,-0.5412659,-0.6914711,0.5434761,-0.33131418,-0.066577524,-0.9442749,-0.13053288,0.15084286,0.066669144,0.98128384,0.72108537,0.5181535,-0.63969916,0.58184487,0.56458974,0.2728918,-0.5497579,0.34233108,-0.39577422,-0.044821918,0.9822145,-0.0836646,0.04108527,0.7233701,-0.71684927,-0.2357027,0.46734595,0.59290665,0.006041706,0.48664728,0.588756,-0.09616584,0.47941828,0.48159894,-0.35172606,-0.45822513,-0.017617723,-0.23108125,0.18548234,0.2715877,0.40884575,-0.09201145,0.49830365,-0.16517045,-0.21090285,-1.1105963,-0.3992497,0.5852632,1.1359168,0.03354122,-0.13482821,-0.6064305,-0.6429514,0.05340459,-0.23086363,-0.42806473,-0.46357402,-0.4491242,0.27925396,0.50013626,-0.023919508,-0.13080941,0.086673774,-0.5948762,-1.0730196,0.19484262,-0.4001993,0.1759845,1.0712265,0.5508684,0.6559242,0.015160243,-0.7743418,-0.97048646,-0.6524127,0.63130486,-0.29731408,0.76706386,0.8418598,0.38836983,-1.6048931,1.4771565,-0.8529854,-0.5098118,0.58351463,0.53928953,-0.72146654,0.5558954,0.92187685,-0.09075841,0.66344875,-0.5559833,-0.5837069,0.45859125,0.20276356
neck,-1.1041471,-0.17085926,1.9531587,-0.40715396,1.2892873,-0.57262754,-0.99336934,0.9036496,-2.2529414,-1.0971822,-2.466619,0.8976178,0.18350212,0.70115703,-1.4115171,0.17167161,-0.4852997,-0.24710242,-0.35973358,0.44608796,-0.15966778,-0.14178123,0.4267285,-0.7439453,-0.6982825,0.23935826,-0.12916481,-0.38282862,0.35244632,1.2601259,0.19168623,0.7456718,-0.21987681,-1.1333823,-0.4583919,0.014799397,0.33233938,0.41275275,0.7885458,-0.1388985,-0.819195,-0.17020391,1.1320821,-0.37659392,0.12908365,-0.67378426,-0.005850087,2.2691164,-0.32345942,0.7163946,-0.63890576,-0.6488021,-0.6783132,1.9701387,-1.1249503,-1.5340744,0.8422289,0.64767665,-0.9573366,-0.08958182,0.47673714,0.97041494,-0.16414951,0.6484916,0.14266379,-1.069313,-0.4107611,0.45940113,0.68680364,-1.0312998,2.703581,1.3404919,0.9190485,0.13663101,0.30809325,-0.3288641,-0.49302748,-0.33498672,-0.17838119,0.48051676,-1.299397,-0.89627045,-0.32619599,0.5957278,-0.45945084,-0.45149836,-1.8101269,-0.08294352,0.35817197,-0.06555433,0.082383625,-0.20455654,1.0246338,-0.12781584,-0.90614265,1.6588984,0.6945036,0.149822,0.25372124,-1.4512755
breasts,-0.0549591,-1.6272207,-0.47351673,-0.8750625,-0.56745017,-0.28797355,2.210291,1.7761327,1.3598627,-1.6609207,0.11998236,-2.9712286,0.36815667,-0.116102256,0.91159505,-0.8489234,0.63656706,0.8728115,0.25951466,-1.43233,-0.04941243,-2.0254538,0.28149977,0.321471,0.915442,0.3968444,-0.45087242,-0.8046088,-2.0835073,1.5610136,0.8005512,-0.43147078,-0.092683226,-0.15218797,-0.40053758,0.36144105,0.61513096,-1.2187914,0.5275304,1.2167312,-1.7335682,-2.3325236,-0.6542998,-0.7344654,-0.62352186,0.56528366,1.4011478,-0.1576068,0.79495436,-1.6975058,0.97079796,-0.5095975,0.42352888,0.557367,-0.8536417,-0.05812772,0.99623203,0.52287,-0.38672367,-0.39622894,-0.44324923,1.1205391,0.26017192,-0.077394694,-0.44336882,-1.340597,-0.33504686,1.414307,-0.7371065,-0.78171116,0.17647791,0.5282864,-0.09087962,-1.737161,-1.4624034,1.5662578,0.80973727,-0.40625706,-1.2622088,0.64421874,0.5283955,0.22018367,-0.97985643,0.49493107,-0.3976688,-1.6090859,-0.2874189,-0.03231001,-0.21215482,-0.9287644,0.40657675,0.2692166,0.20742434,0.24615312,0.77957916,-0.6824563,-2.0183089,-1.6936203,-0.14595439,-1.1130103
heart,1.4718585,0.6395346,0.5056071,-0.2603206,0.32610545,-0.39290965,-1.1596817,0.631899,1.0705386,1.0275803,-0.41434667,-0.35335603,-0.6204538,0.6277992,-1.6612029,0.28625178,-0.25263295,0.19983709,-1.1073346,-0.04054622,0.77765226,-2.6158376,-0.306463,-0.22516222,0.105153225,0.41577563,-0.78911877,2.4678109,-1.0744516,-0.3361708,-0.6989457,0.64459336,1.1088287,-0.4338572,-1.4415349,-0.6812385,0.9349523,0.3677267,-0.31816188,1.0071821,-1.4765519,0.4437798,-0.7935087,0.3126454,-1.8148513,-0.14757593,-0.63504577,1.4343673,1.137228,0.68844324,0.46621212,-1.3378838,2.6127656,1.5205747,0.9550969,0.8308735,-0.557112,-0.3564049,0.9442428,0.7804124,-1.0112153,-0.39131197,-0.1321377,1.1131563,-0.6911657,1.0168643,0.7924835,2.0775323,0.020261114,-0.24261896,0.30981442,-0.002107084,0.24960382,0.14909194,0.25941634,-0.8343539,0.76136667,0.034179013,-0.57664245,-0.13738306,-0.11342057,-0.7621057,-0.5175997,1.0748426,-0.8219655,-0.94530153,0.97389835,0.2964674,0.743862,0.9169359,1.0961536,0.33238998,0.59930235,-0.46086776,-0.027448734,0.9702499,0.8633797,1.4008064,-0.74918956,0.008985799
drink,0.58943385,-0.5753936,-2.05114,0.4848585,1.2348521,0.543881,-1.4204377,1.6371988,-1.056276,-0.8225047,-1.2555268,-0.20698464,-0.120363034,0.79411745,1.6042619,0.9269097,0.62232906,1.3162206,0.212882,-0.68865997,-0.6454796,-0.09950543,-1.4362806,0.002928734,-0.6804355,0.16528632,-0.33129105,-0.09135977,1.6141866,-0.3718237,0.05749023,2.51774,-0.00470086,-0.15225817,-0.40555254,0.5583548,-0.9147897,0.010861218,-0.27443883,-0.6375632,-0.47506723,-1.4551178,0.15231188,-1.4307699,0.41910243,0.35969317,0.2404706,-0.7940901,-0.47434497,0.16731776,-1.0455176,-0.8540361,0.44187796,0.76219517,-0.52233917,-0.5346816,0.14236982,1.4321667,1.6592962,0.67520785,0.26394877,0.27030623,0.08627186,-0.02942581,-0.9353904,0.07963768,0.5638264,0.35805878,-0.517962,-0.5075491,0.4511795,-2.1659243,1.2492276,0.41149807,0.704185,0.7471965,-1.1948167,-1.2916589,-2.954098,0.41824067,0.94051486,-0.114078246,0.114480734,-0.3190908,-0.1320756,-1.4397936,-0.09927726,2.2234776,0.3215193,-0.48368898,-1.3558093,-1.0962858,-0.114356875,-0.76413155,0.31382585,-0.644072,1.3577455,-1.5207828,0.48981842,-0.3205817
eat,0.21979173,0.21644379,-0.22088997,-0.2515747,-0.15973236,0.6342265,1.0891759,0.566942,1.2521281,-0.3126501,0.581214,1.6491479,-0.83954954,1.0758506,0.6914193,0.20485081,0.6821475,-0.28849053,-0.74884206,0.5548349,0.53807575,-0.25971118,-0.81144935,0.09141449,-0.71494514,-0.33302262,-1.0145226,0.24827397,0.54848653,0.27912858,-0.8971791,1.200677,0.8804639,-0.54085636,0.35360098,0.6508121,-0.47194502,1.1695875,-0.037772074,0.99316806,0.2512626,-1.2671365,0.7258701,-0.5894534,0.33955118,-0.016250193,-0.22488044,-0.27915433,-0.13623339,-0.3421558,-0.7818105,1.2018634,-0.90968275,1.345179,-0.6651396,-0.20975602,0.044065326,1.7130613,-0.37272915,-1.1881117,-0.95815796,0.73556924,1.1468385,1.4065238,-0.8499549,0.626078,1.2231364,0.178333,-2.1198142,0.83054084,-0.96681243,-0.105020404,0.30440047,0.6111411,-1.1540693,-0.017006636,-2.082892,-0.18779415,0.83331203,0.737747,-0.16690028,-0.52890855,-1.3860426,0.23346107,-1.2156175,0.03713276,1.3796707,-1.7913742,-0.6793261,0.9203598,0.18161868,-1.7256433,0.124801636,0.49171618,1.705863,0.14462951,0.11359674,-0.6662865,2.4695725,0.8837841
bite,-0.32750505,0.07564489,-0.41536817,-0.87983465,-0.6827343,-0.3287744,0.6981706,-0.30528477,-0.6109011,-0.7618596,-0.47704387,0.80974144,-0.34664688,0.1721036,-0.54870945,0.045841098,0.96397257,0.35486057,0.15027289,0.49921754,0.4488431,-0.17166002,-0.808182,-0.10755674,-0.08815666,0.55241936,0.022319594,0.124948315,-0.08876563,0.5862207,0.45911428,0.07134342,0.8558468,0.30093908,-0.22378498,-0.001284659,-0.012155642,-0.13360274,-0.60328054,-0.87128305,0.2205099,0.13103884,-0.92634535,0.037774276,0.48073408,-0.39867583,0.92514974,0.33476534,-0.00451537,0.13214229,0.31514752,-0.8469055,0.27723444,-0.10454584,-0.93737215,-0.047769208,-0.024622843,0.27001575,-0.16273409,-0.02720946,-0.12205299,0.9243037,-0.16303195,0.4328033,-0.9751439,0.39812434,0.30711326,0.18245526,-0.63053817,0.8592677,0.23121703,0.35908902,0.5688023,-0.03199536,0.12312264,-0.44033054,-0.08915832,-0.6768527,0.016435344,0.5882162,0.7206712,0.41710892,-0.50616056,0.14186019,-0.42046824,-0.5079398,0.10043254,0.061606128,-0.5209609,-1.0320325,0.40174627,1.0152773,0.15630257,0.7417628,-0.06465373,0.3340737,0.20186897,-0.110659964,0.7122869,0.26770997
see,-0.053499937,0.15940018,1.7015196,-1.2099445,0.19013841,-0.56498,0.626899,0.7881265,0.18670434,0.046507254,1.3564373,-0.51675075,-0.42429557,0.4436058,0.10961846,-0.25122258,-0.97786474,0.22861147,-0.68293446,0.3376964,0.52364784,0.50348955,0.013778557,-0.5619993,-0.015327017,0.14090988,1.5494102,-0.61862653,-0.8094492,0.03378566,-0.4116842,1.347084,-0.5129803,-0.2613549,-0.8812127,-0.48240343,1.9098434,-0.9967513,0.41411206,0.9213519,-0.5362689,1.2598406,0.37957546,0.32245502,0.44249293,-0.7186336,0.3183271,0.316999,0.27954158,0.10013155,0.094486564,0.24543917,0.167973,1.0853951,-0.4544405,-1.7900654,-0.87578845,0.46607056,2.0050151,0.17215818,0.834537,0.72020006,-1.1282835,-0.42279473,0.9159939,0.36140943,0.44533715,1.1782998,-0.32197073,-0.9450944,0.22865568,0.7933076,1.8488528,-0.43445063,0.86309433,0.118370175,0.43996522,-0.545626,-0.79142267,0.576087,0.60386056,-0.92008823,-0.046293467,-0.06283864,-0.1922125,0.08001906,2.1069376,-0.65535283,-0.4803525,-1.5843686,0.061826974,0.00234139,1.155258,-1.0082003,-0.9373846,0.37201667,-0.13185237,-0.17248927,0.7296305,1.5543393
hear,0.8712323,-0.057790253,1.3316624,-1.1464047,0.09931907,0.35226414,0.38938215,0.58370644,0.4398024,0.07273226,0.7474081,-0.6335944,-0.2211598,0.037410337,-0.36966968,-0.60328996,-0.79316753,0.4126068,-0.38962373,0.24696784,0.48457822,0.7784917,0.24295354,-0.6167775,0.26175857,-0.017021941,1.0240167,0.2365204,-0.062919594,0.44766238,-0.33380172,0.67910653,0.23058133,-0.10109511,-1.0906657,0.025711292,0.96975046,-0.5208996,0.84250927,0.5567404,-0.54283667,1.454774,0.22285537,0.29419097,0.36731577,-0.7075484,1.0834697,0.047119964,-0.26766178,0.16788812,0.005078107,0.08767078,-0.03078799,0.9236246,-0.18424803,-1.1445981,-0.72290754,0.41674808,1.8381523,0.32601145,0.4065789,0.5698115,-1.175418,-0.8337424,0.33552608,-0.4036514,-0.22341602,1.1007297,-0.603702,-0.1034743,0.18486471,0.7512999,1.150971,-0.9870383,0.48120978,0.85570914,0.3152419,-0.4489669,-0.68132585,0.26160738,1.3304852,-1.738709,0.17506708,-0.24380071,-0.7487785,-0.39450455,1.3393289,-0.3296121,-0.37348637,-1.1069807,0.06258326,-0.28197834,1.1615124,-0.72846717,-0.70919377,-0.06364367,-0.46640804,0.41461575,0.23680736,1.2263819
know,0.7878022,0.557552,0.22200215,1.1035177,-0.9918992,-1.017111,0.65572244,0.9289136,1.5199293,-0.72191983,2.6774447,0.70491666,-1.8662467,-0.8954072,0.6533858,1.7829881,0.60215336,1.218648,-1.457863,-0.43657637,0.006043653,1.6214429,-0.58810717,1.94899,-0.95069164,-0.6362167,-0.5158938,-2.0558364,0.43541124,0.21008152,-1.3281286,1.2794871,0.7015782,0.24569733,1.8406421,0.3864441,-0.30907336,0.5156069,0.6825271,-0.58522046,-0.06319087,-0.7033979,0.6615195,-0.516784,-0.7329405,0.17952318,-0.86907524,-0.5347135,1.1355203,-0.7020219,0.085000776,-0.38013586,-1.5373263,0.26051867,-0.14313419,-0.5489306,0.2319591,-0.036531325,1.6012818,-0.16020042,0.15818982,1.4000033,0.050766397,-0.7846508,-0.7768926,-0.42662844,2.8746996,-1.1633364,-0.19957197,0.34840444,-0.8710974,-1.0842963,-1.4750956,0.10369613,-0.27564675,0.26153395,0.1720035,-0.91662073,0.23341475,1.2231126,0.31001222,1.4393612,-1.8123903,0.49444136,-0.6187066,-0.8878355,-0.22679143,0.7329053,0.92849827,0.39508566,0.5638318,-0.25653777,0.6613175,-0.1391205,0.062301695,-0.21606703,-0.26729664,0.40478233,0.57541037,1.0902915
sleep,2.2673123,-1.2207171,-1.1673982,-0.3899549,0.08039079,1.3482474,1.1018742,1.6503166,-0.4261808,-1.0151143,-0.3347038,0.5209828,0.94632983,1.2212862,0.38544646,2.0810633,0.002667745,1.2636089,0.5902834,0.64729756,0.30910486,-1.0650197,0.64945626,0.7569774,-0.52203256,0.8011215,-1.3727843,-2.0200312,-0.38482556,0.42703578,-0.095160924,0.36754394,0.20624848,-0.95165735,-1.2634801,1.5515145,-0.56283873,-0.61302525,1.1832601,-0.074652195,0.12424477,-0.26774085,-0.9969266,0.8393726,-0.3420953,-1.815471,-0.80630475,-0.037831355,-0.11784724,-0.8440883,-0.2490021,0.2870897,1.5257888,0.8715021,0.31456625,0.19947237,0.26575795,0.6186091,2.4718437,-0.2922607,0.26363924,1.208539,-0.83083963,0.07474313,-1.28334,0.84551334,0.1937925,0.012065172,0.10846409,-0.08630251,0.25588265,0.033169348,0.13935405,1.2036921,0.747824,-0.17125495,-1.0341837,0.2083695,0.56660414,-1.0930383,-0.0676033,-1.0263766,-1.2050972,1.4961166,0.22632994,-0.32827604,1.8596166,-0.16074753,-1.621428,-2.1662683,0.022924105,-1.4737722,-0.35741022,0.849919,0.0958693,0.48190665,0.932275,-0.26317444,0.46597853,-0.8160756
die,-1.423644,-0.000308315,0.19258922,1.7901782,0.5139176,-0.6365664,1.8492727,1.5374819,-0.72398776,0.10860232,-0.97413206,-0.22596954,-0.45751333,0.036729496,0.8248791,0.76245815,-0.70544165,0.8274355,-0.21496826,-0.1353898,1.3710643,-0.24647723,-0.22120386,-0.77180547,0.7963359,1.4938787,1.2148067,-0.29089022,1.1853927,0.55660415,0.23760872,1.503492,0.23653825,-1.899064,0.9348114,-0.8396397,0.504451,-1.6057037,-1.7488937,0.5466128,-0.014984608,0.003917316,0.3885992,-0.5908121,-0.2356351,-1.0720739,0.12722464,0.19614999,-1.2640921,-0.32975072,0.7245552,0.7747839,0.055647362,0.9628536,-0.15609731,-1.0920508,0.3105093,0.3861803,0.34845576,1.7492458,0.20756216,0.96563005,-0.95869094,0.656612,-0.09259824,-0.79212874,0.74670774,0.24205552,-0.9934786,-0.2450824,-0.49919096,0.23447804,0.7036156,0.28707138,-0.3825556,0.44952026,-0.035353046,0.07012216,0.42470017,-1.2526257,1.5949711,-1.8154982,0.50194603,-0.12225053,-0.84951276,-0.005833983,-0.94376594,-1.7148582,0.9012616,-0.43640456,0.51538026,-0.021380862,0.3894972,1.7806134,0.6580581,1.2390949,0.63636905,0.56853306,-1.2714361,-1.7430285
kill,-0.3369069,-0.37899208,0.21057169,0.6075177,0.19621311,0.51606417,1.574626,0.40156493,-1.8070468,-0.102663964,0.22939225,0.5259914,0.34018502,-0.28492665,-0.35362563,-0.21936367,-0.4951752,-0.2742217,-0.30866793,0.9101277,0.5317048,-0.8778296,0.22646296,1.0004476,-0.17664927,-0.054619838,-0.5367225,-1.2183673,0.30482894,-0.12515745,0.9675929,0.7220611,0.30407557,0.12285197,0.26344723,0.6760228,-0.1985567,-0.49947366,-0.39852297,-0.5764143,-0.5076009,-1.0025522,-0.6024597,0.16474088,0.17797156,-0.25017872,0.4569118,0.46035782,0.015216671,0.6370259,0.20340626,-1.0922629,0.50674236,0.7058029,-0.8252985,-0.2694573,-0.5397372,-0.79187226,-0.8952026,0.4208463,-0.18463928,1.4206595,0.16465104,0.061043262,-0.6089899,0.679377,0.66910034,0.19617121,-0.48997012,0.096925795,0.22160518,0.21770604,0.48587358,0.23299478,0.12719794,0.21563838,0.07377076,-0.20665137,0.30911326,0.71246976,-0.113223396,-0.06269763,-0.8184107,-0.021006862,0.1929989,0.21724595,0.7918,0.86467534,0.45272613,-1.4846672,-0.39238074,0.7421675,0.52705103,0.59342724,0.244784,-0.89342123,-0.35897222,-0.44241595,-0.30654597,-0.41250387
fly,0.6529846,0.6080871,0.43683687,0.31624165,0.42060342,0.9396561,0.49669382,0.9019076,-1.4468864,1.8214197,-0.3899978,0.9670024,-0.09902331,0.71818024,0.9510806,-0.7156296,-0.19656722,0.872812,-1.4788857,-0.4846114,0.5458743,0.59639376,0.57255274,0.598696,0.971231,1.0473244,-2.0137062,-1.9796734,-0.2814127,2.5190427,-0.009393007,1.4009541,-0.047919195,0.19516294,-0.5640078,1.4044924,-0.049501855,1.1855553,-0.27462333,0.45096684,0.2673095,-0.5218703,-0.29619348,0.61745816,0.28515944,0.8354196,0.08574629,-0.14003801,-0.86294204,-0.08146244,0.426607,-1.2939851,-0.46886984,-0.21139915,-1.6066612,0.77654856,-0.07990726,-0.21320914,0.20741892,0.47164306,0.046417594,0.010910471,1.3139418,-0.34235874,-1.0940344,0.9407599,0.3426405,-1.1472677,-1.1900686,0.5663503,0.006097039,-0.8921213,0.30088007,0.67067784,-0.22540803,0.041030407,0.33668295,-1.23496,-0.08786327,-1.2421294,-0.46320644,0.5798864,0.017745415,0.21171226,-0.35018206,0.16883783,0.34972024,-1.508454,-1.0330921,1.8038114,-1.4613872,0.30553386,0.47185442,-1.8530861,1.1933662,-0.97575945,0.8214559,-0.47222862,1.7533107,0.6195007
walk,1.6181129,0.31340805,1.5950742,0.82612157,-0.11814254,-0.74943715,-0.5384409,-0.2433529,0.44573995,0.8419675,2.4370286,1.4440342,-0.3149059,-0.23037274,0.10547503,-0.38810685,0.6799907,1.1552984,-0.12396755,0.26757523,-1.2771946,0.44768977,1.116056,-1.1522567,-0.88125354,-0.13034196,-0.885848,-0.5074472,-0.4403635,-1.099061,0.03510086,0.33859894,0.8122787,-0.32900593,-0.048972502,1.3089255,0.48865762,-0.4234078,-1.590418,1.6562743,1.020116,-0.043990254,0.8608255,-1.2549342,-0.5594035,-0.2169907,0.55985886,-0.28608966,0.9595749,0.36273155,0.6483391,0.12341248,-0.62602824,1.1332592,-0.30516088,-1.5572547,2.0467825,1.1054075,1.5177389,-0.6265785,-0.48554778,0.03232296,0.48429552,-0.86951333,-0.29135263,0.9667137,0.7770834,1.9942993,-1.26919,1.4851879,-0.81785685,-0.055340886,-1.0395566,-0.6348605,0.969274,-1.8088121,-1.7709026,-0.32094666,-1.3850495,-0.9412079,-0.15394346,-0.06366379,-0.5030047,-0.15088488,0.2613391,1.3986936,0.9302935,-1.2589265,-0.44658777,-0.8471815,-2.3316338,0.4822807,-1.8209381,0.9513707,-0.25714192,-2.1361437,0.6334992,0.9347425,1.2625527,1.2234932
come,0.58816606,0.62767506,-0.6755469,0.02874278,0.12171292,0.8664217,-1.8167315,-0.45752323,1.1033074,-0.8897674,0.6015566,2.110152,1.4549679,0.6791912,0.2225476,-0.24357474,1.3633434,0.2935861,0.51846814,0.23440759,0.3134738,2.5367873,-0.041669924,1.8795277,0.11332687,1.0127016,1.4356775,-1.4345036,0.8006839,-1.6533943,0.5158416,1.3387095,2.5571263,-1.0960652,0.9769637,1.5293332,0.4884154,0.9507699,-1.9629172,0.049916744,-0.83777493,-1.3357191,0.5424563,-1.668125,0.4431195,-0.32271776,0.72243565,1.1899861,-1.496008,0.68622446,0.18725371,-0.47950903,0.22581494,-0.13836329,0.4143243,-0.008743286,1.0487353,0.5765001,0.09758839,0.7800742,0.36286053,-0.33236715,1.1348801,-1.2925688,-0.7530567,1.7416779,-0.30424377,-1.9847593,-0.209445,-1.550265,-1.0578414,-2.3611047,-1.735484,-0.033904236,-0.41043177,1.8939732,-0.551856,-0.84663993,-0.5557522,0.55417806,0.790343,-2.1983654,-0.7203164,-1.5137863,1.1626495,-0.09456447,0.003796418,-0.72275573,0.28278688,0.8107117,-0.001657342,-0.21087438,0.2993407,1.7295192,-0.106426634,-1.6811004,0.64041805,-0.33686683,3.6521041,-0.36428824
lie,-0.012695114,-0.09283638,0.52936035,0.53911895,-0.58729225,1.5824157,0.11937368,0.30640805,-0.34130636,0.94206595,0.44457594,-0.27426142,0.07215444,0.024634771,0.5090302,0.5548054,-0.8432706,0.011793931,0.25418293,0.34837556,0.45874605,0.10177853,-0.35942522,1.3668723,-1.413104,0.48289242,-2.1224377,-0.9992786,0.9669385,-0.26460645,0.95069796,-0.10360161,-0.58553034,-0.6120432,0.7173254,-0.9520784,-0.6188155,-0.32496086,-0.41180933,-1.0249285,0.8610719,0.025370061,0.4402176,-1.6983643,-0.943355,0.8077114,1.7462759,0.790073,-0.8365523,0.61118823,-0.8927598,1.8043483,0.7497986,0.18419637,-0.35124037,-1.4331455,-0.6613181,-0.87285304,-0.8184963,0.6252155,0.7208175,-0.26228568,0.7047134,-0.8563667,0.09035524,1.2534243,1.2119108,0.30681852,-0.22070675,-0.8874695,-0.29145125,0.755167,0.44450697,1.4276695,-0.85556984,1.2460152,-0.8209463,0.47035876,0.56529504,-0.9024752,0.07467774,-2.199234,-1.8336073,-1.323377,0.13076217,-0.7927169,1.432809,0.87299424,-1.6260343,-0.18672536,0.19186704,0.610296,1.6673092,2.6311812,0.14850755,-0.6717711,0.18778287,0.6159691,1.3263875,0.26336756
sit,-1.2795044,-0.38165998,-0.66879743,0.16280977,2.2496483,-0.07987902,-0.3266159,0.5046057,-1.0459987,-0.4466925,1.5310472,-1.263843,-1.2576171,1.311056,-0.3687853,1.9091716,1.7804003,0.3307614,0.17129041,1.8929228,0.55635923,-0.35296726,0.67640567,0.7070982,2.0047357,0.17437069,0.48859295,0.029261887,1.9461397,-0.6171395,0.2453173,0.9561427,2.191119,-0.56273735,-0.27578828,1.0413246,-0.22334985,-0.6660567,2.2260458,0.029509306,-0.8375631,0.55853695,0.25669584,-0.3653251,-1.0848726,0.85929996,0.79510134,0.019693753,0.4680612,0.0106107,-0.11345279,0.34639764,-0.14934634,-0.11519575,-0.26485267,0.9686182,-1.7240667,0.44392148,0.6708,-0.41994855,0.46035257,0.5992917,0.9391329,-0.29678097,0.03815955,2.1443417,1.3390921,-1.2382437,0.29454148,0.6754829,0.07202411,0.2690206,-1.558664,-1.2105759,-1.4822639,0.7912061,-0.06899062,2.133855,1.6184468,1.689031,0.6165649,-1.6305133,-0.41994348,-0.39430058,0.48865595,1.3310584,0.4880898,1.2709376,1.3932091,-0.81536627,0.22847973,0.68777746,0.76807284,-0.92940325,-0.8613822,0.45393762,0.48642895,-0.42976916,0.3579601,-0.5172378
stand,0.34932747,-0.3205818,-1.1544746,0.076720975,-0.2566661,-1.4256643,-0.059946418,-0.55455667,0.85228175,-0.6755745,1.0880752,0.30469003,-1.1234254,2.0760057,1.3270093,0.26932654,0.7962475,-0.20899884,-0.27042493,0.22876863,1.6043266,0.20468487,0.9398308,0.918087,1.2463962,0.42609778,-1.9942608,-1.6773795,1.2089032,0.34417215,0.17565691,1.5627664,3.0801373,0.68171334,0.002236396,1.8361955,-0.9001184,-1.4154792,0.40340188,0.38255072,0.3537146,0.73799926,-1.2528169,-0.8242361,-0.29722178,-0.21304476,0.46708393,-0.2611493,-0.13349994,-0.14180334,-0.2995331,-1.2149905,0.4294667,0.9511617,-0.98560333,-0.567385,0.7363391,0.5971289,-0.35467872,-0.24979265,0.52688146,0.61438215,1.0472018,-1.2071306,-0.5737197,1.6083401,0.20368044,-0.73287994,0.5311562,-0.61764896,-1.0315905,-0.25752625,-0.9295766,-0.25304008,1.4154396,-0.73850155,-0.038339566,-0.332029,0.5464765,1.0456188,-0.43414178,1.2038884,-1.419398,-0.41923818,0.8905925,-0.12649049,1.2568225,0.10237055,0.34236646,-1.3577837,-0.26441824,0.9157699,0.5676542,1.0772924,-0.1689239,0.40011728,0.56000453,-0.16160446,1.3659674,0.009749283
give,-0.39380047,-1.2655785,-0.26597634,0.45882502,0.33398795,-1.386624,0.5992575,0.74282163,-0.048102766,0.18442924,-0.20719863,1.0404485,-0.5778203,-0.66433483,2.2236586,1.3392903,-0.02028375,0.57938033,0.09880779,1.4646627,1.0402976,0.8999775,0.69218796,0.3994894,-0.7986427,0.6447327,1.1267713,-0.39937827,2.0894916,-0.3794906,0.46710113,0.13400717,-0.52754503,0.0796561,0.5237191,-0.2260092,0.12492224,0.24311508,0.22854535,-0.3175188,1.0036796,-0.29635766,-0.74775195,-1.22754,-0.13549517,-0.5421873,-0.20556028,-0.06298393,-0.17669977,0.17268544,0.6532487,-0.4082248,-0.8511979,0.25649938,-0.25036043,-0.027707279,0.64800483,1.3283496,0.9015284,-0.42444202,-0.41190156,1.2978394,1.4339051,-0.46519578,-0.26832464,-0.29080987,-0.27573994,-0.8084209,0.04101179,0.22991933,0.1576721,0.23758046,0.9468577,-0.38689896,0.3723035,-0.12787609,-1.5943184,-0.41905776,0.21415494,-0.50728345,0.44304475,0.790181,0.13371237,-0.66804475,-0.8334847,-0.5424411,-1.562703,-0.8210519,0.55715054,0.1215835,-0.5212227,-0.2830082,-1.0322963,-0.21637224,0.2971348,-0.88513184,-0.47427854,-1.0082618,1.7251862,1.8183404
say,1.8014323,1.6297274,-0.29293466,0.23986407,-0.41620317,0.62550956,0.7336139,-0.7426312,0.64999807,-0.402011,-0.10948738,1.5666617,-1.4164673,-1.1491683,0.072633825,-0.09093497,0.44569194,-0.22453065,-0.6786432,0.90650606,1.0416695,-1.0256304,-0.9324241,-0.7430945,-0.29437312,-0.42042288,-0.51044244,0.062440097,-0.115888,0.6817117,1.3737526,-1.6131772,2.024404,0.25623325,-0.28781712,1.0979203,0.7580338,1.9721211,-0.7781849,0.733545,-0.001954322,-0.80229545,-1.367129,1.1686977,-0.003606491,-0.51698285,1.2755743,0.2064389,0.1207644,0.12214097,0.31731477,0.31974474,0.040355645,1.7673169,-1.2133623,-0.23622705,0.1170474,0.73108083,0.53004843,0.73839515,1.039445,0.36999643,-0.81228644,-0.8214299,-0.460512,-1.0172464,-0.024173846,-0.72802526,-1.3095644,0.39450577,-1.8267641,-0.49207422,1.1496106,-1.1241076,1.0652353,0.9397895,0.1364336,-0.16482246,-0.9333629,-0.78210443,0.48795798,0.83351755,-0.2006212,0.68324536,-2.613117,0.8301181,0.9012368,0.7628128,0.18673135,-0.15751947,0.3144463,-1.172249,-0.92964387,0.010974288,-1.4141806,-2.1502893,-0.34713337,0.31038567,-0.9169001,-0.2451251
sun,0.1368283,0.7659051,1.2146081,1.0082606,-0.5738434,0.46375656,-0.3102627,-0.10838994,1.9748694,-0.9100156,-1.4160408,2.8177614,0.5382399,1.0423198,0.52889484,2.1222808,-1.6954323,-2.1949837,1.6673012,0.920644,-0.30159035,-2.310814,-0.06337098,0.6242763,1.3894621,0.21207778,-0.4172889,-0.1351531,0.053531427,3.1065798,1.7216767,0.36941814,-1.8599712,0.62095153,0.7723209,1.221555,-0.14888132,0.15798052,2.3426063,0.4934136,0.7174589,2.105965,1.6766912,-0.2631484,-1.9106418,-1.0197781,-2.883213,-1.7137617,-2.1137173,0.7385015,1.226904,-1.7109836,-0.7227065,0.042254906,-1.8930901,2.428543,0.7243199,0.13255626,-0.89337033,-0.17996365,-1.0681181,0.8409187,0.31460407,0.06494347,-0.17368619,-0.7250433,3.2288246,-1.1087195,0.9100109,0.6581201,-1.1836467,-0.33999276,-1.5362768,2.2948759,0.6356263,1.3967237,0.72662544,0.16083066,-1.4206085,0.015486081,-0.21605317,-1.0298134,-0.35438284,-0.09245086,-1.7198691,0.37914953,-0.31886634,-1.9299021,3.1888933,2.6511533,0.89887285,0.2039264,-0.35044846,-0.26472965,0.6422736,1.5624433,0.96077776,-1.0227071,-0.027715525,1.8752578
moon,-0.99857336,0.008902113,-0.91504955,0.40725794,-0.2557901,-0.06727298,-0.33214036,0.124946795,2.7491856,1.4294057,-1.9302317,1.2649705,0.48516688,0.5313322,0.86133575,0.34478617,0.4437374,0.29764396,2.18095,0.8217933,-0.87462574,-0.20581971,0.48257267,0.05731958,-1.3263478,0.19588788,-0.72580415,0.51770425,0.34065977,0.7510477,0.35187504,-0.4368043,-1.3177634,-1.0243174,0.8388954,-0.44961524,-0.14320834,-0.2764049,1.0288739,-1.5201191,0.16669433,1.4090576,1.1306491,-2.2338536,-1.9725628,-1.750714,-0.143165,0.8233728,-2.2809613,-1.3743858,1.6552366,-0.2763135,-0.06846074,0.35166347,-1.1768545,0.10582662,1.0382477,1.4931875,-0.6654121,-0.95080733,-0.24175763,0.6741936,-1.5236472,-0.9917135,1.7454723,-1.0450134,-0.73058575,-0.4243997,-0.6904209,0.59024173,-0.9153855,-0.065112986,-1.2913593,0.55238265,1.9409415,-1.7450217,1.4802865,0.10403422,-0.78015417,0.51732427,0.08462886,0.8059518,-0.7272747,0.78825116,-0.8516231,1.0429586,0.4043441,-0.79475456,2.3299768,0.72804385,1.2749584,-0.39940706,-0.37212357,-1.0210482,-0.133902,0.709012,0.75716114,-0.39078042,1.4469658,2.1681736
star,-0.022570461,0.5301563,-1.7832078,-0.24105185,0.27927378,-0.86290544,1.8288194,-0.7120442,1.344992,0.61189824,-0.89236015,2.3987315,-0.105151355,-0.09690379,0.54503316,1.2967594,0.7787829,-2.6386425,2.3906205,0.83000594,-0.24079764,-0.59678,-1.094625,-1.4709872,1.7330602,1.8183881,1.4278721,0.7447632,-1.0700604,1.3150753,0.6994763,-0.5627704,-0.010293682,-0.078028046,1.5273424,1.399527,0.5010932,0.17333202,3.2121382,0.12023875,-0.18835425,0.14287888,1.3774719,2.7711563,-0.6883181,-0.93713975,-1.0867621,0.38179722,-2.4194684,-0.9220025,0.14955671,1.6480082,-1.1558924,0.88168067,0.4759477,-0.4750065,-1.5543218,-0.39531517,0.27917752,0.24239667,-1.0501856,0.5139015,-2.3607666,-0.004009962,-0.18621457,0.9491578,1.8498827,1.2699817,1.2036743,0.22466354,-0.6644377,-2.6928408,-0.29266107,0.08496974,-0.10787398,-1.887679,2.139905,-0.40685785,-0.793406,1.3416864,-1.0399357,-1.6502746,0.7275273,-0.8044975,1.2829005,0.38740647,0.004956981,-1.2291051,2.8665524,1.7533212,-0.53948957,0.12826282,0.32067943,-0.56266433,-0.86354417,0.19669716,-0.4692832,-0.56730515,-0.46786663,0.47756004
water,-0.7955051,-2.079094,-1.983651,1.098818,-0.8780195,-0.012710054,0.29125163,1.1100224,1.2219502,-1.9749374,-0.38380036,-0.3614149,1.124417,0.12907393,1.1072024,-0.37267837,-0.68225724,1.3354384,0.2853102,-0.20333509,-1.1774191,-1.5590707,-2.3934257,-3.3742,-0.23116998,0.59174806,-0.20508735,0.4595933,1.5265274,-0.20789702,0.2493134,-0.7803891,-0.5951336,-0.22471417,0.80733854,0.22205846,-2.5690248,1.2986565,0.5537681,-1.8551879,0.049414456,-1.4014244,-0.9442437,-1.3061291,-1.5112405,1.4841212,-0.6894112,-0.13435388,-0.92783993,-1.8478409,-1.588489,-0.7153852,-0.1340125,1.2210356,0.09176073,-0.88820744,-0.9752364,-0.4182571,2.9407732,-0.18998711,0.097184815,0.9851377,-0.28380132,0.5610165,-0.25659576,1.2707909,-0.29865053,-1.0794487,-1.4684596,-0.43580246,1.0774776,-3.1137724,-0.35978094,2.581879,0.7390523,0.44429612,-0.16427773,-0.86111474,-0.73964065,-1.389781,0.7937305,-1.7458125,0.16992275,1.593305,1.4208478,-1.2557966,-0.40061998,0.91047305,1.1082865,-0.4406773,0.2711424,-1.853866,0.37972412,-1.9001565,-0.5901443,-0.14046131,-0.9704874,-0.93757886,-0.068941355,1.8904091
rain,-0.6694142,0.026937922,0.38324866,-0.32808605,0.000646681,0.5988403,0.291777,1.308434,-0.5267429,-0.9152451,-0.9882564,-0.23625018,0.6842721,0.571855,-0.7498007,1.3554816,0.08226039,0.001032035,0.011857774,0.18433796,-0.6006933,-0.33239377,0.48051357,0.9901204,0.06298975,1.4311193,-0.23901337,-0.1791525,-0.7162232,1.0809444,0.4771348,0.82774884,-0.5216332,0.24928991,-1.4266475,-0.7642991,0.37779984,-0.11031953,-0.12965408,-1.3224963,-0.27650476,-0.37732697,0.41182756,-0.28396913,-0.10294356,0.14772445,-0.48789403,-0.44897127,-1.2800022,-1.0071322,-0.7913621,-0.69324255,0.5795527,-0.33010057,0.11114311,-0.3720603,-1.0152897,0.47021353,0.17826052,-0.5043472,0.059680846,-0.058829244,-0.53650963,-0.35830262,-0.8744008,-0.37192783,-0.04749072,0.2350862,0.29780856,-0.46154502,-0.062349934,-1.5752543,0.005438785,0.7649084,-0.4695542,0.64128536,-0.96943474,0.15385862,-0.08944642,0.56941444,0.54432464,0.4286013,-0.8179237,0.737659,-1.0828437,0.22950833,0.42766967,0.39102173,-0.64324546,-0.82280034,-0.5504024,-1.8625913,0.3290265,0.12199152,-0.028288806,1.0031453,-0.43287423,-1.5056714,-0.25605097,-0.39552698
stone,0.006004492,-1.7237335,-1.3108534,2.3072596,0.5036755,1.0677716,0.023438016,-1.33144,0.38417363,0.26188925,-1.4750222,0.68752724,-0.77357894,2.8046744,-0.30552888,0.51451105,1.1792648,1.3986956,-1.9050874,0.16362984,1.0455778,0.69421554,-0.28166577,-1.460557,0.7360918,-0.20260309,0.6303138,-0.15432803,-0.84476215,-1.219945,3.17531,1.7290465,0.1065863,0.75629693,-0.38510665,0.302754,-1.6944046,0.8346448,0.7894864,-0.8037512,1.4232653,-0.40334287,-0.66982365,0.521169,-0.7872648,-0.5490472,0.74557394,0.48055008,-1.4785708,-1.2223046,-0.1663074,-0.5324764,1.4755255,0.45575872,-1.0675727,0.3546381,-0.20462161,-0.51098543,0.6342761,0.7815907,0.42484844,-0.7271383,-0.09029033,-0.2894653,0.36190328,0.95484644,1.2233981,1.8489103,0.18646912,-0.1613742,-0.3538711,-0.6112698,0.25059235,1.2029655,-1.4570408,-0.42184305,0.4268134,-0.6488662,-2.0985475,0.19848748,-0.8874478,-0.32959852,0.8800428,1.431961,-0.36647758,-1.3280588,1.9101318,-0.5498881,-0.38937226,0.66894037,1.2865208,-0.79304624,0.23426986,-2.3586528,0.010524075,1.7059981,-1.1539156,-1.960063,0.5797751,0.20397489
sand,-1.2808893,-0.3370479,0.3833458,0.38919482,0.4744892,-1.2076342,0.37716317,0.72610766,-1.4398631,-0.15618317,-0.30755857,0.4027346,-0.105991445,-0.54832363,-0.69814986,0.9684725,-1.0647763,-0.9737627,-0.58225113,0.15928383,-0.060507815,-0.07200187,0.74459815,-1.5963935,0.48826233,-0.4667287,-1.2483162,0.046634752,-0.72967416,-0.44434205,0.37310144,0.37032843,-0.12640424,1.5261393,0.9585047,-0.8842506,-0.36147538,-0.38453206,0.47855416,-0.9027426,0.37615386,-0.04488671,0.6368144,-0.5679365,-0.3421497,0.8375363,-0.28242174,0.45284107,-1.6703024,0.12776203,-0.47063065,-0.9643181,-0.669523,0.360068,-0.8348972,-1.0136355,-0.81221026,-0.037892517,-1.0278195,-1.469306,0.59600896,1.1862633,0.1775852,0.18125027,-0.8744109,-0.10307461,-0.3802285,-0.8888958,-1.4613405,-0.7056959,2.0382254,-0.59668857,0.7853916,0.64615923,0.22162394,-0.47481275,-0.4503777,-0.27847198,0.751293,0.86043376,0.42109075,0.17670174,-1.6213824,1.6964245,-0.98527503,-1.8023275,1.144693,-0.002156794,0.58686894,-0.6619753,-0.8565878,-1.5471185,-0.6013897,-0.46840927,0.7798647,0.33981037,-0.16363831,-1.1726464,0.64029586,-0.6877931
earth,-0.61896753,0.22349958,0.643392,0.51919264,1.644226,-1.4827698,0.06150192,0.33537832,1.5470389,-0.8259623,0.20691998,-0.22173965,0.88075453,0.904002,1.6251001,-1.1559235,-0.4168202,0.2869158,-1.2644168,0.79229146,0.20926075,-1.2338401,0.31701437,-0.7811437,0.23963933,-1.6865382,-2.3875897,0.39814115,-0.5817783,1.0169703,0.6415033,0.04485901,1.1233872,1.8753589,0.9332407,-1.1950742,0.43381456,1.1809036,-1.8532854,1.1199147,-0.2683411,0.37694266,-0.5619203,-0.7136747,1.6472992,-0.7487437,-0.27364394,0.73039794,0.59158164,1.0986198,-0.11074978,0.43918297,-0.35322627,0.95074195,0.47801748,-0.056771368,0.023288101,0.43752846,1.7233888,2.229939,0.5651312,-0.80269337,-1.6954889,-0.96261686,0.35335374,-0.6151449,-1.4652096,0.85445404,0.5526295,-1.0537037,0.25790387,-0.014544624,0.55052704,2.196792,-0.23618789,-1.0524006,-1.0767854,-1.1646477,-1.2008605,1.2279474,0.1962998,1.6828271,-0.27444282,0.3184407,-0.5220439,-1.3630823,-1.139846,-0.8360167,1.6403693,0.18942077,0.094116904,1.4713742,-1.1379268,0.55412406,1.1966897,2.2221577,0.35941815,1.050026,1.1097273,0.26475635
cloud,0.021048583,-0.26333138,-0.06859241,0.3394295,0.71375465,0.65634364,-0.2966146,-0.26938292,0.008880083,-0.22333269,-0.63175446,0.47071716,0.100396276,0.48668694,-0.42976686,0.16881268,-0.02560567,0.44300643,1.0815307,-0.16144238,-0.9586837,-0.28019193,0.36851785,0.14370978,0.48824224,0.14942673,0.5824571,0.19547558,-0.65157324,0.39759198,-0.121316314,0.13114794,-0.2811482,0.060022686,-0.4098049,0.18476824,-0.3839612,0.43017116,0.15527324,-0.016542038,-0.6374679,-0.10750428,-0.618236,0.28387493,-0.23023129,-1.6554111,-0.37397566,0.5941718,0.5539497,-0.38948822,0.6091945,0.52265865,0.8709331,-0.029781729,-0.15261228,-0.5991934,-0.44912076,0.1144282,-0.09929939,0.36647764,-1.0886286,0.24949747,0.55252534,0.5565644,0.3329384,-0.3539774,-0.10220453,-0.5220906,0.21744518,-0.39934936,-0.11375565,0.094802536,-0.34244648,0.2725738,0.34701917,0.3986527,0.06305224,-0.44427183,-0.60380626,-0.12614857,-0.874907,0.64028174,-1.3368665,-0.32444075,-0.6852719,-0.6848006,0.1272087,0.37847316,-0.4553113,0.3844262,0.4023191,-0.96983737,0.019713044,-0.08025519,0.62622625,-0.3478327,-0.041069876,-0.32129744,-0.056720328,0.21987636
smoke,1.0076097,-0.37875506,-0.15051676,0.25102425,1.1162049,0.68066305,0.76449037,0.4092026,0.14876948,-0.53379565,-0.28048754,-1.1674538,-0.5353827,1.2539967,0.8640011,0.7675195,-0.9054303,0.17604868,0.4308336,1.1114379,-0.7137871,-1.0759649,-0.537605,-0.38658062,-0.09990162,0.72614866,0.33898154,-0.09161646,-0.92320657,0.22055118,0.86632395,0.09372455,-1.4287286,0.44444987,-0.2069503,-0.6513979,-0.44997787,-1.172145,-0.41087982,0.69182944,0.13752909,-0.38367915,-0.39320648,0.41618428,-1.1403555,0.60849136,0.106671,-0.53836495,0.4612465,-1.2012552,0.5166154,-0.6455066,0.065131955,0.2023047,-0.84176177,0.93988705,-1.1443329,-0.42551827,-0.24394937,-0.7355245,0.10940337,0.45327902,-0.6181378,0.2153225,0.27033508,1.2142586,0.77241284,0.20910512,0.7045658,0.117185585,0.3884119,-0.47090694,0.7466478,2.4511094,-0.16271071,0.17841499,-0.22428061,-0.23073243,0.043149803,-0.067279674,1.6529697,0.69522405,-1.7103604,0.86379844,-0.7254512,-0.44428214,-0.0676363,1.4854698,-1.129621,-0.4564247,-0.37258467,-0.21428426,-0.15062663,-0.07859993,-0.96895033,0.3122561,-1.2133636,-0.8886972,0.05556802,-0.18901597
fire,0.2285751,-2.6369429,-0.48710918,-0.709575,-0.026977539,1.1240703,-1.3395711,-0.6769638,1.1693082,0.095012344,-0.54839337,0.20580554,-0.886468,0.6991873,-0.58172876,-0.61134624,-1.7437353,0.7617168,-2.2850971,2.4993496,1.3454193,-0.41442356,1.0745434,1.5370593,-1.6367406,1.363411,1.5112299,0.05551179,-1.6962825,1.0140238,2.0995653,0.58574075,-2.4928627,0.7067616,0.63070315,-0.8958137,-1.364175,1.3774465,2.3061228,1.8593669,-0.9019616,1.4299203,0.2872068,-0.5217379,-2.7421112,-1.2119001,-0.26856235,1.3911653,-0.9550758,-1.2277133,0.7170322,-0.7921966,-1.4917866,0.07688289,0.08657857,-0.23676492,1.4981667,-1.6607777,0.45104352,0.45403266,-1.080855,-0.6232539,0.35262847,-0.08591843,-0.08722401,2.1012838,-0.95867056,0.5592838,-0.10660537,-1.3386389,-1.2824407,1.403648,1.2973565,3.2274714,2.4092226,-0.069911,-1.8997234,-0.043248873,-2.0577905,-1.2205538,-0.08811808,-1.6998825,-1.586401,0.6593456,-0.7844593,2.7149546,0.8472505,0.6217868,0.09826908,-0.92952937,0.028575739,0.7906761,2.125279,-0.41277003,-0.42226553,0.49424073,-0.059462626,-2.1588109,0.3733274,0.942015
ashes,0.46363887,-0.98204875,-0.17138314,-0.21755822,-1.5972356,1.848075,-0.27526498,0.4976283,-1.6932741,-0.5454141,-0.43749413,0.35182098,-0.9356282,0.018094834,0.48907402,0.51429504,0.42322335,-0.10600569,-0.6483392,0.3383036,0.19077308,0.32934794,-0.90085894,1.0574611,0.38628986,1.888939,0.6006703,-0.03183636,-0.16126277,0.6651204,0.12093083,0.76496863,0.6135761,-0.14396603,0.60975075,-0.02403184,0.39044574,-0.44436368,-1.1602619,0.36375853,0.22923867,-0.01277407,0.6441098,-1.1216245,0.4049627,-0.6336612,0.060992718,0.5788166,-1.2382792,-0.414278,0.92669624,-1.0103701,-0.31193504,0.012670551,0.59155345,-1.3364786,-0.32120597,0.32255408,-0.021710237,-0.88316315,0.20119321,0.78059083,-0.07289236,0.52937055,-0.10184025,-0.09768776,0.59067905,0.15255098,1.180345,-0.85568565,0.92849237,0.5710313,-1.2684295,0.8346413,0.32982388,-0.33187655,0.029944459,0.20597158,-1.5116311,0.91220075,0.447221,0.28098422,0.26681295,0.43957552,-1.4374369,-0.37227634,0.80987686,0.6780115,0.22431965,1.6465226,-0.6779568,-1.1389345,0.144271,-0.40214857,-0.10134599,-0.7779517,0.0445078,0.05122306,0.1587748,-0.033334147
burn,0.633394,-0.71579295,0.2064892,-0.29418984,-1.4085611,1.465734,-0.3535986,0.87857646,-1.6564447,-0.82040447,-0.55263287,0.38981488,-0.93007994,-0.03239054,0.37622488,0.73923355,0.024785241,-0.16924255,-0.9380293,-0.02475962,0.7169855,0.3973085,-1.1252064,0.9755884,-0.27488843,1.7112302,0.49295127,0.023796761,-0.41100773,0.797298,0.37834528,1.1494464,0.5989719,-0.13000864,0.71874076,0.35207605,0.37994364,-1.0298767,-0.8335769,0.27523267,0.10010233,0.6214749,0.233617,-1.1925274,0.030718962,-0.69657713,-0.64610153,0.4993671,-1.6170951,-0.14425407,0.7506245,-1.209503,-1.2737879,0.24630141,0.2825378,-1.0814205,-0.1754722,0.19820958,0.052075103,-0.3907046,0.972428,1.1955105,-0.14685927,0.24571513,-0.360423,0.52404803,1.163399,0.47064224,0.8376184,-0.69977885,0.47473446,0.21832652,-1.1226853,1.0811259,0.80894023,-0.24389775,0.044506896,0.18506272,-1.2763201,0.6257975,0.74567324,-0.07865266,-0.29426488,0.49209425,-1.7424794,0.056116085,1.132935,0.6623829,0.5189493,1.3722442,-0.33912602,-0.8890603,0.1916824,-0.5864146,-0.4199227,-0.821703,0.64521223,-0.06785802,0.66535634,-0.5616954
path,0.6230175,-0.25649813,0.97283477,0.47105584,0.45849046,-0.40992007,0.3973683,-0.008767922,-0.3720077,0.71646047,1.7857615,0.55307025,-1.0076221,-1.365591,1.3814358,0.4146801,-0.35320172,0.38264468,0.14698792,0.47249445,-1.2011683,0.07148913,-0.22521545,0.3808422,-1.4414082,-0.16754083,-0.2689237,-0.21428789,-0.32602823,-0.83968043,0.29020694,0.5186229,-0.028859997,0.23576814,-0.24790703,1.3490993,0.65161717,-0.19290055,-1.4528155,-0.36172095,0.35988685,0.123414256,0.7846234,-0.4511912,-0.23915471,-0.14315687,0.28141809,-0.63500386,-0.5551284,0.330236,0.617213,-0.3166305,-0.105151206,1.367556,-0.84577703,-0.6207396,1.4331074,0.32555562,0.39952013,-0.48085168,-0.067997195,0.8019395,-0.82979685,0.25410292,0.1410497,0.47958696,-0.34825692,0.4728895,0.22280431,-0.1991482,-0.43656504,-0.31134236,-0.39930955,-0.17202866,1.1033645,-1.2788904,-0.7266879,-0.44244352,-0.77847147,-2.0923421,0.7768879,0.15778382,-0.6717417,0.21514034,-0.8497565,0.7122522,0.6953322,-0.46293023,-0.36411205,-1.6144158,-0.86762404,0.036196325,-1.3889341,1.379707,0.77536744,-0.94289094,0.1483035,0.8224733,0.49996948,-0.25560692
mountain,-0.3371049,0.10547141,0.23717809,2.275308,1.5551308,0.69602156,-0.7916579,1.0808318,-0.990397,-1.0034169,-1.6185517,-0.8707862,0.6283832,1.430652,-0.015885511,0.40244028,0.2581174,-1.2852359,-0.895698,-1.557176,0.48967507,-0.61115587,-0.7573724,-0.26930752,0.43738353,-0.63480884,-0.60492486,-0.17270593,-1.7742729,-0.3471167,0.000663633,-0.9703598,-1.1023973,1.9917412,-0.4568795,0.72322416,-0.84537226,-0.38432297,0.7904075,-0.9381965,-0.11142828,0.85021037,-0.713118,-0.6014337,0.06509153,-0.6250098,-0.04653406,-1.0064942,-1.9072485,0.6332249,-1.1454381,-1.2667111,-0.009826521,0.46110106,-0.6922038,-0.69781995,0.20650978,0.8821912,-3.0363758,0.117346734,0.22908519,0.08936151,-0.83972883,-0.53956306,1.875988,0.71353483,2.3106143,-1.0026115,0.8207151,-0.36479616,-1.6420275,-0.3718969,-0.8781726,2.0400095,-0.7583244,-0.36058512,0.28875586,1.3464355,0.36188018,0.58562416,-0.6195482,-2.295449,1.2939092,-1.4784185,-1.4782652,-1.1949626,1.6564978,-0.21503095,-0.38323507,0.9877629,0.24991585,1.9034462,0.2513514,-1.9320508,-2.3747108,-0.38886133,-0.16922088,-1.3336762,0.5102456,0.2262897
red,-0.6955671,-0.095332034,-1.9632463,-0.45237565,0.31423524,0.8663066,-0.8852246,0.6691744,-0.95875406,0.4592328,-0.72434944,-0.22044225,0.046182215,1.8993024,1.5505443,0.52457404,-0.5709465,-0.1588815,0.24613984,-0.98297006,0.31994757,-1.5758439,0.39752793,-0.03499961,-0.30430952,0.07444119,0.44913197,-1.4573742,-0.13734506,-0.007018507,-0.32976106,0.27938214,-0.37797022,-0.52962255,-1.4164099,-0.4962782,0.31480515,-0.25305223,-0.04401337,-0.4561216,-0.36015725,-0.22690089,0.18249796,0.6482093,-0.9020311,-0.19104695,-0.25872588,0.26174888,-0.04418857,-0.9415584,-0.9458441,0.683271,0.56076336,-0.24560958,-0.3691192,-1.0362064,-0.46112207,-0.46928832,0.6287982,1.2657986,0.9716451,0.69104403,0.3444753,0.68846226,-0.14439642,-0.3646228,0.84011596,0.4380759,0.68550676,-0.14255652,0.8534251,-0.5315216,-0.74010223,0.8391824,-1.0283787,1.587132,-0.75871843,-0.09619427,-0.55197877,0.64171356,-0.123044826,-1.8749957,-0.6321921,-0.45617652,-0.1395427,-0.5292342,0.651862,-1.234491,-0.8632459,-0.29610208,0.1076932,-0.39293537,0.49768838,0.090387665,-1.4042549,0.9726097,-0.8494784,-1.8405529,-1.3963857,0.8694547
green,-0.5081702,0.40331578,-0.5777984,0.5355244,0.15472417,-0.15206145,0.60010326,0.38726237,-0.9396515,-0.649221,-1.3375427,1.1328799,-1.1727674,0.6643515,-0.47010604,0.17251456,1.011489,-0.55368894,-1.7873812,-0.9491298,0.82440823,1.275688,-0.47828674,-0.16394277,-1.1235096,0.22798343,-0.47342372,-0.30888706,-0.89195234,0.17417423,-1.3332485,0.88618225,-1.5915713,-1.4513646,0.18986988,0.022660473,0.063521065,2.4434662,0.49216115,-1.0458347,1.2865889,-0.22261214,1.1156139,-0.09210214,-1.4112368,-0.44673193,-0.6362532,1.30465,0.62245315,0.11484448,-1.0731341,0.046369802,-0.6738117,0.18646102,-0.652748,-1.3328236,-0.49362674,0.020572662,-0.783613,-2.1415176,-0.09207646,0.04216202,-0.68060803,0.5451509,-0.26682487,-0.7803416,-0.026438495,0.01254876,-1.1176795,-1.0221604,-0.05493657,0.22882734,0.52296305,0.9488165,-0.2230105,0.6317742,0.9335427,0.08803853,-0.37827852,-2.3104117,1.082572,0.37392512,-0.68733686,0.69683176,0.35661522,-1.0869713,1.545745,0.71204275,-0.023823226,1.378181,0.76884484,-0.8189332,-1.0869466,-0.58287215,-1.1542476,0.9531694,-0.5615845,0.066051885,-0.42447516,0.5626505
yellow,-0.6297104,-0.4804066,0.6727264,-0.48434648,-0.8720031,-0.42296353,1.0059716,0.3174092,-0.3829795,-0.018401334,-0.36911228,-0.7164321,-0.40885893,-0.3387489,-0.015079364,-0.7165635,0.8993667,-0.83282775,0.490491,-0.70791477,-0.08622289,-0.88221496,0.15955277,1.1099564,0.30410644,0.35677627,0.45643356,-0.73958117,-1.0042098,-0.44524935,1.1620396,0.72417665,0.05068171,-0.33772942,0.37711322,-0.60076934,-0.13419563,0.39026353,0.703695,-0.1738487,0.7665538,-1.010676,-0.098076046,-1.3908858,0.4663436,0.07159815,0.6110094,0.6834343,-0.3210866,-0.4792167,-0.1583941,-0.34212014,0.28302017,0.50580186,-0.17125128,-0.93700176,-0.43668997,0.38955745,-0.46807274,-0.09938163,0.276144,-0.12040808,-0.07186899,0.028469704,-0.28656277,-0.119084805,-0.059203327,-0.25830844,-0.17390971,0.40835127,-0.25928232,0.28791454,0.24064016,-0.040608842,-0.5990173,0.8214398,-0.31619218,0.31649837,0.06538022,0.05813627,0.5330613,-1.0202084,-0.29516447,0.44159237,-0.7252223,-0.1384759,-0.18775131,0.27394676,0.40175435,0.19901974,0.26241368,-0.7025505,0.001174882,0.03911233,0.3256353,0.3262334,-0.8160854,0.13731419,-0.30324242,0.089239895
white,-1.1540185,0.07353675,-1.1974133,-1.167201,0.71512246,0.70282584,0.8891089,-0.8412318,-0.3902905,-1.2178248,-0.7996089,-1.9084138,0.6003652,0.75316,0.62729627,-0.44945216,-0.05195562,-0.78936356,0.5251839,-1.6459414,1.2123574,-0.9778871,0.09294876,-0.19001417,0.22637713,-0.94830185,-0.62928253,-0.97411656,0.99755025,0.09335101,-0.7001259,0.17272884,-0.9075511,-0.7788933,-0.5049142,0.13927744,2.3928144,0.4732561,2.0216873,-0.98601645,-0.52764076,-1.4115824,0.57773733,1.6341171,-0.108883165,-1.0582353,0.025062809,-0.15017767,-1.2920368,-0.45910287,-0.8805914,-0.25480303,0.29301283,-0.19269687,-0.30582663,0.4949876,-0.73529655,-1.2959839,1.2629191,-0.33538893,1.9907589,1.5527931,-0.45964172,-0.5990812,0.27544346,-0.093297124,2.7475898,-1.1676592,1.0297378,-0.20720623,0.5060683,-0.60292584,-0.73156327,1.0812609,-1.554726,1.8250593,-1.2007629,1.0874771,-0.5640281,1.8504592,-1.0340351,-0.51190144,0.5826139,2.0404544,-0.38127157,-1.0255796,-0.3417908,-0.1933791,0.41992536,0.5482934,0.988777,-0.6099502,0.3273528,-2.561308,-0.2481991,1.0500336,-0.67878824,-1.1382214,0.15947323,-0.14053558
black,0.46473026,-0.16964076,0.5468826,-0.1141654,-1.1883765,-0.26880857,0.38230848,0.2034082,0.12299376,-0.5128328,-1.5496111,-0.5326379,0.12783167,1.392973,-0.07416147,-1.4108144,0.98521185,0.10167047,-0.10845843,-0.28991902,-0.93339777,0.050049555,0.5816481,-0.2814506,0.86430407,0.8404271,-0.36737025,-0.6963873,-0.14794846,0.6260162,0.48077288,-0.32124773,-0.93561953,-1.1552497,-0.16743225,0.5957896,-0.66561764,0.17246372,0.35516146,-0.6458003,-1.1004401,-1.0172414,-0.3218262,-0.5327165,-0.19459163,-0.8624715,0.25905398,-0.52940977,0.62185866,-0.030623555,-0.6234501,-0.17608757,-0.39738956,0.8903888,-0.92555445,-0.16034617,-0.23524301,-1.0375808,-0.31511903,-0.5920147,0.1881191,0.5402203,0.36949325,-0.102130555,-0.46090057,-0.4224902,0.65020263,0.40774643,0.13335499,0.02360171,0.3471328,0.87527305,-0.5431151,1.1064202,-0.09900018,0.3081433,-0.76431924,0.7539316,-0.19300771,0.77917004,0.70918036,0.7207079,-0.5993435,-0.2652355,0.11155722,-0.32216224,-0.2644535,0.8290623,-1.1479446,-0.66725826,0.052079063,-1.1108689,-0.20304465,-0.09682107,0.030541666,-0.2613991,-0.9901328,-1.1896275,0.049901664,-1.1948019
night,2.4105742,-0.09506319,1.2097286,3.8611057,-3.2049148,0.07988727,-0.98847526,-0.7087371,0.5583384,0.33350348,0.06947943,1.2708963,-0.862871,0.111553274,-1.2238597,1.1832099,0.8435462,0.30135307,2.0199077,-0.48989138,-1.0032943,-0.15904863,-0.20041041,0.2660892,1.1727673,-2.3219898,-0.89240235,-0.54212123,-1.2576536,2.4353359,-2.3263407,4.2299576,0.7234993,0.5663851,0.59047526,1.3507494,-0.10364135,0.11314982,1.773013,0.5476726,0.8122298,-2.0741022,0.8396149,-2.461838,-2.394697,-4.3723807,-2.1279514,-1.5723634,-2.542989,-3.1534157,0.79758096,0.11159118,0.13172698,0.5004652,0.33342814,-0.5104466,-2.088957,1.1514463,0.68416095,-0.8616481,-2.264801,4.202966,0.839233,-0.9386613,1.2396407,-1.1001315,2.7101367,0.45237803,-0.6598201,1.7406703,0.845716,1.5392591,-1.7575234,0.72384864,-1.7147312,1.1870579,0.42810503,-0.014035781,-1.8325297,0.5744581,0.6844289,1.0590954,0.4474721,-0.08075035,1.0977591,1.2686538,0.291397,-0.17381446,0.79299146,0.3274038,-0.21651362,-0.8966705,0.40982512,1.6248131,2.6841385,-0.9259148,-2.1747692,-1.8433117,1.0223812,0.9360481
hot,-0.2122994,-0.061252076,-1.0708398,-0.4192841,-0.39875373,-0.045300264,0.66172963,1.3974835,-1.0938478,-1.2873886,0.8904572,0.6442375,0.34904325,2.3556519,-1.348464,-0.041834682,0.24828213,-0.1273917,0.43288216,-0.9508833,0.5327485,-1.0794171,1.1658803,-0.4917569,-0.6113973,-0.003569057,-0.16361392,-1.0384678,-1.2321762,0.89245844,0.41984245,-0.005469561,-0.41166386,0.21358384,-0.42644796,0.71150464,0.41973296,1.1277019,0.25454652,-0.97599405,-0.41278148,-1.2901988,-0.3462125,-0.8489921,-0.8244602,-0.20615633,-0.083526425,-0.12433934,-0.090911776,0.23500757,-0.8673258,0.17050608,1.418557,-0.34001508,0.21083355,0.68987894,-0.095803715,-0.111870624,-0.23557174,0.07315401,1.7836372,-0.000648995,-0.6602218,-0.7127897,0.13171315,0.41054234,0.70998245,0.55802983,0.54050523,0.57277197,0.03873686,-0.013257842,0.20905606,1.6098896,-0.18343525,0.036439452,-1.4140221,-0.45588923,-1.0150499,-0.30393562,1.9561754,-0.7551191,-1.0504384,1.8447734,0.1460746,-1.2376926,1.8321556,-0.11821693,-0.6456869,-0.6445355,0.54941136,-0.71717185,0.4439803,-0.004503747,0.32056487,1.3102684,-0.000384837,-0.6396419,0.11821241,0.8968641
cold,0.16844587,0.8140895,0.08446154,0.17057413,-0.9046292,-0.531648,1.961599,0.09394721,-1.4768696,-1.1789645,-1.2395018,-1.5554037,1.8975781,0.35214126,2.1175535,0.017193317,-0.69729215,-1.3828958,-1.461974,-0.003309568,-2.5706046,-0.56291586,-0.13248031,-0.84922886,-0.23744078,-0.28648606,-0.6950316,-1.2891134,-0.49044073,1.6133895,0.03420451,0.7901347,-1.0786685,-0.28462556,0.6112183,-0.0553327,0.5860886,0.0809826,0.28508797,0.5750196,-0.9881547,2.4072978,0.35367426,-0.96462744,-1.0869063,-0.60676575,-0.4903566,-0.38726878,-2.1933086,-1.3681703,-0.6340242,-1.9779135,-0.92798537,-1.0108981,0.42101303,-0.15288465,0.45157614,1.0491698,1.1916047,-1.2438167,-0.9072046,-0.15343674,-1.2626905,-0.5427182,-1.270722,0.5253102,-0.04417027,0.08156592,0.10088571,-0.06173564,0.032819074,-0.35736182,-0.819416,0.27796116,-0.96141416,-0.003678918,-1.8742486,0.7516546,-2.1948302,-0.10883311,0.7327878,1.0413256,-1.1004274,2.3290348,0.072790384,-0.20901997,-1.3947344,-0.02932469,-1.7847658,-0.15694158,-0.68814176,-1.0723472,0.062080342,-0.67827344,0.27856094,0.71899015,-1.1727275,-0.6742142,-0.75126725,0.6088324
full,2.836695,0.21008538,-0.17716384,-1.6413736,0.9967451,0.8043024,-0.50580794,2.3350294,-0.6147967,0.6113789,-2.4369338,0.2960786,0.37787226,-1.8779278,-1.073421,-0.9365398,0.20716922,0.082804404,0.039651975,0.5082902,0.14879261,-1.4395136,0.65835047,0.50915796,-0.7354288,0.20975654,-2.4708688,-1.6754314,1.0593203,-0.050571006,1.1191391,-0.022682885,0.101228274,0.8387337,0.1811946,0.35547403,-0.96585083,-0.8263209,-0.49788657,0.32169375,0.40177402,-1.0962731,-0.7093279,0.78008527,-0.5971028,0.9077089,0.8573404,1.0101737,1.1016054,-1.1596324,-0.2513484,-0.29287505,1.1972438,0.9533574,-0.24701379,0.35209966,1.3963915,-2.5493453,1.9117727,0.93544525,-0.40497026,0.9571519,-2.0073106,-1.2614425,-0.38485876,1.1144298,-0.059957188,0.64758587,0.65925306,0.71983385,-1.2525791,0.03422618,0.37801647,0.90094644,-1.3972377,0.81680703,-1.6475525,2.057778,-0.4687179,-0.37434754,-0.20230706,-1.4543624,1.0869255,2.3427868,-2.1747968,-0.9746122,1.3450489,-0.65304834,0.5412248,1.4840397,-0.055549413,0.017820617,0.24311757,0.26886153,-1.1603578,-1.1269826,1.3059561,-1.470316,0.6223717,-0.32195935
new,-0.8488109,0.41379312,-0.36098108,-0.008849184,-0.43025652,0.12474974,-0.11691296,1.3255202,-0.15452217,-0.25024712,-0.08303778,-2.013788,-0.7831626,0.27114436,0.10359726,0.19560361,0.1733246,0.19152327,-1.1531628,0.18596916,-0.60943955,-0.15222262,-0.2893511,0.16415787,1.1135541,0.5884414,0.16354816,-0.034567416,-0.23063897,0.13079594,0.05304597,0.69572085,-0.7327725,-0.2689068,-0.08934796,0.09792908,0.7315796,0.26779917,-1.0063223,-1.0106877,0.033312857,-0.031403203,-0.3355236,0.12374135,-0.054845974,0.38115716,-0.8616088,0.6087318,1.0847079,-1.1931136,0.46187732,-0.15835051,0.50640583,0.6049774,-0.9234319,-1.3262938,-0.7078681,-0.20852964,0.32008362,-1.135759,-0.015740493,-0.020311737,-1.0718601,0.32174614,0.07585939,1.202653,0.000464042,-0.10167273,0.45493373,-0.6585586,-0.5916962,-0.20897134,-1.1873237,-0.5193775,0.09041538,-0.40281272,0.021721065,0.050204318,-0.50687176,0.19629912,0.4760445,0.32520273,-0.16057853,0.3004752,-0.34163508,1.1113219,-0.5344103,0.12848234,-0.2588916,0.09131389,0.8854329,-1.1043049,0.08744621,-0.4510883,-0.26151216,0.10219264,-1.7137502,0.30047494,0.35004607,0.7066136
good,0.3606386,-0.19108434,0.8589894,-1.2123563,0.5456371,1.1060144,0.43943703,0.8549858,-0.011468868,-1.4858723,0.9241032,0.8239019,-1.0147898,1.1618534,-1.7722021,-0.5400605,-0.013264717,-0.30560347,0.30604014,0.5744769,0.4151273,0.3880223,0.5998904,-0.20200308,0.001826336,-0.011085021,-0.34575215,-0.63849705,-0.09220037,-0.20747294,0.4624556,0.18929476,-0.12892829,0.2451141,1.0416771,-1.2747105,0.09990746,0.027332345,0.9216915,0.12151118,-0.29964986,-0.42677236,-0.271608,-0.82063764,-0.6296328,-0.67332953,-0.734358,0.2419154,-0.002099276,-1.8810811,-1.3118625,-1.0537095,2.510419,0.5198867,-0.13644813,-0.21397288,1.4936136,-1.2080691,-0.90065664,-0.6970658,0.43916607,-1.1470159,0.9071007,-1.1552466,-1.7098595,-1.8830272,0.1436813,0.98126,0.6295662,-0.328704,0.323501,-1.3194085,2.3289263,-0.68879145,-0.80687076,-0.13342775,-0.42842868,-0.09755644,1.6456338,-0.72012323,0.9072299,-0.20515756,-0.31805137,-0.9106217,-0.2370459,-0.5721771,1.7146937,-0.6604531,0.75713634,0.5369466,-1.4643916,0.24595207,-0.5292568,0.3540112,-1.2671646,0.49069014,-1.406387,-0.49788547,-0.58463866,0.22443925
