not,0.13353576,0.49553,0.22357601,-0.085376,-0.01119626,0.6949276,-0.17339249,-0.5098357,-0.106035,0.053479,0.08747426,0.06412749,0.3324575,0.27521253,-0.14276,-0.00251375,-0.0836625,-0.13242,0.0199675,0.0077755,0.47802275,-0.25074175,-0.2100825,0.179649,-0.07253001,-0.024382,0.11235326,0.21100199,0.2448,-0.3185225,-0.00959,0.5778375,-0.5961,-0.2081275,0.12714201,-0.1360655,0.07431749,0.37981874,0.25096923,-0.23072173,-0.1839325,0.03825824,0.10947908,0.05509049,-0.17565125,-0.06931825,0.11269376,0.14225176,-0.5512175,-0.323725,0.251035,0.3906785,0.5090975,0.581005,-0.46689472,-1.5223525,-0.03494599,-0.04519776,0.97708005,0.3542,0.14296001,0.25588998,-0.19363499,-0.5501575,0.638555,-0.052939,0.41763526,0.32706502,0.08876775,-0.3836425,-0.414825,0.15775499,-0.09461498,-0.4312575,0.23403001,0.14981751,0.11271776,-0.320075,-0.6893175,-0.2841955,-0.05997249,-0.8136935,-0.490865,0.0703325,-1.3151975,0.253045,-0.03619225,-0.56527495,0.403278,-0.13445325,-0.26915,0.19698001,-0.062835,0.46158502,0.15070976,-0.15584575,-0.4370575,-0.470585,0.055457,0.402862
all,-0.09426249,8.34E-01,0.24573259,0.21968503,-0.23113163,0.32962,0.11321799,0.383488,-0.04951621,0.3208514,0.12313399,0.0405364,0.07775901,-0.1119646,-0.05221201,-0.39552203,-0.05049979,0.490532,-0.08439206,0.23403421,0.3757426,-0.108876,-0.1482134,-0.34737802,0.0561046,-0.3105782,0.24803801,-0.30139244,0.08965821,-0.20967682,0.01981821,0.543382,0.19239202,-0.317041,-0.02112025,0.137888,-0.288858,0.356654,-0.02922659,0.01077321,-0.283688,-0.517148,0.0241,-0.0367562,0.2574364,0.0778817,0.12560561,-0.33640677,-0.22151999,-0.54167217,0.1040782,-0.0981322,0.11290598,0.84217405,-0.2286396,-2.06388,-0.0449546,-0.2142653,1.9378799,0.45518598,-0.0168614,0.617722,-0.4611184,0.09654358,0.975774,-0.07828,0.2915404,-0.01183985,0.59345603,0.01380559,0.15466261,-0.22086,0.06368719,0.3442356,0.4219776,0.503022,-0.2516908,-0.46464777,-0.702222,-0.04225,0.511598,-0.173198,-0.38305137,-0.034688,-1.26233,-0.09395441,-0.17102,-0.738282,-0.042433,-0.0853316,-0.46454602,0.121658,0.0327072,-0.20441198,-0.52262795,-0.1039654,-0.1490116,-0.27239317,0.57438403,-0.03229801
many,-5.90E-01,4.16E-01,-3.57E-01,2.50E-01,1.69E-01,1.57E-01,-5.41E-01,2.93E-01,-9.27E-03,7.54E-02,-1.79E-01,4.63E-02,3.34E-01,-1.79E-02,6.90E-02,-1.11E-01,-1.83E-01,2.66E-01,1.08E-01,-1.61E-01,5.07E-01,-2.55E-02,-5.23E-02,-1.29E-02,2.34E-01,-2.53E-01,2.66E-01,-1.75E-01,1.41E-02,1.66E-01,6.70E-02,-2.55E-01,-2.15E-01,-2.12E-02,-1.51E-01,1.62E-01,2.66E-01,-2.03E-01,-2.04E-01,-7.93E-02,-2.95E-01,-6.84E-02,3.53E-01,3.81E-02,6.04E-01,-1.55E-01,3.13E-01,2.82E-02,-2.68E-02,-5.30E-02,1.77E-01,-1.19E-01,-1.75E-05,8.63E-01,1.09E-01,-1.58E+00,3.67E-01,-6.23E-01,1.46E+00,5.09E-01,-1.97E-01,1.12E-01,-1.44E-02,2.65E-01,9.89E-01,8.10E-02,2.07E-01,-2.17E-01,3.38E-01,-2.91E-02,-3.28E-02,-7.54E-02,-4.35E-01,-2.48E-01,2.43E-01,2.01E-01,-1.52E-01,-8.15E-02,-7.65E-01,5.39E-02,1.23E+00,-5.55E-01,-2.48E-01,-7.11E-02,-9.17E-01,-4.66E-01,3.18E-01,-1.79E-01,-1.04E-01,2.76E-03,-4.06E-01,3.21E-01,-2.10E-01,-1.95E-01,-2.76E-01,-3.32E-01,-1.32E-01,-9.12E-02,7.14E-01,-1.93E-01
one,-0.21529901,7.95E-01,0.39315102,0.32124802,-0.14223,0.19605766,0.09694,0.2939877,0.33215433,0.06992134,0.05958533,-0.15041666,0.16787533,0.00714167,-0.01819467,-0.00955,-0.085233,0.56217664,0.135978,0.23176767,0.45727766,-0.01534,0.10391134,-0.14841999,0.03120267,-0.62548,0.40860865,-0.1733314,0.02979067,0.073885,0.17901032,0.11124665,0.45675,-0.3266153,0.07797959,-0.00637633,-0.02278,0.43832,-0.09725333,-0.3624213,-0.13165334,-0.24103336,0.34679,0.079673,0.15848167,0.22880669,0.4909953,-0.094418,-0.26080665,-0.26904032,-0.06192633,-0.16696332,0.04183333,0.69129664,-0.47623336,-1.9149666,0.119236,-0.0334,1.5113335,0.5861433,-0.13072334,0.5351383,-0.28534633,0.2626767,1.0354867,0.15776001,-0.13876267,0.18742691,0.84434336,0.02788566,0.21288,-0.01903,-0.07317334,0.19026001,0.5257766,0.26627666,-0.35262004,-0.44628966,-0.44875002,0.29998,0.42749,-0.01727992,-0.35818997,0.16255511,-1.2199134,-0.48031,0.09155666,-0.7521933,0.22650868,0.22637732,-1.88E-01,3.59E-01,-1.73E-01,-3.74E-01,-0.7624833,-0.23771,-0.3512877,-0.22849865,0.51899666,-0.06564
two,6.36E-02,5.11E-01,1.91E-01,3.46E-02,3.93E-02,5.92E-01,6.77E-02,4.27E-02,-1.66E-01,-7.69E-04,5.67E-02,7.84E-02,1.65E-01,1.63E-01,1.57E-01,-3.80E-01,4.21E-02,2.57E-01,-2.01E-01,2.22E-01,4.13E-01,-1.21E-01,-3.57E-01,1.75E-01,1.85E-01,-6.40E-01,3.86E-01,-3.63E-01,2.99E-02,-1.37E-01,2.03E-01,2.49E-01,2.18E-01,6.68E-02,-4.15E-02,3.25E-01,-8.45E-02,4.85E-01,-2.69E-01,-1.37E-01,-1.74E-01,2.83E-02,5.42E-01,-1.77E-01,1.42E-01,1.42E-01,-2.03E-02,-5.49E-01,-3.60E-01,2.04E-02,4.31E-02,-3.93E-01,3.88E-01,8.05E-01,-3.39E-01,-2.08E+00,-1.08E-01,5.95E-02,1.43E+00,7.09E-01,-1.46E-01,3.03E-01,-1.91E-01,1.25E-01,7.02E-01,-3.96E-01,1.19E-01,5.36E-01,4.21E-01,1.36E-01,-2.43E-01,-2.21E-01,7.36E-02,1.68E-02,4.29E-01,2.82E-02,-1.04E-01,-4.49E-01,-5.90E-01,6.83E-02,6.99E-01,-2.92E-02,-5.14E-01,-2.80E-01,-1.19E+00,-3.17E-01,1.53E-02,-5.64E-01,6.67E-02,-3.11E-01,-3.22E-01,6.37E-02,-1.05E-01,-8.48E-03,-6.87E-01,-1.93E-01,-2.50E-01,-5.00E-01,2.15E-01,-6.60E-02
big,-0.10438959,5.99E-01,0.6256061,0.73346573,-0.60720813,-0.17603001,-0.07241157,0.03677187,-0.17109898,0.5808049,0.2547017,-0.11616315,0.2982284,-0.34474316,0.47298998,-0.30198857,-0.34214702,0.32118574,-0.06945515,0.26063758,0.23824856,-0.12060283,-0.0844,-0.01670629,0.33429617,-0.32028085,0.13419715,-0.12929042,-0.2585983,-0.39587855,0.38335043,-0.10094386,0.10454271,0.15242386,0.10974552,0.06100717,0.29000357,0.18431571,-0.13287443,0.05510471,0.02984643,-0.47227284,-0.16668858,0.06041771,0.0922,0.05879601,0.41441175,-0.327748,-0.261847,-0.47225016,0.45256728,-0.13618998,0.45665997,0.9203643,-0.1889112,-1.5362797,-0.07857929,-0.5042943,1.5092514,0.57322425,-0.02945228,0.5022901,-0.6283641,0.34208307,0.76611453,0.12842214,-0.04014542,-0.38372716,0.89999425,0.18258429,0.04821929,-0.01555714,0.29106998,0.28687817,0.59384155,0.06720699,-0.04414661,-0.51372576,-0.352138,0.20283286,0.41537312,0.03253357,-0.57993686,-0.55421424,-0.78328454,-0.47263855,0.1627147,-0.56155574,0.08187612,0.05662699,-0.26318142,1.80E-01,-1.53E-01,-3.59E-01,-5.90E-01,-0.04950311,-0.36964574,-0.4931977,0.5812386,-0.268848
long,2.54E-02,0.29968333,0.3302537,0.5070033,-0.1156075,-0.3744317,-0.3037205,0.07041451,-0.44550166,0.08728199,-0.35800835,-0.3608222,0.13461167,-0.36879218,0.539385,-0.31675497,-0.26960668,0.09145334,-0.13744,0.33562502,-0.002472,0.18438001,-0.13027166,-0.19031239,0.18730998,-0.306202,-0.04640167,-0.32821882,-0.1862545,-0.142719,-0.04967584,0.21061002,-0.18937002,-0.04819851,0.28126168,0.07559793,0.24264866,0.20135999,-0.11623134,0.11370733,0.16910833,-0.42388737,0.08665466,-0.24462716,0.08849699,0.00866466,0.7639785,-0.25343832,0.04018384,-0.2693483,0.09711333,-0.20180185,0.07314833,0.723675,0.14773484,-1.7936983,0.27129802,-0.53378004,1.4605433,0.19595766,0.04568817,0.25653502,-0.5680736,-0.07620671,0.78591007,0.11281469,-0.01823,-0.3910167,0.63783336,0.10546199,-0.08142783,0.00746,0.26327166,-0.22206001,0.41898635,-0.09985467,-0.17915916,-0.20513666,-0.38706017,-0.04220616,0.240205,0.24043584,-0.34012166,-0.22441018,-1.04744,0.25428882,0.27217335,-0.46606997,0.11186668,-0.05779983,-1.13E-01,-2.07E-02,-1.57E-01,-1.65E-01,-0.38402998,-0.18072017,-0.10135832,-0.33180234,0.47090733,-0.00642001
small,-1.43E-01,5.43E-01,5.18E-01,6.50E-01,-4.34E-01,-3.01E-01,-1.45E-01,8.83E-02,-2.19E-01,3.52E-01,2.95E-01,-9.24E-02,3.54E-01,-3.26E-01,4.58E-01,-3.24E-01,-2.86E-01,2.37E-01,-8.38E-02,3.00E-01,3.61E-01,-1.68E-01,-5.09E-02,9.74E-03,1.69E-01,-3.07E-01,1.74E-01,-1.26E-01,-2.94E-01,-3.06E-01,3.06E-01,-2.64E-02,-6.40E-02,9.91E-02,9.45E-02,4.21E-02,2.78E-01,1.44E-01,-3.04E-01,6.68E-02,4.97E-02,-2.17E-01,-9.06E-02,1.42E-01,2.40E-01,-4.16E-02,4.49E-01,-4.18E-01,-1.78E-01,-5.61E-01,4.11E-01,8.33E-04,3.53E-01,8.09E-01,-8.80E-02,-1.51E+00,-3.44E-02,-5.24E-01,1.49E+00,5.40E-01,-8.37E-02,4.20E-01,-6.67E-01,2.14E-01,7.93E-01,1.55E-01,1.92E-02,-3.97E-01,8.58E-01,1.60E-01,-5.67E-02,6.72E-02,2.73E-01,3.23E-01,5.32E-01,1.04E-01,-9.69E-02,-4.16E-01,-4.72E-01,-1.60E-02,4.85E-01,6.24E-03,-5.81E-01,-3.90E-01,-8.84E-01,-4.08E-01,1.75E-01,-4.62E-01,7.08E-02,1.57E-01,-2.37E-01,1.09E-01,-2.15E-01,-3.23E-01,-5.20E-01,1.24E-01,-2.43E-01,-3.27E-01,5.19E-01,-2.50E-01
woman,4.76E-01,4.14E-01,5.28E-01,4.64E-02,-8.10E-02,1.05E+00,1.89E-01,-2.24E-01,3.92E-02,3.27E-01,-2.04E-01,-2.34E-01,5.85E-01,1.74E-01,5.52E-01,-1.45E-01,1.07E-01,-2.28E-02,-1.10E-01,7.31E-01,5.52E-04,-4.52E-01,-1.85E-01,-2.40E-01,2.87E-01,9.57E-02,2.90E-01,-8.07E-01,1.37E-01,6.88E-01,2.69E-01,6.82E-01,2.83E-01,-1.53E-01,4.85E-01,4.34E-02,-5.39E-01,4.76E-01,2.60E-01,3.28E-01,-3.78E-01,9.95E-02,-1.36E-01,2.39E-02,1.66E-01,3.98E-02,-1.26E-01,-4.09E-01,-4.63E-01,-3.96E-01,-1.21E-01,-8.59E-01,2.68E-01,9.20E-01,1.57E-01,-1.48E+00,-2.62E-01,-4.61E-01,1.49E+00,3.46E-01,2.88E-01,6.57E-01,1.36E-01,-1.38E-01,1.07E+00,4.13E-01,3.99E-01,-1.32E-02,4.01E-01,-7.82E-03,-5.32E-02,-3.79E-01,1.70E-01,5.00E-01,3.31E-01,5.21E-01,-3.92E-01,-5.81E-01,-1.85E-01,-9.46E-01,-1.77E-01,1.32E-01,2.45E-01,1.52E-01,-1.46E+00,-5.12E-01,2.39E-01,1.55E-01,4.65E-01,-3.29E-01,1.20E-01,-1.46E-02,6.08E-01,-4.01E-01,-2.00E-01,6.11E-02,-9.68E-01,-5.01E-01,7.90E-01,-2.60E-01
man,5.38E-01,0.44634667,0.5774367,0.097614,-0.194161,1.1590667,0.19512767,-0.15762,0.00183666,0.30776533,-0.26575217,-0.09970134,0.64578635,0.10609335,0.58454335,-0.173045,0.04446134,-0.04665701,0.04100001,0.72461003,0.0078752,-0.45679998,-0.16000867,-0.21074666,0.29556334,0.137794,0.278298,-0.82030004,0.13052666,0.60796666,0.32691666,0.6146333,0.23211332,-0.14116,0.6080267,0.08389767,-0.43249667,0.49195662,0.19097036,0.32543,-0.277729,0.037447,-0.18859667,-0.097798,0.09373999,-0.07628667,-0.135083,-0.32929,-0.55087334,-0.4265767,-0.06450599,-0.83039,0.15246968,0.8297667,0.23664667,-1.4889666,-0.34618667,-0.51415336,1.4663534,0.23536332,0.36450997,0.65088665,0.09597,-0.16082667,1.0520067,0.38046634,0.403968,-0.0559902,0.3274,0.004853,-0.09092667,-0.38059667,0.23741533,0.44218996,0.240526,0.39128932,-0.45743266,-0.60931,-0.22623001,-0.92729,-0.227486,0.12857834,0.20054334,0.13892667,-1.4785666,-0.39399663,0.15361765,-0.01695833,0.45940635,-0.19841433,4.98E-02,-2.88E-02,7.03E-01,-3.96E-01,-0.14664532,0.11995333,-1.0192019,-0.5248466,0.7977167,-0.31387332
person,1.36E-01,0.379875,0.46213,-0.06116499,0.17954001,0.43944502,-0.144585,-0.005225,0.0023355,-0.225463,-0.31352,0.081896,1.11,0.0606545,0.17642565,0.05364001,0.230329,0.315439,-0.63992,0.0495916,0.273435,-0.05358001,0.50525,0.048873,0.334835,0.32719,0.04235,-0.352405,0.12071499,0.674155,0.45083,0.300915,-0.359355,0.49852,0.435174,-0.2250975,-0.42703,0.652385,-0.334145,0.14145,-0.76686,-0.25840002,0.091695,-0.165133,0.40152,0.20595,0.1479,0.0061965,-0.68942,-0.453055,0.51170653,-0.27377498,0.104205,1.3894,-0.41435498,-1.80935,-0.25415498,-0.107628,1.6249,0.30215,-0.0794895,0.63821,-0.543055,-0.23209,1.034255,0.022085,0.2790035,0.12042895,0.39345402,-0.064105,0.24897002,-0.2834585,-0.0071435,0.0516325,0.2211705,-0.271175,-0.15242499,-0.0662,-1.3015499,0.325935,0.35853,0.425995,-0.26954,0.39451,-2.1564,0.100685,0.20946349,0.019675,-0.392405,-0.67599,-5.12E-02,-5.64E-01,2.30E-02,3.40E-01,-0.11181,0.011753,-0.524065,-0.6363605,0.608045,-0.19052
fish,-0.39553154,3.77E-01,0.13535777,-0.06543545,-0.24949445,0.20773132,-0.05779178,0.1162639,-0.22733943,-0.30879778,-0.15240112,-0.12850067,0.25444758,0.3553249,0.40447822,-0.17878546,-0.13635911,0.17974967,0.15847467,-0.10881196,-0.090654,0.02559856,-0.07218333,-0.20187733,0.4433001,0.29206336,-0.1126469,-0.16117333,-0.12087908,0.41150913,-0.05932555,-0.02659044,-0.28938824,-0.24100702,0.27948558,0.16651556,-0.00921228,0.27052775,-0.03957221,-0.03233222,-0.17617778,-0.37312335,-0.30743942,-0.14710234,0.13990553,0.32973567,0.22250745,0.21374157,-0.05249044,-0.17241411,0.1089315,-0.06629652,0.15618946,0.58351886,0.00238023,-0.8256594,0.30913436,-0.12541178,0.518725,0.5278065,0.05244534,0.70156884,0.10679555,0.053152,0.5560956,0.07820006,0.13841277,-0.43095833,0.41869172,-0.45310545,-0.06354667,-0.1928927,0.34868795,0.05031733,-0.20427445,0.03265556,-0.45602676,-0.17945021,0.00166455,0.38537732,0.18878335,0.22043164,-0.19271767,0.47808844,-0.83039623,-0.03685921,0.4091114,0.16833334,-0.20563789,0.20707422,-0.07567668,-2.78E-01,-2.40E-02,1.08E-01,-1.43E-01,-0.02917056,-0.7970532,-0.44673523,0.44450033,-0.10938445
bird,-0.56064373,5.01E-01,0.003002,-0.12143598,-0.19284299,0.10955001,0.20992677,-0.06311125,-0.60559356,-0.21801786,-0.21087587,-0.02390949,0.7360142,0.55697674,0.70431,-0.20129625,-0.25484413,0.23086604,0.5950129,-0.24715376,-0.25422475,0.28146413,-0.15767251,-0.24728125,0.60859597,0.618785,-0.5187128,0.31959313,-0.15393934,0.00291949,0.2327065,0.10462588,-0.04260514,-0.09777799,0.212187,0.15471312,0.0693675,0.20478475,0.01468125,-0.14194149,0.15929212,-0.5378688,-0.2116785,0.07471226,0.0896475,-0.05299875,0.37470874,0.11393563,-0.12166838,-0.22064699,-0.18832013,-0.12349875,0.05360401,0.625915,-0.1499115,-0.5264038,0.22851974,-0.03533751,0.55175763,0.27929124,-0.02274188,0.78505135,0.318634,0.32690752,0.45510215,-0.0525869,-0.08700587,0.11322951,0.02551732,-0.56900126,0.23992497,-0.21593788,0.25704286,0.09170212,-0.03452825,0.09141551,-0.5307824,-0.21648625,0.1720949,0.26973724,-0.12922376,0.25017,-0.25406,0.46408725,-0.39687273,-0.11776628,0.36344123,0.28833088,-0.10493126,0.50575,0.00210038,-3.55E-01,1.37E-01,-1.57E-01,-2.96E-01,-0.56416,-0.8251587,-0.34776,0.24384762,-0.1505525
dog,-0.09870881,5.15E-01,0.47371802,0.073128,-0.33410656,0.12796362,0.26659563,-0.29768664,0.04302599,-0.39724398,-0.15385598,0.0378188,0.522828,0.10233341,0.144336,0.04985199,0.41630197,-0.15081,-0.17495601,0.38060397,0.599038,0.1657886,-0.41370997,0.0605672,0.5851986,0.041976,-0.03787161,-0.1322144,-0.133446,0.570958,0.0073074,-0.13768798,-0.31040034,0.0622112,0.441422,-0.046936,-0.43694,-0.0098976,0.38103184,0.14942181,-0.26917538,0.05784611,-0.239332,-0.003451,0.108998,0.38774002,0.114037,-0.1951336,-0.046776,0.08189601,0.14125201,-0.17132398,0.47171798,0.4849426,-0.2855022,-0.7952802,-0.3877012,0.10049979,0.37185198,0.522096,-0.18031801,1.085366,-0.17047003,0.16996838,0.82176197,0.05675859,0.260906,-0.189654,0.490508,0.05113202,-0.18147646,-0.0319784,-0.3011804,0.09167181,0.168314,-0.3318922,-0.32901996,-0.34342784,-0.7349259,0.033098,0.23585801,0.0314782,-0.1678474,0.24832293,-0.281922,0.185414,-0.24856141,-0.251398,0.0420696,0.0406464,0.0247372,-2.18E-01,2.68E-01,-8.15E-02,-3.40E-01,-0.2820828,-0.794914,-0.18178412,0.005596,-0.0671442
louse,-0.42821747,2.32E-01,0.14807063,-0.08377938,-0.356095,0.41289625,0.20648937,-0.01561625,-0.2216775,-0.02482,-0.4057521,-0.16322814,0.6023375,0.17640251,0.6321938,0.35378915,-0.23870103,0.1452625,0.3936054,0.10088588,0.12436013,0.07218475,0.00249125,0.00850271,0.6411456,0.45146915,-0.1834225,0.14051312,-0.5394175,0.02120751,0.02329263,-0.1596795,0.09444287,-0.15366405,0.143604,-0.0162,-0.13927263,-0.07859901,0.12853599,-0.01515013,-0.21020837,-0.31496876,-0.41721603,-0.18598926,0.30643025,0.21885125,0.24750713,0.379091,-0.30303738,0.12482802,-0.07708,-0.23125851,0.13428,0.305079,0.02359087,-0.06871624,0.24377787,0.07066749,0.31543124,0.0284425,0.16075826,0.72292125,0.07923312,-0.11953475,0.6495741,0.29804134,-0.24688625,-0.15742825,0.24901696,-0.63351375,-0.03673163,-0.5073044,0.18439876,0.11083449,-0.12229808,0.09271938,-0.20211795,-0.43430236,0.03152337,0.4768904,0.07654111,0.09788451,-0.3383826,0.5276687,-0.427892,-0.27709252,0.3747525,0.14932527,-0.29675338,0.09108963,0.02703626,-4.56E-01,4.33E-01,-4.87E-02,-1.45E-01,-0.43886998,-0.7086931,-0.42708495,0.219945,-0.24132502
tree,-0.24565864,3.84E-01,0.16987492,-0.02895474,0.358374,0.00394636,-0.349351,0.16120237,-0.06173495,0.04188799,0.01049736,0.15800273,0.37473392,0.2650767,0.10796909,-0.15551247,0.24093565,-0.05366572,0.22134735,-0.09260364,-0.03587043,0.14149201,0.03695381,-0.02027837,0.534348,-0.01877887,0.12234363,-0.36197814,0.06230676,0.40474615,-0.02391064,0.0791336,0.54699093,-0.53250444,0.07687354,0.23859666,0.19584717,-0.15894672,0.05668826,0.3919199,0.23775917,-0.56561637,0.2647273,-0.29160997,0.45186436,0.22621554,0.3822215,0.28730765,-0.10581363,0.13281764,0.05851756,-0.34740016,0.3732042,0.55819225,0.07786363,-1.2713965,-0.06060454,0.07298455,1.0069947,0.2959562,0.07700215,0.6435968,0.06280927,0.37328455,0.7406118,-0.13091764,0.13503681,0.03046182,0.40359986,-0.19186848,-0.04383782,-0.02948054,-0.10741365,-0.39981273,0.07615654,-0.23085862,0.10034692,-0.05888446,-0.12007964,0.15186621,0.04691837,-0.06559882,-0.54194003,0.18561028,-0.3041648,-0.02945482,0.1405933,-0.1097661,0.32701617,0.42754543,-0.10636427,-1.85E-01,-2.81E-01,1.55E-01,-3.96E-01,-0.12966745,-0.49209145,-0.65274817,0.8886534,0.1301
seed,-0.05383231,2.43E-01,-0.0157128,-0.062647,-0.13108572,0.165401,0.2357445,0.141734,0.24451871,0.20032659,-0.20331903,0.0891687,0.49563304,0.2756669,0.186166,-0.049584,0.24876249,0.0929833,0.21021602,-0.1416549,-0.40091118,-0.05597369,0.1286782,0.0980831,0.13465941,0.46648845,-0.0591932,-0.398268,-0.2970953,0.3075624,0.09695751,0.25086772,0.0874522,-0.10966431,0.20481178,0.1285923,0.00880915,0.0482408,0.03027571,0.0692883,-0.0097919,-0.53473246,-0.3327659,-0.22823068,0.25154346,-0.05088298,-0.13737601,0.11765498,-0.2708478,-0.3186684,0.14056914,-0.16634108,0.12067741,0.736111,-0.2184112,-0.93395835,-0.33612567,-0.3286547,0.77847105,0.1152468,0.23909958,0.47957796,0.0463218,0.23562479,0.964887,-0.0730436,0.17771563,-0.164009,0.18860841,-0.3902296,0.02192349,0.01501921,-0.00176414,-0.0087215,0.337584,0.1469831,-0.10173199,-0.48090854,-0.4902479,0.2194871,0.286477,0.1763897,-0.49191108,0.47096872,-0.733595,0.07886301,0.44607005,0.10537469,-0.12683505,-0.1096247,0.25401402,-2.45E-01,7.46E-02,-2.37E-01,-2.17E-01,-0.20157722,-0.29589397,-0.3339031,0.4728766,0.001584
leaf,-0.23757,5.64E-01,-0.02633467,-0.0071585,0.26537332,-0.527425,-0.487915,0.30149418,0.00232917,-0.0819835,-0.173585,0.15662317,-0.02822383,0.25148448,0.09534315,-0.30208,-0.31861132,0.24029447,0.48874167,-0.00175834,-0.43491185,-0.25596836,0.13321482,0.2250617,0.23229109,-0.14447783,-0.18923849,-0.06384832,0.25957856,0.42777503,-0.24970014,0.10613426,0.14132334,-0.09327949,-0.11845099,0.19914667,0.11152783,-0.22866501,-0.07199717,-0.12939666,0.14290233,-0.57809645,-0.35494336,0.06981551,0.314885,0.23759265,0.07335883,-0.05543081,-0.28248835,-0.41001332,0.09141167,-0.22765534,-0.1090857,0.41559002,-0.08208332,-0.817965,-0.31608835,-0.32327917,1.0067128,0.08394734,0.082881,-0.01844666,0.2493,0.43768632,0.5786028,0.17711335,0.00109283,-0.43798497,0.6831984,-0.52156764,-0.25946304,-0.20105416,0.17161833,-0.25197086,0.24375103,-0.07328484,0.266215,-0.49058604,-0.3371167,0.31471166,0.294201,0.09768233,-0.66454834,0.34198165,-0.9525034,0.3697075,0.4810233,-0.04849067,-0.07209168,0.17395668,-0.08435933,-2.77E-01,-9.64E-02,4.75E-01,-4.04E-01,-0.05446984,-0.13557266,-0.595715,0.7915217,-0.12567967
root,-2.66E-01,8.84E-01,2.68E-02,-1.26E-01,3.87E-01,1.49E-01,-3.64E-01,2.39E-01,3.67E-01,8.22E-02,5.89E-02,3.53E-01,3.28E-01,5.23E-01,2.58E-01,1.73E-01,-3.47E-02,1.62E-01,3.65E-01,-8.70E-04,-5.30E-01,-2.15E-01,-9.86E-02,-4.27E-01,2.05E-01,3.65E-01,2.31E-01,-2.07E-01,4.13E-01,3.68E-01,1.98E-01,2.91E-01,2.52E-01,-1.15E-01,-2.17E-02,2.62E-01,6.73E-02,-5.45E-02,-4.53E-02,-1.01E-01,1.58E-01,-2.39E-01,9.07E-02,-2.00E-01,2.95E-01,4.69E-02,1.22E-01,3.46E-02,8.42E-02,3.26E-01,7.37E-02,-2.49E-01,1.43E-01,4.14E-01,2.62E-03,-1.04E+00,-2.01E-01,-1.67E-01,7.42E-01,4.68E-01,7.46E-02,5.31E-01,1.82E-01,3.36E-01,5.30E-01,7.24E-02,1.36E-01,-2.59E-01,4.82E-01,-5.42E-01,-1.42E-02,-4.67E-02,-4.29E-03,-2.58E-01,4.94E-01,-1.52E-01,-1.23E-01,-5.26E-02,-1.33E-01,3.38E-03,1.01E-01,1.96E-02,-7.29E-01,2.78E-01,-7.42E-01,9.05E-02,4.75E-01,3.77E-01,-7.59E-02,4.70E-01,-4.49E-02,1.65E-01,2.59E-03,3.25E-01,-6.17E-02,3.12E-03,-2.12E-01,-6.48E-01,5.20E-01,1.95E-01
bark,-0.37633258,5.96E-01,0.0429802,-0.37329704,0.07079359,0.02891288,-0.47180796,0.03689481,-0.13308778,-0.0597157,-0.03329949,-0.10930771,0.22927698,0.17873028,0.1364657,-0.0289074,0.359395,0.2224286,0.20594072,0.23605485,-0.07542611,0.166236,0.14871581,0.149931,0.5432765,0.3228709,0.0039756,-0.539908,-0.167986,0.23412919,-0.21497627,0.11680363,0.43404165,-0.32128388,-0.0909083,0.21510999,0.1703897,-0.24035743,0.0089287,0.21576688,-0.23289199,-0.70506996,0.0963527,0.06698181,0.071209,-0.0929388,0.1123391,0.15008701,-0.1273014,-0.3205076,0.1763896,-0.28142637,0.027408,0.73612297,0.1482419,-0.89209,-0.02363499,-0.06124901,1.1082344,0.42914462,0.18859401,1.13777,0.00445559,0.19696939,0.856171,-0.26994017,0.443731,-0.057555,0.2804285,-0.4353951,-0.03671462,0.075224,-0.4383008,-0.276036,0.0459068,-0.0154761,0.08443739,0.0301075,-0.2215446,0.48146772,0.391067,-0.10881901,-0.598498,0.20183706,-0.767635,0.1198049,0.110595,0.237903,-0.0758298,0.388452,-0.0492496,-3.53E-01,-2.05E-01,-1.44E-02,-3.61E-01,-0.054369,-0.58621895,-0.38618106,0.73458254,0.201296
skin,-8.20E-02,2.37E-01,2.53E-01,-3.62E-02,1.36E-02,1.26E-01,-4.52E-01,2.41E-01,-8.98E-02,1.78E-01,-5.75E-02,-3.60E-01,5.60E-01,-1.48E-01,3.06E-01,-1.40E-02,3.36E-01,2.24E-01,-1.67E-01,-7.36E-02,-2.28E-02,-1.77E-02,5.97E-02,-2.59E-01,1.98E-01,1.89E-01,6.47E-03,-2.78E-01,-1.29E-01,-2.61E-02,1.53E-01,1.23E-01,-1.93E-01,-7.41E-02,2.79E-02,-1.01E-01,-1.55E-01,2.23E-01,6.51E-03,6.82E-02,-1.25E-01,-4.48E-01,1.12E-01,-3.87E-01,-1.39E-01,2.09E-01,-9.98E-02,2.53E-01,-8.24E-02,-5.34E-01,3.61E-01,1.96E-01,1.55E-01,8.45E-01,-5.01E-02,-1.87E+00,7.75E-03,-3.11E-01,1.53E+00,2.99E-01,3.00E-01,7.83E-01,-6.34E-02,1.15E-01,7.02E-01,-6.12E-02,3.08E-01,-3.02E-01,2.30E-01,-4.10E-01,1.64E-01,6.43E-02,3.66E-01,1.23E-03,2.86E-01,-3.87E-02,2.07E-01,-8.13E-02,-4.28E-01,9.91E-02,1.98E-01,1.25E-01,-1.49E-01,1.83E-01,-9.34E-01,7.85E-02,2.36E-01,2.28E-01,5.35E-02,-3.22E-02,3.04E-01,-3.86E-01,1.27E-01,-1.45E-02,-1.43E-01,2.11E-01,-3.23E-01,-7.14E-01,4.97E-01,2.16E-01
flesh,-3.00E-01,6.80E-01,1.15E-01,-2.36E-01,-5.55E-03,3.04E-01,-2.05E-02,2.05E-01,-9.65E-02,-3.03E-02,-2.77E-01,-1.67E-01,8.46E-01,4.06E-01,6.21E-01,5.78E-01,-1.80E-01,1.34E-01,6.66E-01,-4.54E-02,-2.75E-01,-8.23E-02,-1.76E-01,-3.29E-01,1.04E-01,7.03E-01,3.09E-01,-6.09E-01,7.04E-02,2.72E-01,1.97E-01,2.11E-01,-2.91E-01,1.84E-02,1.45E-01,3.70E-02,-3.70E-01,3.09E-01,-5.01E-01,1.74E-01,-1.71E-01,-9.03E-01,-2.04E-01,-8.62E-02,-2.57E-01,2.47E-01,-1.42E-02,4.69E-01,-6.81E-01,-1.64E-01,1.15E-01,9.84E-04,3.99E-01,2.71E-01,-5.32E-02,-1.00E+00,-4.14E-01,-2.57E-01,1.05E+00,5.86E-01,3.35E-01,5.61E-01,1.92E-01,6.31E-01,7.44E-01,1.77E-01,1.52E-01,-2.65E-02,4.47E-01,-6.87E-01,4.66E-01,-1.14E-02,4.13E-01,2.81E-02,2.13E-01,-2.14E-01,-3.93E-01,-2.71E-01,-1.67E-01,1.89E-01,9.62E-02,3.88E-01,-4.68E-01,5.42E-01,-7.69E-01,-2.77E-01,6.41E-01,3.53E-01,-2.40E-01,-9.29E-03,3.92E-01,-2.74E-01,4.02E-01,3.83E-01,9.83E-02,-8.45E-02,-5.09E-01,-8.74E-01,7.51E-01,-2.85E-01
blood,-3.89E-02,2.93E-01,-1.49E-01,-1.63E-01,3.72E-02,4.28E-01,3.66E-01,5.26E-01,-4.98E-02,4.65E-03,-2.34E-01,-1.57E-02,3.09E-01,4.56E-01,2.45E-01,8.41E-02,-4.96E-01,5.80E-03,9.69E-01,-4.29E-01,-2.78E-01,-3.39E-01,-8.05E-02,-4.83E-04,7.13E-02,5.17E-01,1.33E-02,-2.74E-01,5.89E-01,2.21E-01,8.18E-01,1.24E-01,-4.86E-01,4.14E-02,1.88E-01,-2.64E-01,1.53E-01,5.06E-01,-9.41E-02,3.66E-01,-4.78E-02,-4.13E-01,-5.75E-01,-8.08E-01,6.07E-02,2.43E-01,-2.04E-01,2.29E-01,-3.92E-01,-2.34E-01,3.74E-01,9.01E-02,5.70E-01,5.72E-01,-2.68E-01,-1.22E+00,-4.58E-01,-1.28E-01,8.54E-01,2.69E-01,2.08E-01,5.98E-01,1.99E-01,5.39E-01,5.01E-01,8.10E-01,3.55E-01,-3.83E-01,3.40E-01,-5.45E-01,7.37E-01,-3.15E-01,5.35E-01,1.67E-01,2.82E-01,9.30E-02,1.14E-01,-2.53E-01,-3.62E-02,1.02E-01,6.28E-01,7.39E-01,-8.19E-01,3.85E-01,-1.01E+00,3.26E-01,6.10E-01,7.52E-02,-4.79E-01,-1.21E-02,-1.61E-01,-2.63E-01,6.39E-02,2.87E-01,1.27E-01,-1.81E-02,2.26E-01,-7.01E-01,4.06E-01,-2.66E-02
bone,-0.37186667,6.92E-01,0.17995334,-0.198765,-0.40944,0.14412199,-0.26255485,0.05541966,-0.03475468,-0.11560667,-0.06902232,0.14411716,0.63195,0.3728423,0.55181473,0.35953,-0.079788,0.17521751,0.7298766,0.11306832,-0.00512482,-0.04618384,-0.07767683,-0.25275782,0.41860303,0.17828004,0.15818965,-0.40293697,0.06485657,0.16672282,0.10490934,0.00754167,-0.25242898,-0.5845445,0.34703898,0.18417282,-0.03044498,0.294725,-0.2655425,-0.04648666,-0.04852883,-0.3731145,-0.09033921,-0.091955,-0.37214503,0.11594167,0.3446262,0.45938,-0.38027778,-0.12495468,0.23816383,0.00415667,0.380662,0.25272,0.05979484,-0.51125497,-0.10251302,-0.24071316,0.63901347,0.5440583,0.072258,0.430685,0.4818683,0.5574419,0.62569165,0.03713316,0.15036134,0.063142,0.364507,-0.56769913,0.24939334,-0.02136481,0.3311695,0.31770816,0.24789052,-0.14833501,-0.13130234,-0.20939334,0.0472405,0.10821867,-0.05461184,0.22826833,-0.5327562,0.82803327,-0.69685346,0.2533985,0.56656235,0.10465166,-0.35405335,0.34796235,0.38412833,-7.73E-02,1.34E-01,3.33E-01,4.53E-01,-0.23984332,-0.08094332,-0.98812336,0.579545,0.0807727
grease,-4.55E-01,5.40E-01,-7.94E-02,-3.63E-01,2.83E-01,-7.36E-01,-3.92E-01,9.03E-02,1.65E-02,3.04E-01,4.91E-01,1.37E-01,2.35E-01,2.29E-01,1.39E-02,1.55E-01,-2.29E-01,-7.33E-01,7.13E-01,-3.59E-01,2.91E-01,2.11E-01,2.19E-02,-1.81E-01,1.07E-01,1.01E+00,-5.01E-01,-2.33E-01,-1.68E-01,4.09E-01,6.15E-02,-9.40E-02,-2.63E-01,-6.26E-01,-7.18E-02,2.09E-01,6.05E-01,7.34E-01,1.82E-01,3.32E-01,2.66E-01,-1.20E+00,-5.11E-01,-2.70E-01,6.21E-01,1.37E-01,-4.20E-01,9.99E-02,-2.63E-01,-3.95E-01,-2.56E-02,2.42E-01,1.59E-02,7.92E-01,-5.38E-01,-1.17E+00,-9.21E-02,-4.87E-01,1.13E+00,3.62E-01,3.60E-02,9.11E-01,2.56E-01,-1.28E-01,6.42E-01,-1.59E-01,7.51E-01,-3.32E-01,2.98E-01,-9.81E-01,-6.28E-02,-1.14E-01,7.08E-01,6.34E-01,-3.66E-03,-3.49E-02,-2.95E-01,-2.52E-01,-3.46E-02,2.71E-01,5.80E-01,-1.57E-01,-8.51E-01,4.95E-01,-6.68E-02,-5.07E-01,2.37E-01,-9.43E-02,-2.00E-04,-2.04E-02,-7.86E-02,-3.99E-01,-1.12E+00,-3.51E-01,-5.70E-01,-1.33E-01,4.24E-02,-7.80E-01,-8.21E-02,4.28E-02
egg,1.57E-01,0.25911334,-0.06436588,-0.18257774,-0.14601101,0.28836122,-0.02445625,0.10319437,0.26409376,0.16279626,-0.40737182,0.05920623,0.52338254,0.24598724,0.32927725,0.27392212,0.24650173,0.38845086,0.4650065,-0.37964374,-0.41676876,-0.207967,-0.03244375,-0.13068287,0.2165905,0.59175,0.11222875,-0.308375,-0.45969877,0.39255548,0.41324997,0.04768224,-0.0945465,0.09215875,0.06424987,-0.2105445,-0.23735149,0.42113638,-0.37669748,-0.03224675,0.05396825,-0.47028744,-0.3022548,-0.28669876,-0.07905813,-0.0694525,-0.23221876,0.23877662,-0.669313,-0.026698,0.2757855,-0.06432311,0.14432,0.41192225,-0.12231,-0.39785537,-0.10403252,-0.31305814,0.50622016,0.2712525,0.33264878,0.27954,0.22243789,0.22072189,0.49336404,-0.07362637,-0.09489885,-0.21776637,0.27837315,-0.5332913,0.12438875,-0.16573751,0.14402576,-0.07850626,0.18975626,0.07254,-0.12565511,-0.62359,-0.33121374,-0.02414613,0.31249136,0.5052992,-0.02634125,0.4448875,-0.84873295,0.02896463,0.69951755,0.22012211,0.06625425,-0.00890275,2.31E-01,-2.35E-01,3.10E-01,-1.27E-01,0.16642702,-0.06327275,-0.12476589,-0.47472748,0.44104925,-0.12660626
horn,-0.4921875,4.45E-01,0.47586697,-0.19147749,-0.02231751,0.160835,-0.446745,0.25967503,-0.04541275,-0.4377425,-0.37368327,-0.44538173,0.9926925,0.31117252,0.48600072,0.26126176,-0.37433028,0.2809765,0.4591275,0.090278,-0.03399229,0.3531,-0.35455003,-0.070935,0.6556088,-0.01390924,-0.26546848,0.07922748,-0.18360898,0.5228517,0.3699545,-0.6698615,-0.11688226,-0.6291745,0.02132535,-0.18861999,0.0587025,0.39527553,0.15131,0.45339,-0.0356525,-0.2624575,-0.17899,-0.0882455,-0.10490075,-0.253708,-0.053042,0.32883823,-0.57374,0.528229,0.35527498,-0.11876597,0.45718497,-0.01212051,0.15659001,0.29453176,-0.2550495,-0.06638899,-0.268305,0.33071253,0.643225,0.04619376,0.55755246,0.48233676,0.5524175,-0.2753725,-0.20346099,0.10412025,0.3565675,-0.39096552,-0.2710825,-0.02724001,-0.029425,-0.7172525,-0.24054748,-0.65894,-0.49935502,-0.2484205,0.045314,-0.2597425,0.06330175,0.27105498,-0.23828124,0.94282997,-0.1439875,-0.41306502,0.07724851,0.0251485,0.22233498,-0.03049,-0.3953815,-1.51E-01,1.59E-01,-7.55E-01,-7.77E-03,-0.33682,-0.2763732,-0.49632674,0.72088,0.0222975
tail,-2.89E-01,2.11E-01,3.16E-01,2.06E-01,2.19E-01,1.79E-01,-3.18E-01,5.95E-01,8.06E-03,1.03E-01,-8.91E-02,1.28E-01,7.38E-01,1.97E-01,2.12E-01,1.99E-02,-2.82E-02,-4.71E-02,3.33E-01,-1.26E-01,2.17E-01,3.70E-03,7.81E-04,-8.56E-02,4.42E-01,1.87E-01,-3.34E-02,-4.80E-01,2.31E-01,2.65E-01,3.31E-01,-9.47E-02,2.16E-02,-3.80E-01,-3.46E-02,3.88E-02,2.44E-01,2.59E-01,9.41E-03,2.94E-01,4.71E-02,-4.42E-01,3.33E-01,-7.76E-02,-2.16E-01,3.15E-01,4.69E-01,1.10E-01,-9.38E-02,2.38E-01,-3.38E-02,2.37E-01,1.05E-01,7.20E-01,-2.14E-01,-1.64E+00,-8.08E-02,-3.48E-01,1.24E+00,5.49E-01,5.84E-02,6.28E-01,1.84E-01,5.21E-01,6.06E-01,-1.00E-01,-1.15E-01,-8.60E-02,1.89E-01,-1.78E-01,2.53E-01,-5.47E-02,3.75E-01,-2.70E-01,3.07E-01,-3.14E-01,-2.44E-01,1.80E-01,-3.13E-01,-1.74E-01,-1.11E-01,4.35E-01,-4.52E-01,-1.80E-02,-7.26E-01,-6.37E-02,1.53E-01,3.61E-02,1.40E-01,2.00E-01,-4.33E-02,-1.12E-02,-1.62E-01,2.42E-01,-2.20E-02,1.17E-03,-2.61E-01,-5.52E-01,7.90E-01,2.13E-02
feather,-1.49E-01,5.37E-01,-3.37E-02,-1.43E-01,-1.31E-01,1.61E-01,-4.93E-01,1.61E-01,-3.53E-02,-1.34E-01,-1.91E-02,3.01E-01,8.07E-01,1.85E-01,4.73E-01,1.20E-01,3.93E-02,2.68E-01,3.90E-01,3.87E-02,-2.40E-01,2.71E-01,1.85E-01,-7.49E-02,4.03E-01,3.68E-02,1.06E-01,-1.90E-01,-2.77E-01,4.70E-01,9.77E-02,-8.86E-02,2.46E-02,-5.55E-01,9.21E-02,-9.90E-02,2.13E-01,-2.37E-01,-4.79E-02,4.30E-02,-2.09E-01,-6.03E-01,-2.88E-01,-3.28E-02,2.23E-01,-6.84E-02,1.58E-01,4.59E-01,-3.08E-01,4.36E-02,3.17E-01,-3.74E-01,2.19E-01,8.71E-01,1.40E-01,-7.41E-01,8.69E-04,-1.65E-01,8.18E-01,4.81E-01,-5.06E-02,7.65E-01,3.77E-01,-1.70E-02,4.99E-01,3.72E-02,-2.42E-01,-8.26E-02,6.00E-01,-5.82E-01,1.22E-01,-1.90E-01,2.05E-01,-1.64E-01,1.85E-01,-3.10E-01,-1.46E-01,-4.00E-02,7.19E-02,2.18E-01,1.43E-01,1.74E-01,-4.69E-01,-2.81E-02,-3.93E-01,-1.76E-01,3.34E-01,-3.32E-01,-2.08E-01,6.41E-01,3.27E-02,-3.09E-01,-2.65E-01,-1.73E-01,3.37E-02,-1.65E-01,-6.57E-01,-6.59E-01,5.23E-01,1.13E-01
hair,-0.40349147,4.14E-01,-0.124922,0.2648433,0.1753095,0.10307667,-0.47348332,0.37045333,0.06097377,0.17263299,0.03592771,-0.09022383,0.51874334,0.13488883,0.5042783,0.13375731,-0.10123984,0.14302766,0.471319,-0.33818945,-0.18195002,0.06563466,0.0454775,0.01137166,0.14222632,-0.01969667,0.16295683,-0.27688834,-0.4913467,0.26360932,0.11555499,-0.12717466,0.01942833,-0.5226117,0.0582745,-0.01852334,0.385614,0.10845665,-0.15615632,0.31269634,-0.32402185,-0.6558617,-0.1106545,0.11237168,-0.01893099,0.05950383,0.2329035,0.34966502,-0.22081333,-0.08266664,0.07864583,-0.17068918,0.0763335,0.6998766,0.36937,-1.2820984,0.03155834,-0.20297617,1.2882848,0.57295495,-0.06932633,0.5721817,-0.03296817,0.09504113,0.49749503,-0.02168184,0.2290623,-0.19336367,0.63905317,-0.58745015,0.29067266,-0.09364734,0.28105366,0.00179699,0.20987149,-0.3999553,-0.01801483,0.02209333,-0.08631733,0.12313666,0.275086,0.23794578,-0.51132154,0.13006417,-0.51548165,-0.10051668,0.25244167,-0.23241633,-0.0252425,0.282353,0.26832467,-0.1973685,-0.16961472,-0.07970499,-0.00159415,-0.10421833,-0.20259984,-0.64938515,0.57837456,-0.052964
head,-0.09901901,2.46E-01,0.312093,-0.07061125,0.01997825,0.40529776,-0.20953876,0.47206098,-0.19114558,-0.0911675,-0.18451093,-0.1551255,0.8252325,0.07497351,0.12158266,0.21643877,0.03586272,0.03157675,-0.1227445,-0.19006085,0.15917376,-0.023084,0.18768351,-0.21087538,0.25855374,0.081055,-0.2133705,-0.5162235,0.157004,0.26265126,0.37363374,0.1864625,-0.10047251,-0.0912015,0.1042385,-0.07455825,0.08469836,0.49237376,-0.06916,0.06701375,-0.44245166,-0.40592396,0.14448376,-0.34969053,-0.06030001,0.42941338,0.112235,0.15027149,-0.38755125,-0.10153125,0.166875,0.12455001,0.0677375,0.9673623,-0.24105752,-2.056439,-0.27026838,-0.33747178,1.7092538,0.38222122,0.22739124,0.90125495,0.06179375,0.29890224,0.91088,0.1647785,0.02523587,0.06658599,0.26353377,-0.26116976,0.4762,-0.38632187,0.19904678,-0.07105324,0.31012553,-0.11791325,-0.26958776,0.01534512,-0.6236054,-0.01478025,0.17773125,0.5193762,-0.200546,0.076185,-1.1780075,-0.0916675,0.15501812,-0.04937612,0.1704875,0.04394825,0.1725625,-0.5844613,0.10801075,0.46635622,-0.27887124,0.10464238,-0.39380714,-0.66866875,0.94224125,-0.16965374
ear,2.48E-01,0.2512125,0.522685,0.2860255,-0.1444,0.18794,-0.10662501,0.09214875,0.01718475,-0.22847949,-0.51818126,-0.07171125,0.10970674,0.11128324,0.158001,0.01739336,-0.31646198,0.2389627,0.07130501,-0.20168099,-0.172435,-0.5046287,0.16398,-0.55731493,0.1823425,0.04188599,0.016875,-0.2849275,0.29888502,0.134655,0.183151,0.0249885,-0.4024675,0.06397925,-0.1650005,-0.2684865,0.143324,0.12685901,0.3088075,-0.41272,-0.064727,-0.42536226,-0.092283,-0.33669752,-0.0991725,-0.13051,0.20681301,-0.41989452,-0.2985925,-0.665695,0.314195,-0.3195755,0.1866625,0.298265,0.238305,-1.4948474,0.15719001,-0.6692925,0.86938626,0.78496003,0.07472324,0.13349749,-0.2009275,0.06111499,0.60174924,-0.1817555,0.1790475,-0.05277748,-0.04986425,-0.30214,-0.09427125,0.1068525,0.2986105,-0.3807475,0.45940775,0.08328249,-0.0032195,-0.531259,-0.32036752,-0.27925003,0.18598251,0.08111998,-0.19722499,0.27749997,-1.1044225,0.513579,0.22045,-0.22279474,-0.49777249,-0.5280425,0.007239,-0.17314747,-0.07571189,0.49753425,0.4647415,0.20880151,0.0520275,-0.7799375,0.46131372,0.29283
eye,2.13E-01,0.5592785,0.24855,0.018992,0.326025,0.430635,0.08008999,0.1552275,0.435135,-0.2930905,-0.148139,-0.01002,0.350155,0.292265,0.265052,0.304605,-0.27859402,0.1111684,0.244037,-0.2672905,-0.348495,-0.36168,0.04871715,-0.925475,0.525005,0.262977,-0.41881,0.130835,0.49743,0.10249999,0.29227,-0.23227799,-0.02822,0.3701685,-0.25257,-0.29841,-0.277007,-0.056362,0.240565,-0.47439,0.0539805,-0.0882245,-0.00637,-0.336885,0.41995502,0.073755,0.47197002,-0.48029,-0.47343,-0.444615,0.31302,0.046417,0.0409865,0.22711003,0.091685,-1.52,-0.332128,-0.329065,0.766455,0.465895,0.165644,0.21575,0.05839,0.4234925,0.056914,-0.03893,0.116235,-0.05336499,0.234415,-0.435176,-0.038715,0.0799845,0.44432998,-0.18743,0.67946,-0.29651502,-0.0557315,0.065712,0.1866238,-0.21456,0.485915,-0.0068785,0.0722775,0.42431298,-1.28309,0.419165,0.2529405,-0.3512966,-0.3721905,-0.0614865,0.05147,-0.190045,0.479275,0.504575,-0.07031497,0.062409,-0.214608,-0.7008939,0.891925,-0.254285
nose,2.94E-01,0.29072797,0.20314002,-0.07443541,-0.01962021,0.552254,-0.26752883,0.0826418,0.55653,0.038599,-0.200654,-0.0113628,0.2966264,0.42035598,0.3710968,0.27027878,-0.1993556,-0.03205984,0.210422,-0.53838,-0.3428402,-0.2302186,-0.277142,-0.53346884,0.25023735,0.0965848,0.124122,-0.0393214,0.111022,0.044724,0.078709,0.0483328,0.414262,0.41672,-0.28924596,-0.0449662,-0.0992288,0.1599328,0.1449292,0.145646,0.00186041,-0.18542239,-0.344852,-0.680174,0.72958404,0.394974,0.19319041,-0.042286,-0.24999423,-0.160542,0.2854728,0.03764,-0.03191501,0.01821221,-0.07230599,-1.112052,0.04326261,-0.63038194,0.6557832,0.289858,0.259674,0.71203005,0.373236,0.14634398,0.10249541,-0.059456,0.40908536,-0.596558,0.29093,-0.841626,-0.465916,0.035886,0.41942397,-0.08936159,0.27287,-0.11048341,0.0079106,0.08599482,-0.158742,-0.048816,0.2531562,0.1359808,-0.2678216,0.46745595,-1.017102,0.03671499,0.65841997,-0.32677397,-0.25603002,0.302434,0.310866,-0.47706556,0.10876801,0.55004203,-0.11953399,0.37120622,0.0872196,-0.8557456,0.7473408,-0.492692
mouth,2.39E-02,0.27929798,0.0512932,-0.06007861,0.14914672,0.10099,-0.019998,0.04006798,-0.1496218,-0.403624,-0.20519559,-0.05276,0.213294,0.20512,0.1665948,0.06789,-0.113956,0.0769168,-0.23123798,-0.14386341,0.1804032,-0.1192238,0.18413898,0.03919939,-0.09127,0.114238,-0.09534821,0.0248162,-0.00259741,0.0298146,-0.2071122,-0.0540352,-0.1498528,-0.02285441,0.05082374,0.18445799,0.0408758,0.12451319,-0.4129344,-0.2399106,-0.1806376,-0.14074,-0.04984,-0.0126812,0.2729134,0.2045886,0.00252459,0.04295579,0.006487,-0.53539,0.06977741,-0.0328028,-0.01504019,0.80273163,0.09644699,-1.391556,-0.23012204,-0.23616199,1.1038281,0.15726398,-0.33376682,0.6890308,0.07778359,0.0171528,0.5307852,0.1332294,0.0555587,-0.0731536,0.163294,-0.5755978,-0.09905021,-0.17173001,-0.0540322,-0.24581198,0.22957878,0.203898,-0.60082996,-0.18588641,-0.54574203,0.056905,0.15787801,-0.17404765,-0.2730804,0.0977246,-1.100036,-0.2621732,0.24902618,-0.03077,-0.4280568,-0.047027,0.2830966,0.1108204,-0.00329161,-0.08955019,-0.41602236,0.0689976,-0.1530396,-0.12163581,0.673298,0.23647924
tooth,-0.26764503,5.69E-01,0.10979,-0.21775,-0.20925534,0.01232833,-0.3475083,-0.11350966,-0.05371135,-0.16838498,0.04887467,-0.18989284,0.47006533,0.3372418,0.39631334,0.22522081,-0.22432971,0.32529,0.129125,0.4178079,0.44294998,0.08496968,-0.25448298,-0.1323535,0.67250395,0.28376672,-0.133097,-0.44271663,0.01543956,0.09612733,0.33631083,0.01097168,-0.10364717,-0.06933018,0.48711333,-0.04375101,-0.02746833,0.13186584,0.05803,-0.24837933,-0.06446549,-0.36838832,-0.32366166,-0.31826505,-0.26082167,0.11448833,0.39294502,0.32861233,-0.2617785,-0.17150168,0.017534,-0.091885,0.29339233,0.4264817,0.042654,-1.1635432,-0.05553749,-0.24839832,0.8812092,0.66257507,-0.3163425,0.9707933,0.16098367,0.44955003,0.5299383,0.1915756,0.34803548,0.09369,0.34982148,-0.6337357,0.2985905,0.24492101,0.37097335,-0.00338117,-0.250165,-0.2934378,-0.49481168,0.13238817,0.04963266,0.44010833,0.22825368,0.06917427,-0.5618201,0.34419167,-1.0213434,0.18881285,0.20737433,-0.01371116,-0.50913835,0.095405,0.10757183,-0.3578883,0.0922015,0.44402766,-0.17636247,-0.464295,-0.2472455,-0.75901514,0.6936982,-0.13440466
tongue,-0.10737836,3.48E-01,-0.12356512,-0.108926,-0.0364375,0.50208145,-0.14104125,0.18767363,-0.05895125,0.17685835,-0.20022611,-0.31783375,0.2191435,0.38423747,0.73701,-0.05156251,-0.3223325,-0.12838188,0.76935625,-0.5460937,-0.312995,-0.2971276,-0.28413674,0.04124075,0.4837971,0.46593738,0.78049374,-0.13268876,0.1615575,0.2766725,0.11612049,-0.00138038,0.10140024,-0.02500626,0.38866127,-0.15992323,0.07190876,0.13437,-0.10800023,0.26674595,0.11368874,-0.44989377,-0.42366838,-0.46185625,-0.08135025,0.16551375,0.27943784,0.20973127,-0.19768086,-0.08369749,0.26624376,0.3822925,0.35864237,0.16542551,-0.042514,-0.59979,-0.22388124,-0.5106913,0.9541087,0.40339825,0.19789287,0.4615925,0.52626127,0.09974549,0.732225,0.21177338,0.20948748,-0.13127068,0.39396948,-0.57321,0.23087877,0.09165625,0.7741375,-0.14872365,0.24349502,-0.28084248,0.0424835,-0.064729,-0.01829203,0.22666249,0.32521427,0.23808625,-0.3605344,0.59810877,-1.0593425,-0.00762768,0.61617565,0.21074207,-0.24430001,0.21496138,0.36236024,0.0207155,0.05362127,0.40327755,0.39262515,-0.06235363,0.1609475,-0.71899873,0.4352371,-0.00796287
claw,-0.2769365,3.00E-01,0.15812749,-0.24333525,-0.21842912,0.0186975,-0.077338,0.1127625,-0.07898387,-0.36180004,-0.24475789,-0.01723213,0.48936623,0.13096626,0.43750384,0.5956525,-0.14225999,0.13072418,0.16021189,-0.26340377,0.33049124,0.20757325,-0.19369897,-0.0818355,0.69116104,0.5530265,-0.1555725,-0.19638863,-0.24773501,0.09241624,-0.06418913,-0.02125875,0.2006375,-0.03467,0.18609262,0.02635225,-0.12493001,-0.05537847,0.18732774,0.00912313,-0.24714538,-0.2595234,-0.10562325,-0.0465949,-0.08828251,0.19008374,0.19940874,0.18517238,-0.14994374,-0.18910176,0.040985,-0.06921537,0.0899955,0.31510496,-0.1031905,-0.8214112,0.16470057,-0.2474475,0.67325,0.2756425,-0.01204133,0.5800575,0.2432375,0.21764037,0.40870777,0.16503924,-0.01686126,0.0024,0.3171855,-0.30949658,-0.0068665,0.04206587,0.09995252,0.10074475,0.07844613,-0.22427161,-0.6020612,-0.04157903,0.07268223,0.05007063,0.18359624,-0.03489875,-0.23135889,0.25261408,-0.53487235,-0.22113621,0.49513498,-0.23133498,-0.09773964,0.09762299,0.14867313,-0.22737437,-0.21875873,-0.05061063,-0.10264888,-0.1310935,-0.691677,-0.607975,0.39255387,-0.38045764
foot,-1.25E-01,1.92E-01,2.40E-01,-1.02E-01,-1.50E-01,1.51E-01,-6.90E-02,3.54E-01,-3.51E-01,3.45E-02,3.59E-02,-7.42E-02,7.88E-01,1.37E-01,1.48E-01,6.60E-02,-7.26E-02,-1.18E-01,-1.01E-01,-3.31E-01,2.20E-01,1.23E-03,1.18E-01,3.67E-01,4.04E-01,2.22E-01,-1.31E-01,-2.79E-01,2.52E-01,3.27E-02,-1.18E-01,9.68E-02,5.69E-03,-1.56E-02,2.38E-01,7.91E-02,-1.47E-01,4.38E-01,-2.75E-01,3.36E-01,-2.01E-01,-9.76E-02,3.75E-01,-1.77E-01,8.22E-03,3.00E-01,1.48E-01,4.22E-02,-2.09E-01,-5.10E-01,1.94E-01,7.01E-02,9.62E-02,7.60E-01,-2.77E-01,-2.21E+00,-2.84E-01,-4.40E-01,1.43E+00,7.21E-01,-1.70E-02,6.16E-01,-2.75E-01,2.47E-01,3.62E-01,1.35E-01,4.06E-02,2.13E-01,-2.19E-03,-2.10E-01,1.89E-02,1.13E-01,1.33E-01,3.12E-02,3.29E-01,-1.37E-01,-2.51E-01,2.41E-01,-6.51E-01,5.43E-02,4.55E-01,2.35E-01,-2.79E-01,1.77E-01,-1.27E+00,-1.65E-01,-2.07E-02,1.85E-01,-5.35E-02,-3.51E-02,-2.97E-01,-1.97E-01,-1.29E-01,3.21E-01,-5.94E-02,3.12E-01,3.26E-02,-3.48E-01,6.62E-01,-2.28E-01
knee,-0.20093755,1.19E-02,0.0128922,0.09974236,-0.02228456,0.17678727,-0.09687218,0.01202108,0.05507499,-0.05138453,-0.024368,0.20955418,0.9315481,0.18217708,-0.15330578,0.20666638,-0.21392837,-0.14744592,0.08236817,-0.5129833,0.18221253,-0.08508924,-0.09243209,0.27123937,0.7347627,0.17648076,-0.38309908,-0.15424937,0.35112998,-0.0292659,-0.00275274,0.11724463,0.20508192,-0.02922182,0.14761372,-0.16208054,0.15098101,0.3701379,-0.24013864,0.30151093,0.10402327,0.07986309,0.5244409,-0.20077701,-0.4162591,-0.04977037,0.22963928,0.11954217,-0.24294329,0.2011382,0.16913785,0.30575526,-0.05538427,0.23646732,-0.08230963,-1.0509146,-0.01403373,-0.40299085,0.88626,0.5569729,-0.15593189,0.43591252,0.07584108,0.39647493,0.1963641,0.4500718,0.07134064,-0.00286874,-0.03364918,-0.46830085,-0.03449818,0.39802906,0.3861208,-0.12552163,0.3810791,-0.23606426,-0.40453526,0.243049,-0.16740038,0.10608608,0.02234673,0.37191498,-0.23170091,0.01132219,-0.4166046,0.07600781,0.105915,0.40273866,-0.016663,0.09663363,-0.31488374,-0.29964837,0.05128783,0.49722484,0.17461428,0.22685084,0.07939844,-0.25327972,0.68349725,-0.16407126
hand,2.74E-02,1.17E-01,3.45E-01,5.05E-01,-3.58E-01,-1.89E-01,-3.04E-01,1.44E-01,-3.05E-01,1.90E-01,-5.86E-01,3.00E-01,5.43E-01,-3.48E-01,3.29E-01,-3.30E-01,-3.79E-01,-2.38E-01,3.17E-01,2.04E-01,2.91E-01,-2.78E-01,-2.24E-01,1.17E-02,3.36E-01,9.00E-01,7.91E-02,-5.41E-01,2.17E-01,-2.32E-01,5.16E-01,-5.03E-01,2.76E-02,-4.02E-01,2.16E-01,-5.72E-01,-1.82E-01,3.46E-01,-1.27E-01,-6.98E-02,-9.20E-02,3.81E-01,-3.11E-01,-4.24E-01,-4.03E-01,5.35E-01,7.82E-01,-2.87E-02,1.37E-02,4.95E-01,-1.60E-02,2.09E-01,9.26E-02,-1.46E-01,1.53E-01,-7.43E-01,4.12E-01,-3.98E-01,8.04E-01,2.36E-01,2.09E-01,5.53E-01,2.55E-01,4.47E-01,-2.06E-01,-4.60E-01,-1.30E-01,2.38E-01,-6.07E-02,-8.57E-02,-3.14E-01,-4.63E-02,4.47E-01,-2.30E-01,6.68E-01,-3.59E-01,-2.31E-01,2.63E-01,1.30E-01,-1.17E-02,-6.77E-01,3.53E-01,-6.73E-01,8.21E-02,-4.74E-01,-4.48E-02,2.75E-01,-9.21E-02,4.99E-01,7.81E-02,-3.83E-01,-5.09E-01,-5.67E-02,5.13E-01,7.26E-02,2.84E-01,3.80E-04,-5.98E-01,8.12E-01,-3.88E-01
belly,-0.33455968,1.66E-01,0.48008668,0.08473566,0.04093067,0.26976067,0.0085,0.38797534,0.11236667,0.03764667,-0.40113977,-0.14342667,1.00849,0.5002343,0.24531,0.20458333,-0.24936885,-0.2539855,-0.03385217,-0.23077667,-0.09531751,-0.21759784,-0.11359501,0.1278025,0.49678,0.09925834,0.20679002,-0.22953832,0.29964516,0.13077717,0.03009167,-0.14241932,-0.0411975,-0.1274885,0.11708067,0.09119666,0.12740333,0.406265,-0.17111166,0.39241135,-0.08779836,-0.45697498,-0.08451518,-0.02511169,-0.40114164,0.33565268,0.33171666,0.318715,-0.31158337,0.29248667,-0.15727633,0.16487981,-0.20769383,0.6529183,-0.04271901,-1.1088902,-0.18750466,-0.46517232,0.78839666,0.65011,0.10581832,0.69235,0.09543734,0.37085018,0.5092083,0.26481217,-0.237305,0.033031,0.46843365,0.060947,0.40818214,-0.1393,0.42170683,-0.011275,0.4589417,-0.49704,-0.34642997,-0.06470668,-0.4506782,-0.07888333,-0.01505001,0.6138283,-0.31950682,0.16971333,-0.3446685,-0.18217666,-0.13593219,0.13254634,-0.09128518,0.06275351,0.21313332,-0.09235001,-0.08087501,0.40899268,-0.357132,0.25681382,-0.535295,-0.47261634,0.6304167,-0.16100132
neck,-0.271881,1.49E-01,0.45330167,-0.20316951,0.16824384,0.32328835,-0.07353684,0.32039666,0.02713668,-0.01318167,-0.06719228,0.07322649,0.6490833,0.1675045,0.24634854,0.01927399,0.15997215,0.1085095,-0.09902883,-0.0475855,-0.16973168,-0.009046,0.05115333,-0.20840949,0.20837669,-0.01305016,-0.09202167,-0.37671232,0.2966855,0.1652685,-0.010149,0.47206917,-0.03752,-0.22599834,-0.01100266,0.0495935,0.1038655,0.36918667,0.00359084,-0.02423666,-0.29697165,-0.36190602,0.18277834,-0.20782,-0.12375433,0.56705266,0.1857127,0.15020865,-0.33017,-0.01341549,-0.07512634,0.09058417,0.2814378,0.6064634,-0.19323249,-1.8945402,-0.30774748,-0.25361568,1.3449955,0.52583796,0.30854383,0.6375467,0.29128668,0.263199,0.59199667,0.20868516,0.04289666,-0.0258,0.24344884,0.01120866,0.31646368,-0.31858185,0.21589333,-0.16395651,0.52409035,-0.27232668,-0.23646684,-0.17788334,-0.32456967,-0.03293667,0.16965501,0.343473,-0.50965154,0.23833834,-0.8525849,0.01015766,-0.01279833,-0.15750481,0.13924299,-0.03118666,0.1234565,-0.17969,0.112205,0.14094234,0.00303617,0.11984533,-0.08017683,-0.511609,0.6461651,-0.03530001
breasts,-5.00E-01,4.32E-02,1.06E-01,-4.22E-01,3.08E-01,5.82E-01,-2.01E-01,5.85E-01,4.44E-02,-2.52E-02,-6.08E-02,5.30E-01,7.04E-01,6.07E-01,5.04E-01,2.32E-01,-4.32E-01,-4.64E-01,3.26E-01,-9.26E-01,2.33E-01,2.52E-02,-2.59E-01,-4.88E-02,8.82E-01,4.75E-01,-3.65E-01,-6.48E-01,6.18E-01,1.43E-01,6.54E-01,1.39E-01,5.49E-01,-1.65E-01,1.51E-01,1.52E-01,-2.44E-02,4.09E-01,4.07E-01,5.16E-01,5.42E-01,-5.80E-01,3.23E-01,-1.68E-01,-5.03E-01,3.89E-01,4.92E-01,3.35E-01,-4.45E-04,1.81E-01,4.89E-02,1.04E-01,-4.00E-02,9.59E-01,1.05E-01,-1.39E+00,-1.77E-01,4.45E-02,9.01E-01,5.03E-01,1.24E-01,6.05E-01,-2.33E-02,9.52E-01,3.12E-01,1.35E-01,6.24E-02,-2.48E-01,1.40E-03,1.66E-01,3.31E-02,8.35E-02,4.88E-01,-3.37E-01,5.65E-01,-4.38E-02,-7.89E-03,5.37E-01,2.50E-02,-1.05E-01,-1.50E-01,3.84E-01,-3.04E-01,-1.40E-01,-4.62E-01,-6.43E-01,1.49E-01,3.30E-01,-1.14E-01,4.90E-01,6.26E-02,-1.15E-01,1.26E-01,3.61E-01,-2.63E-01,1.57E-01,-6.21E-02,-3.53E-01,1.03E+00,-1.77E-01
heart,-4.97E-02,4.15E-01,2.33E-01,-7.04E-02,2.91E-05,4.66E-01,-8.66E-02,1.15E-01,6.45E-02,-2.23E-02,-9.61E-02,1.60E-01,4.95E-01,4.05E-01,1.96E-01,1.11E-01,-2.65E-01,-9.95E-02,1.73E-01,-3.54E-01,6.93E-02,-3.38E-02,-1.93E-01,-1.78E-01,7.37E-01,3.16E-01,-2.14E-01,-2.10E-01,3.37E-01,2.19E-01,3.17E-01,1.75E-01,2.45E-01,-3.49E-01,-1.43E-01,1.12E-01,1.07E-01,2.59E-01,2.58E-02,2.40E-01,1.31E-01,-3.16E-01,1.18E-02,-2.82E-01,-1.37E-01,8.22E-02,3.87E-01,1.18E-02,-2.24E-01,-1.51E-01,-9.02E-02,-6.95E-02,-1.89E-03,3.95E-01,1.50E-01,-1.29E+00,2.34E-02,-4.05E-01,4.61E-01,5.80E-01,1.47E-01,5.07E-01,1.97E-01,4.73E-01,1.18E-01,1.32E-01,1.82E-01,5.60E-02,1.89E-01,-5.92E-01,1.40E-01,1.36E-01,3.07E-01,-2.30E-01,4.01E-01,-3.04E-01,1.44E-01,-2.65E-02,5.69E-03,9.28E-03,3.79E-01,4.26E-01,-2.57E-01,3.98E-01,-8.04E-01,1.11E-02,1.81E-01,1.94E-01,-3.15E-01,2.12E-01,-4.07E-02,-2.24E-02,-1.32E-01,6.49E-01,1.29E-01,-1.35E-01,-2.01E-01,-5.20E-01,6.61E-01,-3.18E-01
liver,-0.244994,-1.52E-01,-0.13354285,-0.3777597,-0.01788287,0.06586729,0.12240429,0.10029972,-0.03052575,0.27646986,0.20411786,-0.21501572,0.10498185,0.16792572,0.35334855,0.7453671,-0.5984057,0.23444188,0.65862,0.2799544,-0.42563432,-0.07874569,-0.18655542,0.20598055,-0.33656284,0.6719228,-0.03086401,0.04568201,0.08007329,0.39883143,0.3874363,0.47007856,-0.11122672,-0.5298,-0.21435715,0.12263172,0.3350571,0.59890854,-0.26942572,0.23115163,0.68325424,-0.66166127,-0.06151184,-0.8221942,0.0345769,0.15115286,-0.47960493,-0.00781771,-0.65069145,0.12527713,-0.1076225,-0.17844836,-0.11373872,0.30024713,-0.49775887,-0.16648428,-0.4958656,-0.43230858,0.5779497,0.2513687,-0.04527529,0.07041322,0.44799045,-0.279429,0.6895148,0.29391286,0.12067057,-0.43669462,0.7978515,-0.5002714,-0.12784852,-0.5669929,0.9176172,0.41977757,-0.05380299,-0.40998396,-0.30695814,-0.66457856,-0.05806329,-0.06088957,-0.40287068,-0.11573429,-0.91606575,0.22316715,-0.63137877,0.1812567,0.57698,-0.30363426,-0.75528854,0.00631143,-0.03405285,0.02171571,-0.32273188,0.44065553,0.09651231,-0.5945298,0.10148744,-1.2499943,0.3083486,0.0804543
to drink,-0.1757575,-2.46E-02,-0.01363,-0.44235098,-0.214146,0.0135075,-0.01239,0.65076,-0.13355349,-0.061405,0.0902245,-0.02069001,0.049395,0.49559498,0.025343,-0.46705002,0.070115,0.671255,-0.18044,-0.27276498,0.36691847,-0.22356251,-0.1138235,-0.001595,-0.38225502,0.08771,-0.21138151,-0.09018499,0.1173,-0.181448,-0.50848,0.156625,-0.65211,-0.54065,-0.26364002,0.511935,0.48594502,0.2848,-0.26016,-0.049208,-0.445805,-0.645925,0.0696077,-0.72387004,-0.167024,0.39634,-0.432645,0.06327,-0.060354,-0.30627,0.51917005,0.5344275,0.079845,0.920725,-0.1309201,-1.2077451,0.18488699,-0.01331501,1.30271,0.1560185,-0.19950001,0.4117275,-0.0990585,0.038618,0.6435,0.54533,0.75183004,-0.23115501,-0.051815,-0.89743,-0.17936,-0.909395,0.38949496,0.08030501,-0.15511,-0.10053249,-0.39990652,-0.6165,-0.33745,-0.160691,0.546295,-0.450525,-0.54224,0.33715677,-0.77336,-0.150002,0.938165,0.43448502,-0.34493,-0.43138,-0.324685,-0.09084301,-0.06188999,-0.58224,-0.38049,0.2359116,-0.3236383,-0.061395,0.452535,0.35741
to eat,-2.86E-01,5.64E-01,1.02E-01,-2.33E-01,-1.26E-01,-3.17E-01,-3.52E-02,2.01E-01,-1.85E-01,-1.57E-01,-5.60E-02,-2.05E-01,1.29E-01,3.94E-01,1.51E-02,-2.68E-02,1.36E-01,6.06E-02,-1.70E-01,2.12E-01,3.44E-01,2.71E-02,4.53E-03,-8.64E-02,-2.63E-01,1.80E-01,-2.95E-01,-3.60E-01,-3.29E-01,-3.42E-02,-2.59E-01,2.38E-01,-2.31E-01,-1.89E-01,1.09E-01,4.50E-01,3.10E-02,3.52E-01,-3.71E-01,-1.68E-01,-1.73E-01,-3.34E-01,2.39E-02,-5.52E-01,2.22E-01,1.82E-02,-5.00E-01,-6.72E-02,-1.80E-01,-8.99E-01,1.54E-01,-6.83E-02,-1.23E-01,8.23E-01,1.14E-01,-2.19E+00,-1.34E-03,-6.50E-02,1.93E+00,5.45E-02,-1.08E-01,3.13E-01,-3.90E-01,1.49E-01,7.07E-01,1.07E-01,3.77E-01,-8.09E-03,1.42E-01,-5.10E-01,-1.49E-01,-1.84E-01,-2.08E-03,1.30E-02,3.08E-01,3.66E-01,-6.08E-01,-1.27E-01,-3.57E-01,1.26E-01,5.34E-01,1.81E-01,-7.62E-01,3.07E-01,-1.01E+00,-3.02E-01,5.37E-01,1.62E-01,-4.80E-01,-3.00E-01,2.41E-01,-1.67E-01,1.10E-01,-1.72E-01,-6.03E-01,-1.58E-01,-9.35E-02,-2.54E-01,8.43E-01,6.41E-01
to bite,-0.20049834,-2.35E-03,0.07254618,-0.42269668,-0.33475968,0.14237683,-0.46863332,0.36746535,-0.14999634,0.14240831,-0.12169967,0.37720665,0.28128135,0.54852504,0.20089334,0.23054266,-0.38338816,0.09363284,0.18067701,-0.29520366,0.8347133,0.12291167,-0.11062747,0.14149833,0.9503867,0.46941486,-0.5442533,-0.40678084,0.15508015,-0.26680502,0.44662833,0.18752117,-0.19525982,0.08072433,-0.05309334,-0.45796335,-0.09826851,-0.34302017,0.08458016,0.1863,-0.0360405,-0.5077617,-0.10979832,-0.23888333,-0.13264559,0.098645,0.13288434,0.21217966,-0.07558167,-0.44036832,-0.3236359,0.08064867,-0.20749266,0.92296165,0.02858551,-1.5541768,-0.06216368,-0.319053,1.0425767,0.52636975,0.184431,0.88103074,-0.29281968,0.77387834,0.31791633,0.07248191,0.37459502,0.00516801,0.12074333,-0.38228664,0.39880335,0.37325835,0.280815,-0.12084499,-0.19904827,-0.215759,-0.6565917,0.19107033,-0.1317615,0.3878391,0.4189483,-0.34026384,-0.60651666,0.06946433,-0.7613432,-0.29136,0.23870651,0.5092022,-0.27000335,0.20323099,0.225275,-0.0675445,-0.03292833,0.10121816,-0.345125,-0.287035,0.06527776,0.04472766,0.4680885,0.08161218
to see,-0.00724317,2.19E-01,0.4552625,-0.06452717,-0.34521165,0.08205833,-0.46264264,-0.07410402,0.32849833,-0.22087169,-0.16914994,0.07974318,0.33165333,-0.23853916,0.221245,-0.24239069,-0.31247002,0.38330165,-0.19206065,-0.00348433,0.22944333,-0.25889167,0.2848448,-0.4691367,0.26381657,-0.11219665,0.01539667,-0.04765834,0.36850333,-0.39947167,0.49874166,0.26865166,-0.31793502,-0.00494766,0.21818501,-0.12772602,-0.05794567,0.27221367,0.22248834,-0.3020493,-0.33581635,-0.216837,-0.04672334,-0.264107,-0.12898248,0.20233868,0.6977567,0.04203999,-0.15917502,-0.6031367,0.21137197,0.09410033,0.0258835,1.0123767,0.28045568,-1.47195,0.39843717,-0.04141501,0.85413235,-0.01647002,-0.03824067,0.66405165,-0.255595,0.06473866,0.41454664,0.3947517,0.44925168,-0.25640997,-0.10489967,-0.12639567,0.02797167,-0.35236368,0.05417617,-0.30557832,0.11368534,-0.24120833,-0.00993133,-0.08831333,-0.4249908,-0.02822833,0.41514865,-0.04275533,-0.41490337,0.15456201,-1.16388,0.02334334,0.10276534,0.17520146,-0.158742,-0.389696,-0.08325867,-0.23653834,0.02477565,-0.21433501,-0.5860463,-0.03014833,-0.310723,-0.3696309,0.36679935,0.1921585
to hear,3.47E-02,0.385374,0.632565,-0.08938766,-0.15455076,0.01886199,-0.52500075,-0.29836,0.33653724,-0.03671175,-0.70390546,-0.31448522,-0.1342725,-0.179732,0.53451,0.0040366,-0.35054252,0.34758,0.16944501,0.28236324,-0.1017325,-0.49931878,0.26317,-0.95597506,-0.11907002,0.03087375,0.12508,0.20552748,0.411785,-0.4415325,0.14033225,0.36644477,-0.48004997,0.03505975,-0.01346175,-0.5042915,-0.0890305,0.336775,0.41897,-0.3638275,-0.02593699,-0.3723415,-0.4922405,0.220036,-0.311245,0.112835,0.71115,0.047231,-0.13260451,-0.6217178,0.07752802,0.008637,0.24174,0.30296,0.13855563,-1.350963,0.7918775,-0.3462305,0.54526925,0.011185,0.29152125,0.90761006,-0.26422,-0.10867275,0.23323295,-0.03609999,0.25537997,-0.3857625,-0.04561175,-0.3732675,-0.130527,0.0387775,0.5078975,-0.64509,0.2635025,-0.0136015,0.02207775,-0.1359875,-0.20769626,-0.31476498,-0.1644085,-0.0484635,-0.5680825,0.39487,-1.3664775,0.390495,0.07570501,0.01640274,-0.259923,-0.39982998,-0.0408075,0.0330075,-0.16647032,-0.11136325,0.36440152,0.053765,-0.41460258,-0.64073753,0.3117995,0.1729675
to know,-0.41952333,1.16E-01,0.24073283,0.15565717,-0.12739648,-0.12830684,-0.29156998,-0.16451329,0.32196,-0.00504833,0.34879914,-0.00699234,0.16895199,-0.25237998,0.10762233,-0.02414165,0.14140151,0.23415668,-0.10794666,0.04216233,-0.37052166,-0.23105867,0.06599732,-0.44627166,-0.42444003,-0.10415667,0.360635,-0.04028,-0.37534317,-0.0150795,0.04672883,0.29247335,-0.14003366,-0.03888284,0.10306451,-0.06056733,-0.18275316,0.1942695,0.01032634,-0.19292814,-0.22126168,0.00806675,0.31967166,-0.13122867,-0.5061566,-0.09092233,0.18497999,0.00536732,-0.21974467,-0.62895167,0.65160495,0.19117333,0.28776166,0.52044505,-0.14211166,-1.37043,0.22056167,-0.168422,1.3117633,0.15009965,-0.09340017,0.759214,-0.1910155,0.00840917,0.660185,-0.3824017,0.45032668,0.31242332,0.2447114,0.05311499,0.00212983,-0.21593833,0.11313865,-0.23420317,0.37327,0.15435134,0.06006,-0.33408332,-0.72021645,-0.0727595,0.21569133,0.01633184,-0.36908802,0.15140952,-1.4295334,-0.12691768,0.01920882,-0.08839487,-0.35979185,-0.19906808,-0.14175181,-0.06054667,-0.00306452,-0.27563584,-0.109231,0.01798767,-0.33107752,-0.65322995,0.24072967,0.36482564
to sleep,-0.16178,1.99E-01,0.54433,-0.327482,-0.33470348,0.35772002,-0.101015,0.65548503,0.378281,-0.51068,0.4301425,0.71656,0.56013304,0.10459849,0.409015,-0.880355,-0.16921002,0.39777,-0.49319,-0.0867435,0.29669,-0.0555,0.429565,-0.107455,0.226275,-0.0310955,-0.28460598,-0.30729002,-0.0240145,0.271581,0.1236795,0.12931,-0.08889,0.22233,0.35884002,0.458885,-0.2768765,0.106553,0.567755,-0.33046,-0.46199,0.25103003,0.28868502,-0.279407,-0.049745,0.165098,-0.02787998,0.09208,0.06291001,-1.1782501,-0.068205,-0.66062,0.24073601,1.002515,-0.10852,-1.71943,-0.132605,0.1474015,1.09663,0.58831,0.21652502,0.828995,-0.486225,-0.059939,0.36787,0.05921,0.54093504,0.05133,-0.0987795,-0.211095,-0.219466,-0.733655,0.51543605,-0.170605,-0.083625,-0.03756,-0.120587,-0.10512,-0.31441,-0.408965,-0.05647501,-0.015365,-0.78189504,0.0901725,-1.27833,-0.57849497,0.3024085,-0.027756,-0.624925,-0.45726,-0.203565,-0.23487,0.15508,0.21316901,-0.303045,0.0889335,0.24716,-0.366903,0.391365,-0.32343
to die,-9.96E-02,1.32E-01,1.58E-01,-2.06E-02,-9.08E-02,3.20E-01,-3.53E-01,-4.02E-02,1.17E-03,-1.57E-03,-7.44E-02,2.63E-03,1.38E-01,-2.87E-03,8.16E-02,-2.62E-01,7.07E-02,6.00E-01,-3.43E-01,5.27E-01,1.00E-01,-3.86E-01,-1.19E-01,-1.42E-01,2.83E-02,2.14E-02,-1.82E-01,-5.58E-01,7.69E-02,-1.02E-01,-2.89E-02,1.64E-01,-3.67E-01,-2.55E-01,-2.74E-02,-1.29E-01,-6.97E-02,1.76E-01,-4.36E-01,-4.04E-02,-1.87E-01,-2.54E-01,1.74E-01,-3.24E-01,-2.41E-01,3.39E-01,2.24E-01,-2.24E-01,-1.75E-01,-5.45E-01,2.49E-01,-2.64E-03,1.12E-01,8.17E-01,5.07E-01,-1.45E+00,4.07E-01,-3.46E-01,1.35E+00,4.55E-01,-2.22E-03,5.07E-01,-3.18E-01,-1.32E-01,6.77E-01,1.54E-01,3.68E-01,-2.55E-01,3.28E-01,-2.59E-01,-7.53E-02,-2.17E-01,3.20E-01,-1.77E-01,5.07E-01,-4.20E-02,-3.63E-01,-2.60E-01,-4.14E-01,1.11E-02,2.30E-01,2.41E-01,-3.41E-01,1.80E-01,-1.35E+00,9.12E-02,2.99E-01,-1.24E-01,-1.27E-01,-2.83E-01,-1.67E-01,-9.19E-02,1.95E-01,1.98E-01,-2.81E-01,-6.08E-02,5.23E-02,-6.89E-01,4.53E-01,1.86E-01
to kill,-2.92E-01,3.92E-01,-1.87E-01,-1.62E-01,-3.01E-01,1.94E-01,7.31E-02,-2.96E-01,4.60E-01,-2.14E-01,-3.05E-01,7.71E-01,3.63E-01,2.21E-01,-1.22E-01,-4.16E-01,-1.55E-01,-1.94E-01,-3.90E-01,2.65E-01,8.21E-01,-4.50E-01,-2.40E-01,2.24E-01,9.88E-02,7.01E-01,-1.02E-01,-3.59E-01,1.07E+00,2.44E-01,1.07E-01,2.93E-01,-1.01E-01,-1.92E-01,-2.50E-01,-1.59E-01,3.91E-01,2.75E-02,2.22E-01,1.43E-01,-4.58E-01,5.65E-01,-6.21E-01,-8.85E-01,3.64E-01,-1.86E-01,3.08E-01,-1.10E-01,-1.09E+00,-6.45E-01,3.16E-01,-2.55E-01,-2.45E-04,7.33E-01,1.77E-01,-1.37E+00,3.09E-01,-2.19E-03,1.26E+00,5.46E-01,1.32E-01,1.20E+00,-3.03E-01,-2.86E-01,9.94E-01,6.86E-01,2.10E-01,-3.31E-01,3.73E-02,-8.70E-01,1.24E-02,-3.82E-01,-1.42E-03,-2.51E-02,5.00E-01,-4.02E-02,1.92E-01,-3.55E-01,-5.16E-01,2.01E-01,5.77E-01,-3.17E-02,-5.91E-01,1.48E-01,-1.39E+00,-7.36E-01,-2.90E-02,-2.26E-01,-5.81E-01,1.12E-01,3.26E-01,-4.18E-01,5.15E-01,5.71E-01,-2.12E-01,1.36E-01,4.85E-01,-4.14E-01,4.70E-01,-9.05E-01
to swim,-0.41796532,5.21E-02,0.26854667,-0.20495667,0.45150998,0.056142,-0.16877668,0.8122533,0.03579333,-0.35554335,0.09519032,-0.069231,0.16751666,0.07511467,0.16999334,-0.58893,0.363875,-0.02294667,-0.44184998,-0.26204666,-0.14084667,0.59776336,0.22534335,0.25082266,0.03897467,0.249256,-0.431156,-0.32581332,-0.15508966,-0.16119333,-0.39432,0.31346002,-0.34893665,-0.12904,-0.15839668,0.44001767,-0.06611367,0.24972667,-0.267211,0.185623,-0.53344333,-0.66163665,-0.55407834,-0.4097,0.49446666,0.30378035,-0.29116735,-0.15672301,0.42648998,-0.33980998,0.21732467,0.4594767,0.25748348,1.0090266,-0.01060333,-2.2615666,0.04643733,-0.00880634,2.2295334,0.23528999,-0.030968,0.68998665,0.05614233,0.02336439,0.6968867,0.403936,0.22656001,-0.51698333,0.5679067,-0.5417567,-0.3587967,-0.45022666,0.42146334,-0.4387134,0.36467335,0.02718866,0.21632,-0.09324973,-0.65042996,0.02502332,0.85118335,0.3332993,-0.42413297,0.31781998,-0.9891534,0.19093567,0.04439,-0.15243666,-0.21159999,-0.06799667,-0.05683335,0.03908334,-0.2647867,-0.2076184,-0.40852335,0.05793667,-0.10276333,0.05930333,0.67639667,0.0752199
to fly,-0.57409865,-2.90E-01,0.33689666,-0.17551333,0.42613265,0.059092,-0.24095298,0.5126167,-0.26850665,-0.10191666,0.22323366,-0.45457098,0.17619665,0.18687467,0.11091033,-0.46198,0.54294664,-0.08246666,-0.31459698,-0.21831667,0.27097332,0.43550622,0.26731667,0.21559,0.115903,0.082236,-0.145456,-0.11418665,0.234257,-0.28738,-0.42090666,0.59544,-0.3979133,-0.13823666,-0.16307335,0.57274765,0.13210668,0.16801667,-0.15452,0.16550301,-0.54831,-0.40878335,-0.330935,0.10882,0.46903333,0.25928035,-0.01983733,-0.198713,0.5457333,-0.43904337,0.29032668,0.5697467,-0.02604317,0.9728934,0.09968957,-2.1946332,0.31805333,0.04101666,2.4951,0.32124332,0.05930634,0.93711996,0.21894,-0.10899559,0.29017,0.14884566,-0.034167,-0.3427433,0.19987333,0.09043,-0.17656332,-0.89641666,0.23676999,-0.67528003,0.28717667,0.075662,0.37194,-0.0939154,-0.76319,0.01362334,0.6645966,0.07794932,-0.06296299,0.21363999,-0.99474,-0.04156433,0.2522,-0.10563999,-0.22757332,-0.09470334,-0.13532335,0.11789,-0.02643001,-0.13329,-0.39134002,0.28429666,0.1951677,0.09743366,0.5341,0.01708657
to walk,-0.07318334,4.14E-01,0.17534332,0.39033964,-0.16157667,0.0477,0.08028333,0.17476666,-0.26011166,0.02277,0.56671995,-0.01618265,0.03024265,-0.16424666,0.35927668,0.02272668,0.00508337,0.351787,-0.42139664,-0.32005668,0.23969966,0.16134335,0.20409267,0.33034334,0.36044332,0.03175634,-0.31405893,-0.45398,0.3843217,-0.14631668,-0.176099,0.29706165,-0.37721,0.02830399,0.3473667,0.1919967,-0.06782234,0.11212316,0.22875667,0.40712297,-0.06086,-0.4399167,-0.19149566,-0.22993667,-0.0960946,-0.21964735,-0.19464467,-0.34595168,0.10045666,-0.5526133,0.16047001,0.19174333,0.16313301,1.1518967,0.0577538,-1.8724333,0.32371333,-0.53893334,1.9557667,-0.045589,-0.08504333,0.84178,0.03613733,0.4823523,0.51875997,-0.00560234,0.07460999,0.06484667,0.23766,-0.44347432,-0.07475666,-0.16404335,0.16315332,-0.22983335,0.21803331,-0.05595334,-0.03831533,0.28336298,-0.44489002,0.23175335,0.56231004,-0.2729,-0.68022996,0.02086334,-0.98907,-0.08297666,0.58077,0.03387667,0.11591667,0.21880834,-0.15668799,0.15150966,-0.02867334,-0.14435333,-0.55499333,-0.29132,-0.28872666,-0.20157333,0.8416467,0.08467434
to come,8.84E-02,-0.04297439,0.40268403,0.321312,0.212462,0.08111974,-0.44906798,-0.2082346,-0.135992,0.21302418,-0.18164179,-0.0676776,0.22094338,-0.40437698,0.329248,-0.26898497,-0.05248199,-0.05345019,-0.284274,-0.0633594,0.47972602,0.45695442,-0.1356236,-0.002788,0.0808938,0.47535282,-0.305378,-0.45251003,-0.0484424,-0.1923438,-0.460774,0.52643,-0.16305779,0.0227708,0.16117468,0.293522,0.273784,-0.1642284,-0.340158,0.10684381,-0.820494,-0.554906,-0.0338886,0.03183601,-0.41615,-0.146534,0.09284479,0.136648,0.03701,-0.49403802,0.500552,0.1484388,-0.08780432,1.166056,0.0671066,-2.16816,0.24584599,-0.25863,1.8727801,0.06251399,-0.18195,0.481934,0.0593196,-0.13589361,0.42074078,0.1743958,-0.27126798,0.2207344,-0.11738598,-0.37282,-0.0164982,-0.552424,-0.25450012,-0.848642,0.146292,-0.2375468,0.1157438,0.23695977,-0.2681848,-0.13708279,0.20827529,0.50685155,-0.37835377,-0.1769292,-1.071988,-0.03800247,0.1624566,-0.180654,-0.256898,-0.815376,-0.2555332,0.105048,-0.22438402,-0.0739978,-0.37534398,-0.078932,-0.102852,0.20968997,0.86682594,0.504796
to lie down,-0.08495384,1.54E-01,0.57735,0.30065668,-0.27312997,0.10634834,-0.48181,-0.06137367,-0.06928667,-0.03323501,0.12293633,0.12646699,0.6050133,0.113809,0.23292,-0.4756167,-0.10923734,0.27028665,-0.06084,-0.35676667,0.46998334,-0.18979333,-0.12622267,-0.07235067,-0.03062001,-0.7387333,-0.03859166,-0.33417666,0.39754334,-0.13171233,0.26577002,0.30769667,-0.26494667,-0.23717733,-0.06148534,0.46531668,-0.35233,0.40502,0.09468666,-0.38275334,-0.03234667,0.236521,0.7109167,-0.28503,-0.38612667,0.321959,-0.01038667,0.037522,-0.71559334,-0.5476833,0.08377,-0.13469501,0.22901666,1.02863,0.04325,-1.5015332,0.6207967,-0.23628001,0.66285664,-0.06557798,0.0348,-0.14514333,-0.20395035,0.37090668,0.52547336,0.05582666,0.29897714,0.13099666,-0.175999,0.20674999,0.36249065,-0.24040334,0.13872333,-0.11496367,0.01009667,-0.25488666,-0.54086,-0.1434,0.18340302,-0.30341998,-0.362635,-0.22872066,-0.14628,0.15613434,-0.20152332,-0.5582667,0.45777,0.023853,0.3820733,-0.6455,-0.2894633,-0.14936234,0.583954,-0.03905,0.05218334,0.090659,-0.19234033,-0.411638,0.58980334,0.01662333
to sit,-1.13E-01,1.98E-01,1.98E-01,1.62E-01,-1.81E-01,3.90E-01,-2.81E-01,1.27E-01,-2.97E-01,5.75E-02,2.03E-01,5.87E-02,5.94E-01,2.48E-02,9.96E-02,-8.78E-02,-2.76E-01,-9.04E-02,4.29E-02,-3.91E-01,1.52E-01,1.86E-01,9.00E-02,-1.68E-01,3.41E-01,-8.25E-02,-3.31E-01,-4.46E-01,3.43E-01,2.71E-01,4.55E-01,4.26E-01,9.03E-02,-6.86E-02,1.88E-01,3.35E-01,-3.68E-02,1.59E-01,5.78E-02,1.84E-02,-2.45E-01,-3.72E-01,3.94E-01,-8.95E-02,-2.73E-01,1.00E-01,1.67E-01,1.74E-01,-2.37E-01,-1.36E-01,-1.51E-01,8.21E-02,1.54E-02,7.84E-01,-1.43E-01,-1.58E+00,7.70E-02,-3.81E-01,1.03E+00,3.40E-01,2.72E-01,2.69E-01,9.20E-03,6.96E-01,5.54E-01,-7.04E-02,2.46E-01,2.97E-02,-6.24E-04,-2.18E-01,3.69E-01,-8.52E-02,4.97E-01,-2.38E-01,2.77E-01,-2.22E-01,-4.69E-01,1.02E-01,4.83E-02,-3.92E-01,-3.96E-02,3.22E-01,-3.10E-01,-1.16E-01,-4.35E-01,-3.03E-01,3.84E-01,4.46E-02,2.28E-01,-1.49E-01,-2.00E-01,-3.16E-01,1.01E-01,6.49E-01,-9.51E-02,8.78E-02,-2.55E-01,-4.11E-01,7.92E-01,-1.81E-01
to stand,-0.22949,4.87E-01,0.3244825,-0.30022174,-0.04621025,0.4480925,-0.2069225,0.24959248,-0.1653415,-0.24942,0.10331725,0.35541925,1.02525,-0.12065285,0.05588525,-0.46487224,0.22474927,0.3975625,-0.3852275,-0.384406,0.30625856,0.18482499,0.3351875,-0.19283,0.59192497,-0.10002501,-0.330281,-0.21515751,0.18786749,0.29922348,0.09066574,0.38358498,0.12787747,0.058155,0.5098025,0.4339525,-0.00520375,0.08347499,0.06049,-0.103315,-0.18366748,-0.279605,0.5411775,-0.3008325,0.1584625,-0.14572701,0.28804,-0.08204,-0.33780998,-0.824348,0.0905925,-0.664805,0.23346649,1.0841326,-0.2209535,-2.0144498,0.1158275,-0.07691701,1.3568125,0.631455,0.06198426,0.56982225,-0.53581,0.41460848,0.7720625,-0.022607,0.50104,0.29679152,-0.01619325,-0.45947754,0.182434,-0.331215,0.30976105,-0.44604,0.4347425,-0.1665075,-0.227467,-0.04785,-0.362745,-0.3598625,0.3655935,-0.07058475,-0.53926754,-0.00214,-1.1171875,-0.32005,0.34223002,0.07974,0.08769749,-0.6396625,-0.41101748,-0.32999253,0.005085,0.070614,-0.07007925,0.00654753,-0.2051,-0.597455,0.74282503,0.005825
to give,1.78E-01,0.47114155,0.19241582,0.15370049,-0.16472167,0.13079,-0.27476284,-0.4748086,0.05498,0.10197433,-0.5198482,-0.18382667,0.4910663,-0.22629048,0.25939652,0.05898781,-0.14517888,0.59640163,-0.35489333,0.20352,0.22901501,-0.12889333,0.00873667,-0.40852714,0.19592822,0.01722667,0.16517666,-0.4689417,0.01087066,-0.42112336,0.049253,0.2414418,-0.64140564,-0.12438566,-0.12142568,-0.10850865,0.09536833,0.35020998,0.07180416,-0.07666033,-0.11255599,-0.18604577,-0.014484,-0.384195,-0.25217333,0.00688883,0.57676405,0.0610975,-0.10021117,-0.6317933,0.43767533,-0.09266736,0.05558167,0.8094534,0.48078236,-1.89222,0.51346666,-0.3386743,1.23454,0.540255,0.17464332,0.90456504,-0.43612218,-0.09780633,0.97147673,-0.0660535,0.39255667,-0.20539665,0.057461,-0.467,-0.10027332,-0.04646351,0.08875683,-0.20029585,0.28765166,0.17939098,0.145789,-0.19011717,-0.75883836,-0.02697166,0.057965,0.02995833,-0.41346836,0.08137622,-1.58888,0.02840001,0.06499999,0.06397283,-0.3844237,-0.436245,-0.04702084,-0.26757643,-0.06016585,0.24160068,-0.00921949,-0.01448567,-0.326559,-1.124835,0.33849695,0.30946815
to say,-2.98E-01,3.25E-01,7.67E-02,1.50E-01,4.93E-02,5.40E-01,-3.72E-01,-3.93E-01,-1.32E-01,-2.51E-01,-2.28E-01,1.71E-01,3.91E-02,3.58E-01,-3.30E-01,-3.31E-01,4.76E-02,3.66E-01,-6.56E-01,-1.08E-01,6.51E-01,-1.47E-01,-6.06E-01,-2.40E-01,-2.13E-02,1.84E-01,6.35E-02,3.40E-01,6.46E-01,-1.01E-01,2.57E-01,1.17E+00,-6.12E-01,-1.55E-01,-1.85E-01,1.15E-01,1.65E-01,1.58E-01,1.54E-01,1.41E-03,-1.04E-01,-5.02E-01,2.80E-02,-1.76E-01,-3.49E-01,6.96E-02,3.42E-01,-2.77E-01,-4.15E-02,-3.35E-01,2.04E-01,3.10E-01,7.95E-01,7.20E-01,-8.17E-02,-1.65E+00,1.21E-01,2.72E-01,1.19E+00,-2.48E-01,2.92E-01,8.65E-01,-1.52E-01,-6.32E-01,2.13E-01,-3.33E-02,5.30E-01,2.77E-01,1.02E-01,-4.07E-01,-7.67E-01,1.10E-01,1.66E-01,-9.98E-01,5.31E-01,6.35E-01,4.91E-01,2.18E-01,-1.12E+00,-4.87E-01,-3.63E-01,-8.31E-01,-3.75E-01,-1.30E-01,-1.19E+00,-1.02E-02,-2.72E-01,-4.05E-01,1.93E-01,7.68E-02,-3.73E-01,6.32E-01,-4.93E-02,-8.88E-02,-2.64E-01,2.99E-01,-3.37E-01,-4.40E-01,1.80E-01,5.05E-01
sun,-2.43E-01,4.05E-01,5.91E-01,-1.80E-01,8.18E-02,-2.48E-01,2.27E-01,1.75E-01,-2.31E-01,2.06E-01,4.39E-02,-4.15E-01,5.95E-02,-1.56E-01,1.80E-01,-9.28E-01,2.16E-01,1.64E-01,3.88E-01,-5.60E-02,-3.17E-01,-2.32E-01,-4.62E-01,1.89E-02,4.21E-01,1.25E-01,2.66E-01,9.21E-02,-3.30E-02,5.25E-02,1.73E-01,1.86E-01,-4.42E-01,1.32E-01,1.76E-01,-1.70E-01,9.02E-02,3.37E-02,6.16E-02,-1.26E-01,-4.02E-01,-3.69E-01,-3.48E-01,-2.73E-01,2.43E-01,-2.97E-02,-1.71E-01,2.33E-02,2.84E-01,-2.38E-01,3.33E-01,4.66E-02,2.63E-01,8.24E-01,2.48E-01,-1.79E+00,4.55E-03,4.05E-01,1.48E+00,5.94E-01,-3.58E-01,6.97E-01,-2.37E-01,5.95E-01,1.02E+00,2.50E-01,2.02E-01,-4.12E-01,8.30E-02,-1.81E-01,2.35E-01,-2.26E-01,3.62E-01,7.44E-02,2.39E-01,-3.55E-01,4.69E-01,-4.18E-01,-4.39E-01,1.71E-01,5.72E-01,7.05E-02,-6.48E-01,2.43E-01,-7.31E-01,2.38E-01,4.31E-01,2.21E-01,3.51E-01,-1.05E-01,1.78E-03,1.36E-01,-1.22E-01,2.93E-02,-2.97E-01,-2.63E-02,-4.91E-01,-5.49E-01,4.94E-01,-3.47E-01
moon,7.14E-02,5.55E-01,6.31E-01,4.56E-01,1.98E-01,-8.00E-01,9.66E-02,2.22E-01,-2.28E-01,4.09E-01,1.70E-01,-4.34E-01,4.71E-01,-1.61E-01,4.66E-01,-7.38E-01,4.52E-01,6.20E-01,9.44E-02,8.04E-02,-1.96E-01,4.93E-02,2.48E-01,5.22E-02,2.81E-01,3.62E-01,1.51E-01,6.79E-01,1.95E-01,2.69E-01,5.26E-02,2.28E-01,-3.88E-01,1.81E-01,1.75E-01,-6.68E-02,-2.03E-01,2.18E-01,-1.42E-01,-1.97E-01,-6.14E-01,-4.50E-02,-6.22E-01,1.16E-01,7.72E-02,2.22E-01,-2.53E-01,4.51E-01,-1.03E-01,-1.75E-01,1.35E-01,5.25E-01,7.46E-01,8.08E-01,1.93E-01,-2.00E+00,1.69E-01,1.89E-02,1.80E+00,3.75E-01,1.07E-01,7.11E-01,6.38E-02,-2.08E-01,8.39E-01,4.86E-01,9.09E-02,-3.67E-01,4.08E-01,-3.71E-01,1.92E-01,-7.52E-02,8.21E-01,9.85E-02,1.35E-02,-5.90E-01,6.42E-01,-1.61E-01,-4.55E-01,5.54E-01,5.08E-01,1.97E-01,-4.23E-01,3.08E-01,-5.56E-01,5.44E-02,7.08E-01,1.31E-01,4.38E-01,-2.01E-01,5.11E-01,1.81E-01,1.34E-01,1.27E-04,-5.60E-01,5.13E-02,-7.01E-01,-4.54E-01,3.17E-01,-1.17E-01
star,-1.92E-01,4.02E-01,5.58E-01,-2.00E-03,2.24E-01,-2.79E-01,-4.23E-02,2.03E-01,-1.32E-01,4.31E-01,-3.56E-02,-4.96E-01,1.17E-01,2.70E-02,1.56E-01,9.66E-03,-2.99E-01,1.35E-01,1.18E-01,-3.14E-01,6.74E-02,-2.66E-01,-8.81E-02,-2.84E-01,-4.99E-02,4.41E-01,1.29E-01,1.58E-01,9.02E-02,4.15E-02,3.02E-02,1.06E-03,-6.10E-01,1.70E-01,-1.97E-01,7.76E-02,3.29E-01,7.55E-02,-1.52E-02,-1.13E-01,-2.73E-01,-3.16E-01,-2.81E-01,-2.13E-01,4.75E-02,3.88E-02,-2.79E-01,3.43E-01,-1.21E-01,-2.41E-01,2.61E-01,5.65E-02,4.99E-02,4.29E-01,9.61E-02,-1.18E+00,2.67E-02,2.98E-01,6.55E-01,3.63E-01,2.36E-01,5.96E-01,-6.54E-02,2.84E-01,6.58E-01,8.29E-02,3.03E-01,-3.27E-01,2.90E-01,-5.37E-01,2.27E-01,-3.50E-01,5.12E-01,1.65E-01,4.17E-02,-3.27E-01,2.26E-01,-7.15E-01,-4.37E-01,-1.10E-01,5.21E-01,2.96E-01,-3.87E-01,3.44E-01,-4.84E-01,1.43E-02,5.46E-01,1.90E-01,2.41E-02,-3.77E-01,1.64E-01,-7.12E-02,-2.38E-01,1.53E-01,-1.94E-01,2.63E-01,-2.90E-01,-4.31E-01,4.27E-01,-1.60E-01
water,-0.33432946,1.36E-01,0.40624335,0.1406306,-0.23162,0.39014032,0.29570946,0.3017226,0.27687964,0.4086872,0.10034222,-0.34234956,0.24542278,0.2672291,0.266949,0.03122,-0.08437844,0.18682122,0.5545811,-0.31945667,0.04721139,-0.18001033,-0.09895188,-0.06186199,-0.050976,0.09542656,0.15694912,0.29928645,-0.37050998,-0.2939574,0.2494809,0.21034561,-0.5283398,-0.195462,0.19833578,0.38725004,0.241125,0.02601423,0.32309476,0.0036489,0.2051122,-0.36510557,-0.06485523,-0.02174445,0.15742223,0.07815789,-0.13667999,0.5177689,-0.17558154,-0.31767175,0.50076723,-0.40108114,0.33836225,0.6449132,-0.1858189,-1.1883479,-0.00432946,0.03364612,0.8006203,0.14343601,-0.18622132,0.16563445,-0.02710978,0.08280277,0.7008045,-0.073948,1.0363299,-0.6118522,-0.14272721,-0.5614813,-0.12704022,-0.31447226,0.63695437,0.3745844,-0.09390622,-0.04876823,0.18975443,-0.5421922,0.076249,0.030177,0.50412077,0.06534078,-0.57643956,0.00649978,-0.28491998,0.19059044,0.74301887,0.3508898,-0.10943601,0.04288172,-0.02040011,0.17473613,-0.48943886,0.30596453,-0.10141678,-0.09502133,-0.35852066,-0.4482511,-0.28964612,0.18470912
rain,-0.22416718,4.34E-01,0.35767832,0.07856316,0.02859316,0.02319166,0.28657165,0.16522115,-0.08596933,-0.19283836,0.04548433,-0.0190835,-0.32108834,0.03005767,0.35501334,-0.29388735,-0.44691625,0.19555801,0.52182835,-0.35156333,-0.06239167,0.0385845,0.06252737,0.37677464,0.00190217,0.348328,-0.35031018,-0.05826167,-0.15723833,-0.12181333,-0.01200033,0.00271233,-0.61863667,-0.02105683,-0.17670536,0.3116375,0.2960793,0.01564834,-0.07078216,-0.01903198,-0.48993316,-0.87031007,-0.65720505,-0.29253832,0.48074207,0.47263166,-0.21008301,0.24522734,0.058145,-0.6953415,0.39808536,-0.10174499,0.2505786,0.9336283,-0.0136935,-1.3808998,-0.01296718,0.19327484,1.0752534,0.20105493,0.10039117,0.4557167,-0.3566775,0.36993495,0.59133464,0.32599503,0.65869504,-0.63525933,0.34604,-0.6733783,0.08092016,-0.39996815,0.71402335,0.31948,0.07387265,0.14832263,0.42400837,-0.47576633,-0.19751835,0.11162633,0.28406167,0.24606933,-0.5562317,0.24985333,-0.16970502,-0.10428833,0.29593667,-0.11974134,0.07191683,0.13755567,0.05867616,0.04368667,-0.7401933,0.19212066,0.07792,-0.10447333,-0.08504333,-0.15799832,0.11409733,0.23033352
stone,-0.11248168,7.22E-01,-0.01086168,0.13341083,-0.08154999,-0.14963333,-0.15239634,0.29709,-0.02479818,0.20409334,-0.0855005,-0.019595,0.31526914,0.20075335,-0.04097366,-0.33492586,0.2908088,-0.12010333,0.12668984,-0.15465082,0.22020833,-0.02775879,-0.33597615,0.03876333,-0.21587066,0.25967667,0.17835332,-0.023255,-0.03623647,0.00912267,0.23500983,-0.01234168,-0.11342949,-0.28264567,-0.06483483,-0.0819825,0.138126,0.18142001,-0.21079166,-0.19284952,-0.20088734,-0.27354833,-0.13842149,-0.519941,-0.4708183,-0.03524667,0.18286668,0.00644384,0.04602217,-0.4516717,0.15258399,-0.04075833,0.18702583,0.53178316,-0.10391834,-1.2594584,0.06031482,-0.12751384,1.5614752,0.06381067,0.01079416,0.19825836,-0.30153266,0.05941333,0.94362086,-0.24105483,0.60662466,0.00316999,0.2972115,-0.29502085,0.10729942,-0.13305166,0.22859836,0.08114266,0.143927,-0.03328499,-0.17812304,-0.29350483,-0.39579,0.3293917,0.606713,0.31458667,-0.19904,0.039835,-0.470045,-0.20017315,0.3697603,-0.19875467,-0.26781633,-0.19493818,-0.2635785,-0.36724332,-0.2986375,0.24919043,-0.264289,-0.14783268,-0.11679167,-0.23921184,0.25885335,-0.054665
sand,-0.45671,5.03E-01,0.23327842,-0.60160196,0.11539719,-0.1547264,-0.133166,0.09817524,-0.316194,0.183046,0.328424,-0.015028,0.2631176,0.42055422,0.43829805,0.108652,0.37844,-0.23885278,0.070548,0.11993599,0.2081532,0.012149,0.256656,-0.305884,0.12903681,0.5763582,0.0508282,-0.2268674,0.0179154,0.32320398,0.1746625,-0.19003752,-0.17714098,-0.298698,0.1628242,-0.24419698,0.2569128,0.11521,-0.07943541,-0.278776,-0.39116603,-0.427994,-0.39468402,-0.04273012,-0.05778199,-0.28028998,-0.298438,0.21595399,-0.08458096,-0.45556602,0.01899801,0.0612606,0.210458,0.25599298,-0.204626,-1.502444,-0.3075005,-0.02160999,1.253284,0.505972,-0.0320248,0.932316,-0.2520222,0.1118724,0.64251,-0.23355599,0.566038,-0.33966762,0.51230204,-0.84842205,-0.18534718,0.25911397,0.19061309,0.3470804,-0.09089281,-0.36451602,0.06036999,0.0069016,0.233794,0.5172108,0.21473,0.171972,-0.240464,0.26179603,-0.07674386,-0.1756536,0.570886,-0.12537,-0.11609881,0.411228,-0.17291799,-0.2752568,-0.29077202,-0.0860904,-0.07179766,-0.29481602,-0.615806,-0.5192556,0.48366198,0.31826597
earth,-5.52E-01,4.53E-01,1.24E-01,9.14E-03,5.34E-02,2.77E-02,-1.22E-01,2.55E-01,-5.90E-02,2.41E-01,2.23E-01,-1.15E-01,3.19E-01,1.14E-01,4.29E-01,-6.22E-02,2.47E-01,-3.02E-03,2.28E-01,-9.91E-02,2.84E-01,1.96E-01,1.27E-01,-3.32E-01,6.32E-02,2.22E-01,-1.54E-01,-2.06E-01,-1.10E-01,7.80E-02,5.73E-02,1.72E-01,-9.07E-02,-3.53E-01,1.66E-01,-1.30E-02,3.62E-01,2.29E-01,-1.29E-01,-1.35E-03,-1.89E-01,-6.78E-01,1.92E-02,-8.49E-02,1.18E-01,-1.71E-01,6.89E-02,1.75E-01,1.16E-02,-3.81E-01,9.48E-02,3.30E-01,3.11E-01,8.39E-01,3.58E-02,-1.97E+00,1.03E-02,-2.07E-01,1.88E+00,2.93E-01,9.92E-02,8.86E-01,-1.52E-01,3.41E-01,1.08E+00,-2.27E-01,6.59E-01,-1.03E-01,3.29E-01,-5.32E-01,-1.32E-02,-1.51E-01,3.26E-01,4.04E-02,9.35E-02,-2.36E-01,-1.72E-01,1.64E-01,-2.84E-01,5.03E-01,5.49E-01,1.99E-01,-4.21E-01,2.97E-01,-7.03E-01,-1.92E-01,3.78E-01,-6.23E-02,1.75E-01,6.01E-02,-2.03E-01,-2.43E-01,-1.89E-01,-2.10E-04,-8.60E-02,-1.21E-01,-5.29E-01,-2.49E-01,5.08E-01,6.51E-02
cloud,-1.51E-01,3.52E-01,-8.77E-02,2.41E-01,-1.40E-01,-1.16E-04,-3.85E-03,3.33E-01,-2.21E-01,1.40E-02,-2.81E-02,-1.06E-01,2.54E-01,-5.61E-03,2.41E-01,-4.54E-01,-2.65E-02,1.08E-01,1.18E-01,-3.16E-01,-1.08E-01,3.14E-01,-8.89E-02,-8.53E-02,2.13E-01,2.29E-01,-2.02E-01,1.31E-02,2.15E-01,-5.50E-02,-7.44E-02,-2.47E-01,-4.14E-01,1.06E-02,9.46E-02,-2.08E-01,4.37E-01,2.39E-01,-3.23E-01,1.14E-01,-4.64E-01,-3.74E-01,-3.41E-01,-3.09E-01,3.96E-01,3.44E-01,3.10E-01,-1.81E-02,9.00E-02,-2.03E-01,5.02E-01,-2.01E-01,7.87E-02,8.92E-01,8.27E-03,-1.55E+00,-3.27E-02,3.95E-02,1.57E+00,3.96E-01,1.51E-02,6.59E-01,-2.40E-01,3.23E-01,6.94E-01,1.28E-01,5.04E-01,-4.61E-01,4.46E-01,-2.81E-01,-3.42E-02,-5.54E-01,5.03E-01,2.25E-01,3.87E-01,-1.04E-01,3.20E-01,-3.60E-01,-3.19E-01,4.09E-01,5.19E-01,3.69E-03,-4.02E-01,-9.79E-02,-5.92E-01,-6.72E-02,6.65E-01,1.06E-01,1.75E-01,9.18E-02,-2.11E-01,-4.45E-02,-3.80E-01,2.83E-01,-3.42E-02,-1.61E-01,-4.22E-01,-2.13E-01,5.04E-01,-4.95E-02
smoke,-0.47636572,2.71E-01,0.07330143,-0.25756285,0.21430998,-0.2469963,0.26708478,0.31391257,-0.35907713,0.06379271,0.34516117,-0.4016857,-0.1843394,0.27054557,0.11020999,-0.28212142,0.00440364,0.18829444,0.58591145,-0.3550957,0.23997271,-0.13072573,0.02283957,0.05011428,0.19705829,0.28425428,0.11567014,0.02024287,0.03372286,0.02434144,0.03365057,0.31620947,-0.6018643,-0.17101142,0.01621254,0.13398002,0.40151143,-0.0126683,-0.11074284,-0.09036843,-0.2747666,-0.5409086,-0.75489,-0.11582427,0.34128645,0.0684933,-0.00794914,-0.01559144,-0.09706957,-0.5199757,0.45980242,-0.33549944,-0.1744633,0.50448287,-0.03578058,-1.2328202,-0.08388559,0.40867028,1.0504314,0.24923243,0.21643154,0.5917057,-0.33546415,0.53184426,0.91989714,0.09892614,0.8819386,-0.45310286,0.19812988,-0.96734715,0.15582429,-0.32053998,0.7013873,0.48240873,-0.00347014,0.03531573,0.59926856,-0.95143855,-0.17572601,0.22475001,0.5563917,0.2982022,-0.53517,0.09547857,-0.34142,0.36729842,0.6998046,-0.24186127,-0.17427371,-0.12377514,-0.24953257,-0.22256143,-0.50814974,0.04334957,0.02122857,-0.15096286,-0.31125143,-0.5379514,0.36436003,-0.3736263
fire,-0.35146835,2.79E-01,-0.05676437,-0.19783625,0.08435087,-0.20947371,0.219253,0.22353901,0.06090625,0.36054602,0.22196938,-0.52404875,0.09930374,0.19551376,0.023635,-0.45924774,-0.05966001,0.08728424,0.5527899,-0.45586875,0.05389412,-0.4208294,0.07714251,-0.34608138,0.12612425,0.189919,0.19232763,0.15253088,-0.14117919,0.15072137,-0.2215625,0.01657712,-0.552275,-0.21400726,-0.260695,-0.12407313,0.24122037,-0.18111926,0.00661275,0.11440388,-0.44010225,-0.6039912,-0.5085925,-0.33841875,0.34606,-0.04753801,-0.12338901,0.0533415,0.024862,-0.84612375,0.44273624,0.13922338,-0.252413,0.830325,0.103155,-1.253445,-0.08923314,0.2733035,1.1114204,0.00238513,0.05988112,0.6146875,0.0074975,0.43834624,0.63085496,0.02624162,0.9086888,-0.5256512,-0.02282951,-0.77288127,0.11035626,-0.3044425,0.4431135,0.4629751,0.22482713,0.2345025,0.2647055,-0.4502004,-0.29180124,0.11579201,0.70539504,0.26497152,-0.76787746,0.42098948,-0.6280987,0.22431,0.59831476,-0.0888795,-0.07748002,-0.02047338,-0.00903986,-0.2971236,-0.34164086,0.12859073,-0.15623125,0.01411787,-0.23607732,-0.42663437,0.59809124,-0.11751349
ashes,-0.23058666,2.03E-01,0.10209333,-0.4846767,-0.32661,0.25661665,0.23648667,0.15523,0.35173666,0.29635665,0.274071,0.5733177,0.64986664,0.08639,-0.26205665,0.06724667,0.31926334,0.153333,0.14593667,0.01305667,0.5773466,0.10457,0.26874334,0.01750333,-0.07957999,-0.15962,0.045956,-0.03281334,-0.27030966,0.16401666,0.353357,-0.30456,-0.19329734,0.38442668,-0.36071,0.00256,0.05865367,-0.1828623,-0.090539,-0.02597,-0.36909068,-0.69953996,0.56164336,-0.10044632,0.45788002,-0.009558,0.15026867,0.78818995,-0.34,-0.39945337,0.43767667,-0.4605467,-0.10777301,0.9691067,-0.17672054,-1.0702766,-0.7658067,-0.45357668,0.9485367,0.25013334,0.36546767,0.85607,-0.07501999,0.36643,0.47668663,0.06281833,0.71925336,-0.42457297,-0.06785933,-0.35343733,-0.05264001,0.06368333,0.62602204,0.34435,0.31067768,-0.11462432,0.15374666,-0.10401666,-0.7610133,0.31148335,0.19564666,0.15280665,-0.61925334,0.05874,-0.14089,-0.19716668,0.061972,0.005604,-0.4815,0.13911867,-0.08351334,-0.44725665,-0.13919164,0.44480333,-0.44877002,-0.27749667,-0.00910033,-0.43616998,0.11965001,0.06238334
to burn,-0.23941499,-3.85E-02,-0.1251995,0.035849,-0.2101255,0.27257252,0.22914001,0.01525499,0.654315,0.747395,0.35682,0.042065,0.253015,0.10625499,-0.1565,-0.24057999,0.39105004,0.2481325,-0.981935,0.40353,0.64972,-0.833695,0.20912999,-0.55459,0.19099501,0.306005,-0.77978003,0.018725,0.10263501,0.06974749,0.09133501,0.0534535,-0.23113,0.17991498,-0.35099,-0.669585,-0.0174475,-0.695125,0.510931,0.20825,-0.525245,0.036477,-0.019075,-0.243675,0.88194,0.140285,-0.367393,0.251272,-0.4117525,-0.69194,0.202975,0.51658,-0.093455,1.152245,0.34395,-1.7662,0.25575,-0.005225,1.277295,0.39823002,0.06147999,0.913895,-0.045873,0.241345,0.51401496,0.20933,0.35853,0.2172865,-0.0210759,-0.2225885,0.34391,-0.68143,0.307882,-0.525675,0.25871497,-0.19094199,0.20104001,0.15818399,-1.16352,0.658805,0.89673,0.154425,-0.778945,0.420304,-0.327225,0.26738498,0.40529552,0.469495,0.17958,0.478965,0.29220498,-0.45147002,0.15283501,0.4547925,-0.56802,-0.30535,-0.19036001,0.193865,0.36141035,0.0991555
path,-6.73E-02,2.50E-02,6.10E-01,-1.41E-01,4.78E-01,1.22E-01,-1.17E-01,3.54E-01,-9.27E-02,-2.90E-01,8.34E-02,1.77E-01,2.75E-01,3.97E-02,3.55E-01,-1.65E-01,1.36E-01,-5.67E-02,-2.98E-01,-2.60E-02,5.98E-01,2.95E-01,-1.17E-02,-7.04E-02,5.51E-02,-3.80E-02,-3.56E-01,-3.47E-01,2.92E-01,-2.50E-01,-6.10E-01,7.00E-01,1.78E-01,-1.59E-01,9.14E-02,3.42E-01,5.48E-02,-4.63E-01,2.22E-02,1.28E-01,-2.42E-01,-5.23E-01,-4.36E-03,-1.70E-01,-1.23E-01,6.72E-02,1.77E-01,-4.83E-02,3.00E-01,2.49E-02,3.23E-01,4.11E-01,2.96E-01,9.98E-01,8.76E-04,-2.14E+00,-1.80E-01,-1.36E-02,1.29E+00,1.81E-01,-2.02E-01,6.60E-01,1.89E-01,-8.52E-02,4.13E-01,1.51E-01,1.36E-01,5.81E-02,1.02E-01,1.02E-01,-1.90E-01,-5.18E-01,6.62E-02,-5.16E-01,5.24E-01,-3.33E-01,2.34E-01,2.33E-01,-1.97E-01,-1.34E-01,2.30E-01,2.13E-01,-4.11E-01,-4.01E-02,-9.95E-01,-6.65E-02,-6.17E-02,-3.86E-01,-1.01E-02,-5.18E-02,-3.28E-01,1.81E-01,-3.95E-01,5.20E-02,-5.93E-01,-1.06E-01,-1.95E-01,-1.07E-01,6.09E-01,4.56E-01
mountain,-3.99E-02,5.14E-01,8.48E-02,3.42E-01,5.12E-02,-2.21E-02,-3.99E-01,3.74E-01,-1.12E-01,4.34E-01,7.37E-02,8.59E-03,2.78E-01,-2.95E-01,2.95E-01,-5.01E-01,5.51E-02,3.19E-01,-2.49E-01,1.07E-01,9.94E-03,6.18E-02,6.15E-02,-1.19E-01,-4.62E-02,-1.91E-01,-7.70E-02,-1.26E-02,-2.60E-01,-1.35E-01,-2.68E-01,-2.61E-01,1.20E-01,2.32E-01,1.38E-01,2.35E-01,2.71E-01,-9.22E-02,-2.10E-01,-5.00E-04,-2.38E-01,-5.42E-01,-2.98E-01,-1.26E-02,1.95E-01,1.19E-01,1.43E-01,1.42E-01,-1.08E-01,-3.21E-01,1.99E-01,-4.57E-02,3.66E-01,9.13E-01,-3.04E-02,-1.67E+00,4.44E-02,-1.94E-01,1.55E+00,3.20E-02,-7.02E-03,6.39E-01,-1.27E-01,-1.50E-01,8.18E-01,3.06E-03,4.42E-01,-3.35E-01,5.34E-01,-4.32E-01,-7.02E-02,-2.03E-01,7.02E-02,-4.00E-01,2.43E-01,-4.80E-01,1.83E-01,3.48E-01,-5.92E-01,3.20E-01,4.47E-01,4.73E-01,-3.02E-01,1.06E-01,-7.64E-01,2.15E-01,1.46E-01,-4.28E-01,3.25E-01,-2.12E-02,-1.37E-01,-1.71E-01,1.44E-01,1.51E-01,-6.31E-01,2.20E-02,-3.21E-01,-1.73E-01,5.36E-01,-7.46E-02
red,-3.24E-01,2.93E-01,-1.70E-01,-5.80E-01,5.42E-01,1.80E-01,2.28E-01,7.22E-02,-4.68E-02,1.02E-01,-5.83E-01,-7.31E-01,4.98E-01,7.34E-02,4.42E-01,4.72E-01,2.67E-01,-4.37E-01,1.11E+00,-4.15E-01,-5.90E-01,-2.91E-01,-1.98E-01,-7.71E-02,6.64E-01,3.17E-01,5.32E-01,-1.86E-01,8.39E-02,-7.39E-01,4.64E-01,2.88E-01,-4.06E-01,-5.23E-02,1.88E-01,-4.93E-02,-1.51E-01,6.10E-01,4.45E-01,1.82E-01,2.78E-01,-9.75E-01,-5.07E-01,-2.21E-01,-1.05E-01,1.53E-01,-1.30E-01,5.39E-01,-1.82E-01,-6.21E-01,1.33E-01,1.40E-01,-2.10E-01,1.05E+00,-5.57E-01,-1.20E+00,-3.75E-01,4.49E-01,9.27E-01,-6.47E-02,-2.36E-01,9.69E-01,-4.84E-01,1.79E-01,1.02E+00,-2.48E-01,5.42E-01,-6.34E-01,-4.01E-01,-1.34E-01,1.57E-01,7.94E-04,-2.74E-01,-1.59E-01,8.24E-01,4.55E-01,1.02E-01,-1.04E-01,-8.25E-02,2.88E-01,1.99E-01,-2.06E-01,-6.61E-01,2.20E-01,-4.32E-01,1.46E-01,3.59E-01,-3.24E-01,4.94E-01,6.51E-01,-1.40E-01,-8.59E-01,-3.17E-01,-1.24E-01,-4.55E-01,-1.36E-01,-1.19E+00,-5.04E-01,-1.49E-01,-3.85E-01
green,-0.45029333,2.42E-01,-0.20764,-0.6398466,0.6757667,0.07253697,0.33734,0.06562233,0.03822232,0.189124,-0.5871633,-0.61645263,0.30433,-0.03980667,0.59651333,0.45072332,0.33037397,-0.25952333,0.97346336,-0.25412953,-0.64875,-0.29209334,0.01121666,-0.26476333,0.5646333,0.35128665,0.63236636,-0.34693,-0.11139334,-0.532464,0.25455,0.44905004,-0.22637667,-0.17650133,0.26645833,0.04380666,-0.20648034,0.59002334,0.27828333,0.236,0.11568733,-1.1372999,-0.40567002,-0.12553667,-0.3062733,0.05893334,-0.21705133,0.665437,-0.23830001,-0.75827,0.09405433,-0.00401401,-0.17002,1.01979,-0.46484533,-1.2586166,-0.09294999,0.41217002,0.7687467,-0.24971001,-0.08507499,0.87921,-0.41304335,0.2917033,1.1166034,-0.25295767,0.6035033,-0.70448667,-0.48405,-0.20170666,0.09294034,0.21484399,-0.23287968,-0.17697822,0.64713097,0.298965,0.18014432,-0.16447534,0.09460366,0.24584667,0.183487,-0.156884,-0.6221747,0.1662114,-0.35991335,0.06772768,0.53036666,-0.4682467,0.59795,0.64469,-0.026326,-0.8878867,-0.30783066,-0.01524017,-0.48902,-0.012029,-1.0546434,-0.51805,-0.13076134,-0.23385198
yellow,-0.22062145,2.40E-01,-0.19888334,-0.6196534,0.6742733,0.2664567,0.34098998,0.11336666,0.08709566,0.19366767,-0.62584,-0.56251997,0.30990002,-0.01227334,0.51426333,0.4212567,0.29218733,-0.6002,1.2984234,-0.57120335,-0.6452367,-0.26398668,-0.07980701,-0.07349233,0.74479336,0.33133334,0.58878165,-0.04191333,-0.00954334,-0.76258,0.31372267,0.22370367,-0.30936,-0.19717799,0.23043166,0.03177999,-0.062733,0.5074933,0.31286332,0.30566,0.22054334,-1.0025333,-0.46653232,-0.35852337,-0.23065664,0.22527336,0.00846867,0.71019363,-0.207741,-0.63328004,0.21543665,0.05853267,-0.32873,1.0333967,-0.431852,-1.0006833,-0.30859333,0.40123335,0.7955134,-0.20953201,-0.19450168,1.0871366,-0.297794,0.27912,1.0362867,-0.13785666,0.5665233,-0.77141666,-0.4055983,-0.24275668,0.075137,0.190221,-0.01136533,-0.07552157,0.78749996,0.5566583,0.06058099,-0.15605532,0.05159427,0.19504534,0.15096699,-0.41676334,-0.68917465,0.1509654,-0.45312667,0.08576768,0.37415135,-0.40142,0.5893133,0.76772666,-0.20996332,-0.7262933,-0.33506736,-0.08540934,-0.32730335,-0.10436901,-1.2187134,-0.55380064,-0.29994467,-0.4373443
white,-0.18080826,1.07E-01,0.17972001,0.163933,0.0363,0.2557615,0.10740399,-0.40377,-0.16329074,0.13888976,-0.13719575,-0.5527325,-0.0037525,-0.1465435,0.07994749,0.16181025,-0.0591875,0.17295751,0.3548125,-0.0145325,-0.29572752,-0.16215,-0.241055,-0.2946125,0.7082474,0.06366426,0.61814,-0.05848925,-0.06853876,-0.61003995,0.23281276,-0.02425,-0.3519475,0.09016924,0.25982502,-0.0420725,-0.00546023,0.4854225,0.129639,-0.246723,0.16088499,-0.02326752,0.00140575,0.1436535,-0.05885398,0.24926111,0.48062152,-0.03537725,-0.23107001,-0.3051275,0.0223525,0.1378365,0.1315873,0.71911603,0.12785825,-0.86846197,0.277205,0.2449609,0.3519525,-0.372505,-0.009921,0.44654748,-0.5564977,0.1508175,0.606908,-0.12364224,0.2030375,-0.6303225,-0.20161,-0.11250751,0.18790275,-0.0077575,0.07094274,0.37168384,0.58834,0.3151593,-0.023224,-0.2662215,0.30860224,0.1400025,-0.20996998,-0.21178588,0.16759148,0.22140504,-0.4233225,-0.08109425,0.12683252,-0.28185126,0.14217573,0.02563725,-0.1575125,0.04073551,0.12397375,-0.282799,-0.38172004,-0.2777425,-0.549385,-0.77593005,-0.0536235,0.33394176
black,-0.22058451,2.58E-01,-0.02820773,0.18299,-0.022164,0.4799465,0.23933,-0.0128525,0.02680325,0.28329974,-0.0924125,-0.38602751,0.19804999,-0.1735085,0.3747675,0.07505025,-0.340045,0.071483,0.379905,0.11590499,-0.10846999,-0.3179775,-0.0256525,-0.18954301,0.47698247,-0.07884499,0.5017,-0.1074775,-0.26129878,-0.5917275,0.3492675,0.0909375,-0.31060952,-0.12804076,0.24270502,0.0558525,0.05411975,0.42782372,0.17623651,-0.0871215,0.10000999,-0.3167575,-0.10968925,0.0656875,-0.14260148,0.1886625,0.382669,-0.04241224,-0.23274001,-0.38571748,0.0975465,0.1279165,0.040645,0.9218035,-0.02309175,-0.93746185,0.19467749,0.12938151,0.5997275,-0.17660752,-0.04403,0.47954747,-0.46985775,0.12450498,0.39584553,-0.08928699,0.22111249,-0.39235502,-0.2210025,-0.04699326,0.05088025,-0.1827375,0.1354125,0.3132488,0.558745,0.3175993,-0.072931,-0.2410065,0.03582975,0.08598825,-0.12179998,-0.253865,-0.06061101,0.19971004,-0.2775875,0.05964825,0.4291925,-0.064697,0.05819749,0.09925851,0.09189999,0.076243,0.071392,-0.37796402,-0.44789252,-0.13306251,-0.4802975,-0.59370005,-0.0830835,0.191936
night,5.94E-02,-0.15966214,0.16852584,0.01174586,0.00719656,0.52733284,0.01213271,0.7149657,-0.29058716,-0.2539739,0.3133757,0.00798314,0.16472271,-0.0624407,0.32355857,-0.54050374,0.2812564,-0.017472,-0.2272,-0.21616505,0.22891815,-0.02924713,0.00944757,-0.04512999,0.5249832,0.51706284,-0.13317999,-0.2827143,-0.04883457,0.03566485,-0.05756313,-0.02078185,-0.09229112,-0.14023386,-0.11407045,0.08001572,-0.03487386,0.12195743,0.17518084,-0.2745557,-0.45284146,-0.30352372,0.05408314,0.20847015,0.11911214,-0.02588314,0.03815914,-0.17161895,0.30369142,-0.5585267,0.10523368,-0.1682856,0.09249499,1.0528587,-0.30016086,-2.3390057,-0.44394144,0.05810013,1.4636471,0.4286684,-0.35548258,0.9740843,-0.08092971,-0.1218743,0.36457434,-0.03252714,0.35641715,-0.28389186,-0.13718757,-0.00690543,-0.32866856,-0.2214633,0.00439371,-0.45744398,-0.28313556,-0.07450429,0.04166457,-0.32464546,-0.39771625,-0.16065814,0.20762683,-0.03439586,-0.22781573,0.3707757,-0.71342427,-0.11470342,0.03586,-0.04365087,0.13258572,-0.09205858,0.14307745,-0.20099513,-0.1540343,0.33933428,-0.7801771,0.01010797,0.01257,0.38033742,0.31456,0.05632185
hot,-0.16883619,1.49E-01,0.42681637,-0.02090511,-0.19382873,0.0231201,-0.18161073,0.14478664,-0.30206636,0.1310791,-0.05677338,-0.21465708,-0.02141437,-0.20431446,0.25559527,-0.45198342,-0.6047505,0.01122763,0.09160282,-0.01970555,0.170261,0.07420191,0.07830445,0.0382061,0.26564014,0.3126731,-0.02394245,-0.34636953,-0.05548183,-0.10593355,-0.02080909,0.23197728,-0.26229775,0.21868974,-0.18147182,-0.12470755,0.04360273,0.05321546,-0.11450274,-0.04232545,-0.37238064,-0.5666364,-0.19481373,-0.4633607,0.36048555,0.02314318,0.12481689,0.01587018,0.14905638,-0.8222036,0.19607402,-0.23044874,-0.1442671,0.8260146,0.05554808,-1.9487137,0.15824088,0.04186492,1.3377918,0.27349365,-0.00399055,0.6117009,-0.31001025,0.28984547,0.47599843,0.055863,0.5890125,-0.5270183,0.16265064,-0.36633283,-0.22548772,-0.25410482,0.27990863,0.3480504,0.21469745,0.32765055,0.16247654,-0.4991918,-0.05364818,-0.04468181,0.47648725,0.05300654,-0.74822426,0.18527818,-0.70778173,-0.12506765,0.29306218,0.14201827,-0.04952373,-0.13652998,-0.22546,-0.01597982,-0.10127581,0.027443,-0.56969374,-0.08028546,-0.05473142,-0.34130427,0.546461,-0.14710665
cold,-1.04E-02,9.37E-02,5.11E-01,2.32E-01,-5.64E-01,3.88E-02,-1.68E-01,-2.75E-02,-3.08E-01,8.81E-02,-3.30E-01,-1.46E-01,2.03E-01,-2.63E-01,5.19E-01,-2.94E-01,-6.18E-01,-2.28E-01,1.73E-01,7.25E-02,-1.05E-01,3.24E-01,1.62E-01,-9.85E-03,7.55E-02,2.84E-01,5.79E-02,-2.63E-01,-5.11E-02,-2.96E-01,5.96E-02,9.07E-02,-1.91E-01,1.86E-01,-2.54E-01,5.33E-02,2.54E-01,2.06E-01,-5.58E-02,-1.54E-01,-2.76E-02,-1.66E-01,-2.32E-01,-2.23E-01,4.27E-01,-4.44E-02,3.21E-01,6.82E-02,3.57E-01,-6.62E-01,3.66E-01,-2.04E-01,-1.44E-02,7.00E-01,1.55E-01,-1.41E+00,4.28E-01,-4.32E-02,8.47E-01,1.37E-01,8.85E-02,2.66E-01,-3.32E-01,1.65E-01,3.51E-01,2.76E-02,5.40E-01,-7.39E-01,3.12E-01,-3.68E-01,-2.88E-02,-2.19E-01,3.01E-01,4.00E-01,2.77E-01,4.41E-01,2.47E-01,-3.05E-01,1.08E-01,1.38E-03,1.03E-01,7.78E-02,-5.49E-01,2.25E-01,-9.28E-01,-1.35E-01,3.11E-01,2.10E-01,-4.24E-01,-7.09E-02,-1.21E-01,1.25E-01,-4.09E-02,1.51E-01,1.36E-01,1.12E-01,5.79E-02,-4.89E-01,1.56E-01,-7.92E-03
full,-0.2646482,3.61E-01,0.25728598,0.065132,-0.08536121,0.1631476,-0.19415918,0.1258866,0.06690399,-0.02022099,-0.02569998,0.05839399,0.355376,0.00939701,0.3527384,-0.21902621,-0.1893392,0.0356862,0.04889166,0.186438,0.11183,-0.11937402,-0.0409042,-0.19940801,-0.1254625,-0.182722,-0.01433769,-0.40518397,-0.08334561,0.177653,0.11148335,0.042406,-0.25809002,-0.1323752,0.2298352,0.21050298,0.20806322,-0.03247879,-0.308582,0.0508684,-0.345658,-0.41086596,0.1403846,-0.33145255,0.06332441,0.1316454,0.340392,-0.252368,-0.15328862,-0.54912,0.40643007,-0.102421,0.1213678,0.767962,-0.1297624,-2.0760999,0.0323032,-0.37618598,1.68258,0.434542,-0.21156803,1.046536,-0.12895,0.10522401,0.91043997,0.03698559,0.46638697,0.042862,0.400194,-0.36150938,-0.15022519,-0.19301161,0.17712799,0.05107601,0.39536938,0.19102241,0.01089562,-0.2786108,-0.841976,0.13701999,0.64116657,-0.09860779,-0.62985796,0.13398519,-1.4646962,0.1322746,0.3100918,-0.19709,-0.3130096,-0.135696,-0.0532578,0.106784,-0.1046168,-0.0620566,-0.6319181,-0.2579268,-0.398656,-0.39115483,0.575682,0.167048
new,2.20E-01,0.00335716,0.10762483,-0.11848582,0.2619765,-0.14084066,0.28929666,0.10209999,0.02723761,-0.10291416,0.167803,0.07348833,0.5895967,0.1818245,0.16766815,-0.40683115,0.4530675,0.18694915,-0.5340483,0.07023334,0.09347066,0.23699433,0.01452067,0.15745547,0.0179755,-0.19537336,-0.01646234,-0.21268634,-0.081593,0.03918583,0.20703334,0.53882134,-0.23677015,0.13555717,0.284355,0.13660918,-0.08145383,0.14000733,-0.22002834,-0.12962338,-0.33759832,-0.18157816,0.1375735,-0.21584214,0.16299517,0.16558667,0.2151543,-0.064037,0.33575734,-0.66405195,0.06734717,0.06072884,0.2557845,0.77523994,-0.26189998,-2.0883667,-0.57689834,-0.16257383,1.2797533,0.51827,-0.00344917,0.96695167,-0.32379237,0.21865483,0.6426633,-0.21730834,0.41359338,0.39569998,0.163163,0.04413667,0.04499618,-0.021375,-0.16201134,-0.1578375,-0.14013182,-0.05864,-0.09445616,0.05452166,-1.0686634,0.28685752,0.48131335,-0.0376655,-0.3412397,0.105265,-1.1716033,-0.30275318,0.41032836,-0.27195433,-0.58538336,-0.35749933,-0.2151135,-0.48770598,-0.04289833,0.06465954,-0.546735,0.06766833,-0.41636947,-0.28839016,0.3846067,-0.12406733
good,-0.05776133,2.61E-01,0.26666316,0.29466617,-0.28041202,-0.31632665,-0.10031784,-0.08273951,0.09441235,0.20652835,-0.07547799,-0.22767822,0.22505884,-0.37313998,0.3319893,0.03175167,-0.00809666,0.15128465,-0.01985168,0.35831833,-0.03868667,-0.4055883,-0.31548998,-0.41872668,-0.239857,0.00281483,0.1227865,-0.28591967,-0.368644,0.09338766,0.04342766,0.29102418,-0.02264675,-0.20723502,0.5945083,0.23254184,-0.02484748,0.09303501,-0.46184003,-0.35764167,-0.08003834,-0.1121135,0.34692815,-0.280775,-0.141823,0.15238994,0.25117484,-0.19607751,-0.48613003,-0.66276497,0.38662186,-0.21946967,0.20109665,0.60269004,0.15499167,-1.1305354,0.18567349,0.06459383,1.0426116,-0.13169384,-0.21019666,0.6043525,-0.4648715,0.2049105,0.84984535,-0.09580133,0.39851665,-0.189439,0.14053382,-0.58867335,-0.09152666,-0.31672335,0.30925235,0.03488583,0.62577504,0.08147633,-0.22632824,-0.43075,-0.09393883,-0.298746,-0.05584967,-0.0639405,-0.45954335,-0.14743684,-0.98315996,0.13387017,0.25128165,-0.01357114,-0.24068831,-0.42853665,-0.6368707,-0.10391902,0.26532835,-0.08879551,-0.31799665,0.20329784,-0.5429135,-0.53441834,0.17869568,0.49492836
round,-0.27162334,5.08E-01,0.157094,0.29995665,0.03776002,0.47159335,0.06034367,0.03816267,-0.47412,0.22986001,-0.37802663,-0.22045167,0.61077,0.20389013,0.08416334,0.18552,0.19711667,0.15546234,0.12585665,-0.4160563,0.01087766,0.04832575,-0.35167035,-0.30308667,0.36167565,0.06537,0.12938267,-0.16424267,0.24337931,-0.37241003,0.24879034,0.41399336,0.05789002,-0.70347,0.222838,-0.05606534,0.15970667,0.32965067,-0.17777099,-0.16833633,-0.19236334,-0.41916904,0.03468766,-0.11597001,-0.13975333,-0.02360334,0.10968331,0.32109332,0.08943333,-0.03222001,0.07136834,0.03280034,0.29373333,1.0722766,0.1032,-2.3472998,0.04997966,0.07668666,1.2082334,0.53088,-0.11853677,0.70904,-0.20723666,0.27779666,0.8592067,-0.02055833,0.10448667,0.21272166,0.13925,-0.57591337,-0.12171999,0.02687167,-0.01305433,-0.24517,0.29479665,-0.77352,-0.22066331,-0.154745,0.06240999,-0.1412303,-0.11335333,0.284388,-0.6589233,-0.25845668,-0.7910733,-0.031189,0.08294667,-0.40820333,0.26724002,0.10649767,-0.26035866,-0.04998332,-0.07157666,0.08872667,0.16081,-0.28714,-0.21209733,-0.5993867,0.603785,0.133274
dry,-0.5399333,1.72E-01,0.44473997,-0.46749333,0.09087332,-0.02529001,0.35929596,-0.00916633,-0.10567,0.05108633,0.42659,-0.21941666,-0.02831133,0.15929534,0.526757,-0.14903,-0.03233467,-0.24763,0.46574664,-0.5762333,-0.39161,0.07641333,0.08514667,-0.06663889,-0.06800334,0.45779666,-0.10429666,-0.28504,-0.04071333,-0.19550265,-0.16818567,0.49442998,-0.77203995,-0.10320965,0.31538332,-0.014627,0.48109064,0.37337336,-0.28760934,-0.12989332,-0.36092332,-0.8605537,-0.38069,-0.4613,0.48777032,0.05189334,-0.25918534,-0.10098767,0.30724868,-0.43061998,0.29808334,0.21877001,0.0217,0.48217466,-0.00966332,-1.3073467,0.00367333,-0.22801332,1.6671333,-0.15244833,0.19142334,0.5494343,-0.23077267,0.12203334,0.92999333,0.29794666,0.91155,-0.76929,0.21481967,-1.0161834,0.10950934,-0.5393567,0.7798233,0.211623,0.09547666,0.15529966,-0.24365436,-0.70141333,-0.10666666,0.186211,0.62797,0.02794334,-0.89059335,0.37127003,-0.24031468,0.23819602,0.72739667,0.54781336,-0.13253067,0.16860783,-0.22372,-0.26466,-0.36046,-0.06402767,-0.18682666,-0.26113334,0.29903468,-0.155248,0.36223498,0.33838665
name,6.34E-02,0.1876448,0.296564,-0.08854781,-0.160193,0.4062318,0.194102,-0.214502,0.12911198,0.21890119,-0.0128373,-0.3009852,0.354492,0.0662718,-0.05863086,-0.028685,0.33089,-0.15918602,-0.164342,0.42501003,0.26644602,-0.05453239,-0.01010801,-0.20172401,0.0091924,-0.14524162,0.0748966,-0.2175006,-0.0978584,0.0815184,-0.0565732,0.767926,-0.11241001,-0.2593258,0.37930003,0.0181724,-0.2719212,0.2065762,0.51171297,-0.375558,-0.17483401,0.075272,0.08698,-0.20353,-0.12603799,0.178653,0.23968,-0.16724,-0.39874938,-0.5272122,0.10967481,0.08723781,0.4105234,0.893144,-0.17234519,-1.91458,-0.22428961,-0.196964,1.6316859,0.555362,0.303657,0.723734,-0.11707,-0.2662564,0.851814,0.010348,0.46613997,0.02910768,0.34949598,0.09596878,-0.05237,-0.236022,0.071636,-0.05631839,0.338448,0.03074399,-0.12727648,-0.08937839,-0.6033826,-0.0786404,0.03136879,-0.28415862,-0.415016,-0.01542,-1.56632,0.15833738,-0.0917894,-0.347765,0.38132802,-0.36157197,-0.0620552,-0.296692,0.20224997,0.1400938,-0.23609838,0.3699544,-0.24752381,-0.74740595,0.3599636,0.05573081
,,,,,,,,,,,,,,,,,,,,,,,,,,,,,,,,,,,,,,,,,,,,,,,,,,,,,,,,,,,,,,,,,,,,,,,,,,,,,,,,,,,,,,,,,,,,,,,,,,,,
,,,,,,,,,,,,,,,,,,,,,,,,,,,,,,,,,,,,,,,,,,,,,,,,,,,,,,,,,,,,,,,,,,,,,,,,,,,,,,,,,,,,,,,,,,,,,,,,,,,,
,,,,,,,,,,,,,,,,,,,,,,,,,,,,,,,,,,,,,,,,,,,,,,,,,,,,,,,,,,,,,,,,,,,,,,,,,,,,,,,,,,,,,,,,,,,,,,,,,,,,
,,,,,,,,,,,,,,,,,,,,,,,,,,,,,,,,,,,,,,,,,,,,,,,,,,,,,,,,,,,,,,,,,,,,,,,,,,,,,,,,,,,,,,,,,,,,,,,,,,,,
,,,,,,,,,,,,,,,,,,,,,,,,,,,,,,,,,,,,,,,,,,,,,,,,,,,,,,,,,,,,,,,,,,,,,,,,,,,,,,,,,,,,,,,,,,,,,,,,,,,,
,,,,,,,,,,,,,,,,,,,,,,,,,,,,,,,,,,,,,,,,,,,,,,,,,,,,,,,,,,,,,,,,,,,,,,,,,,,,,,,,,,,,,,,,,,,,,,,,,,,,
,,,,,,,,,,,,,,,,,,,,,,,,,,,,,,,,,,,,,,,,,,,,,,,,,,,,,,,,,,,,,,,,,,,,,,,,,,,,,,,,,,,,,,,,,,,,,,,,,,,,
,,,,,,,,,,,,,,,,,,,,,,,,,,,,,,,,,,,,,,,,,,,,,,,,,,,,,,,,,,,,,,,,,,,,,,,,,,,,,,,,,,,,,,,,,,,,,,,,,,,,
